<?xml version="1.0"?>
<opencv_storage>
<my_nn type_id="opencv-ml-ann-mlp">
  <layer_sizes type_id="opencv-matrix">
    <rows>1</rows>
    <cols>4</cols>
    <dt>i</dt>
    <data>
      50 70 35 6</data></layer_sizes>
  <activation_function>SIGMOID_SYM</activation_function>
  <f_param1>6.6666666666666663e-01</f_param1>
  <f_param2>1.7159000000000000e+00</f_param2>
  <min_val>-9.4999999999999996e-01</min_val>
  <max_val>9.4999999999999996e-01</max_val>
  <min_val1>-9.7999999999999998e-01</min_val1>
  <max_val1>9.7999999999999998e-01</max_val1>
  <training_params>
    <train_method>BACKPROP</train_method>
    <dw_scale>1.0000000000000000e-03</dw_scale>
    <moment_scale>9.0000000000000002e-01</moment_scale>
    <term_criteria><epsilon>1.1920928955078125e-07</epsilon>
      <iterations>300</iterations></term_criteria></training_params>
  <input_scale>
    2.3397960220856236e-04 -1.3777158542313905e-01
    2.8619942648783875e-04 -2.1891098195712115e+00
    3.9749588785861501e-04 -7.3306562570618683e-01
    4.8532082188672846e-04 1.3172419911908968e+00 6.0798360516851988e-04
    -6.0733278087189879e-01 6.8004099409148852e-04
    2.2464346084306017e-01 7.0059304191182178e-04 1.0325088236080551e+00
    8.0833036892924935e-04 -3.5849688578002553e-02
    8.3915966415362524e-04 -3.9351998676726963e-01
    8.6975196217709677e-04 1.0640821043706754e-01 9.5054152077375469e-04
    4.1190343185510364e-01 9.6925426131796544e-04
    -2.2382037129254781e-01 1.0189081179556106e-03
    8.0027924295842587e-03 1.0517461844480052e-03 3.0145777005206925e-01
    1.0628665777873548e-03 -2.5537469734353008e-01
    1.1038573535347878e-03 -3.6089285321408832e-01
    1.1274878328876496e-03 5.0991856498687760e-01 1.2040980011863828e-03
    -3.2644149055934331e-02 1.2219110639292716e-03
    -1.5317764589237848e-01 1.2557023022002889e-03
    3.3128754375723757e-01 1.3113151606734092e-03
    -1.4521045887542353e-01 1.3551709237303339e-03
    1.1068115647457263e-01 1.3988742072980136e-03
    -2.1635046860533033e-01 1.4612265107405342e-03
    -5.0602422488576132e-02 1.4501570689483376e-03
    -1.0466551694168333e-01 1.4933329137671086e-03
    -2.6329336517357908e-02 1.5285405315489040e-03
    -4.5572956093302516e-02 1.5725540206477857e-03
    -4.9492096540534006e-02 1.5901734815210711e-03
    -9.6055976269798823e-02 1.6330324657681426e-03
    7.9466666667479924e-02 1.6615474552810696e-03
    -2.0593455588758499e-03 1.7010694658955467e-03
    -6.9963196540591979e-02 1.7088042338689496e-03
    -1.0488996605302216e-01 1.7236537879229406e-03
    1.1352701162267312e-02 1.7760798946538446e-03 1.1375764197108097e-01
    1.7851582141573932e-03 2.0045163969325142e-01 1.8285201683179637e-03
    -5.0354396016791814e-02 1.8878134735332553e-03
    8.9165115112272139e-02 1.9522030206957949e-03
    -1.2038419412525310e-01 1.9529758878978724e-03
    1.4994355722844663e-01 1.9675558401092987e-03 1.4442311455358844e-01
    2.0075481587529605e-03 2.0315468279906551e-01 2.0328939514607735e-03
    -4.0640766252923857e-02 2.0423354153343313e-03
    2.4706399319925341e-03 2.0750369986464942e-03
    -9.2533877830254324e-02 2.1216458995882092e-03
    3.3970634780301695e-01 2.1819009858618219e-03 1.1597137711385923e-01
    2.2049618819814042e-03 -1.1996878750990390e-01
    2.2332232755397298e-03 5.3529451750714752e-01 2.2734004777717086e-03
    1.3159603633305131e-01</input_scale>
  <output_scale>
    5.2631578947368418e-01 4.9999999999999994e-01 5.2631578947368418e-01
    4.9999999999999994e-01 5.2631578947368418e-01 4.9999999999999994e-01
    5.2631578947368418e-01 4.9999999999999994e-01 5.2631578947368418e-01
    4.9999999999999994e-01 5.2631578947368418e-01 4.9999999999999994e-01</output_scale>
  <inv_output_scale>
    1.8999999999999999e+00 -9.4999999999999996e-01
    1.8999999999999999e+00 -9.4999999999999996e-01
    1.8999999999999999e+00 -9.4999999999999996e-01
    1.8999999999999999e+00 -9.4999999999999996e-01
    1.8999999999999999e+00 -9.4999999999999996e-01
    1.8999999999999999e+00 -9.4999999999999996e-01</inv_output_scale>
  <weights>
    <_>
      -8.7822487848196046e-02 4.8919910363421165e-02
      -1.9043639159276757e-01 6.6685488792870440e-01
      -3.8992829315615990e-01 -1.8807199142073663e+00
      -5.0605966760926002e-01 -1.9756390944015267e+00
      -2.4212206697019870e-01 2.2748499512470696e-01
      -4.8303790868438917e-01 1.3985467748702621e-01
      -3.7557199344222920e-03 -1.9827288672952195e-01
      4.6902423713484388e-03 -1.3790572622689135e-01
      4.5180236893217007e-01 1.3474082968433790e-02
      1.0988281078783757e+00 4.5455664029368231e-01
      3.8145955262023873e-01 4.9943123116782576e-02
      2.8493707797522327e-01 3.7475826931401557e-01
      9.4711269583692831e-02 9.7480792657798798e-01
      6.9448285822650524e-01 1.1721240956053158e+00
      -1.3545210516211931e-01 -2.6324066158234048e-03
      -7.7728234759838333e-01 -1.4029450783793590e-02
      1.5537776598783190e-01 -3.9431329440441432e-01
      -6.2285170644995606e-02 -2.5675297514526813e-01
      -7.9342583913793363e-01 -1.5718827565922952e-01
      -4.9119266694775932e-01 3.0128366622901565e-01
      -3.9954268709449364e-01 -4.3526372564192062e-01
      1.3002832541751050e+00 -9.5957727893082390e-01
      1.2956614157345911e-01 -1.0403877051924043e-01
      1.2019232300890801e+00 -2.7962358789595904e-01
      8.9468761161916668e-02 5.5374865660809758e-01
      3.3993838360993754e-02 -3.9446441220108798e-02
      6.7003250473331541e-02 1.0144782735967952e+00
      -2.5764530840363692e-01 3.8217620276928854e-01
      1.4881403414074779e-01 1.8900543119860658e-01
      -2.4380911089318213e-01 1.0807824875969585e-01
      2.3383976612768068e-01 -6.0993412961349991e-01
      -4.1243255546742397e-01 2.6327683503429944e-01
      2.1253610583916019e-01 7.4307242412613195e-01
      5.1433977902534922e-01 -1.9193718432718779e-02
      3.0118450534281305e-01 -7.7291496989719766e-01
      1.2321176510850369e+00 -2.0100566918883445e+00
      3.1969391362971439e-01 7.0250808603884815e-02
      7.5956150197810623e-01 -5.2283164988459307e-01
      6.3888357570949939e-01 -3.2579294218974784e-02
      -5.0966285990661941e-01 9.3764566985076536e-01
      -2.8837798153501992e-01 1.0656006955403019e+00
      -9.8402202736185121e-02 -2.6123046941869215e-02
      -7.9914058523582354e-02 -5.6055187629979941e-01
      1.3600768867522633e-01 -4.8598931923192157e-01
      -9.0769180833663465e-01 -9.4749880850243173e-01
      8.8660998715274020e-01 8.9892458785864282e-01
      -4.6476689103482120e-02 3.0233045380948742e-01
      2.5739574024549594e-01 8.2284058343853866e-03
      -4.2399809584590903e-01 -1.3983110146740061e+00
      -9.1824355593267692e-01 6.8412005997720474e-02
      8.5114391386846033e-01 2.1825447038281283e+00
      1.3378961370504408e-02 -5.0708608525277643e-01
      -8.3845837374069091e-03 2.1940045409966975e-02
      -4.8164815878225326e-01 1.5343944505853433e+00
      -2.9730495434379972e-01 9.7642818835136680e-01
      1.8663422518757500e-01 1.2895202405825117e+00
      -3.0031581386292721e+00 -7.9071094954993804e-01
      -7.9587528569664068e-01 1.1631113600896484e-01
      -2.4901575817572164e-01 -3.6955267439393685e-01
      2.3544638156437117e-01 -5.6445421748667168e-01
      -3.4724122846790334e-01 -7.1730279664251451e-01
      7.1955982217609904e-01 1.6617317505237434e+00
      -9.2657807383290700e-02 4.9931942374205540e-01
      -9.5641783341366071e-01 -6.9505092597633578e-01
      -7.1212611345053556e-01 6.6443145231926004e-01
      1.9047442882253310e-01 4.9669827476111666e-01
      3.0871366222014490e-01 -1.9081023659161908e-01
      2.0863567611170392e-01 -2.0127922450245435e+00
      -5.8262185569387170e-01 -1.8173740978930855e-01
      -3.8894196431292966e-01 -7.8605710096924442e-01
      -1.4744570065246124e-01 6.3230670923364996e-01
      -3.0137771812068015e-01 4.5795308176205995e-01
      -9.5852943324540474e-02 1.7855524844796872e-01
      -2.4988813439181620e-01 -1.8668029416029025e-01
      -1.3861175249405167e-01 9.1849707345327758e-01
      -3.7113210048106672e-02 6.8426460341315076e-01
      4.3024748493910740e-02 1.2739182433666549e-01
      2.4909566050226215e-01 -1.1886487177657193e-01
      7.0289077300955582e-01 -3.4634411046316710e-01
      2.0606933860450365e+00 5.6771462935401873e-01
      -2.1474352717779841e-02 -8.6253754043287181e-02
      3.5286822668780743e-01 9.2712113147834604e-02
      -3.6312182871560889e-01 -3.1164354221123347e-01
      1.4205460804248131e+00 -5.4968441797248169e-01
      -2.3855637217125145e-01 -4.0945801487798245e-01
      -2.4359419617409286e-01 -1.5160868893289475e-02
      -1.7255818120762251e-01 -3.5443833274272252e-01
      5.5879763168585506e-01 2.5435245241096269e-03
      3.5408203224243395e-01 -1.3241146818169527e+00
      3.6529998160309890e-01 -6.9864760056279696e-01
      2.0845822637551609e-01 8.7919269145725298e-01
      1.3966137748604521e+00 -1.1792061216619540e+00
      -1.0133061857889507e-01 1.4882710165920809e-01
      -1.0441443950743784e-01 -1.8017731980281937e-01
      4.6850185501448371e-01 -4.4494943059113674e-02
      3.0994847103842199e-01 -1.1258658885353172e+00
      8.3609196811467168e-02 -4.8255486021818916e-01
      5.2984234427824639e-01 2.2920968176620940e-02
      -4.1879945970880100e-02 6.0591779802186019e-01
      3.2443736910737303e-01 -4.7058732223463429e-01
      -6.4156544465547638e-01 -6.3877974872775745e-01
      2.9693931738147189e-01 9.7958797199567205e-01
      2.3202656212334510e-01 4.4260506268510474e-01
      -5.8885963857180111e-02 2.4092365061556428e-01
      2.8202275469995730e-01 -2.5299303782605287e-01
      1.1546691625114616e+00 1.2980065144805841e+00
      -5.4281375685427291e-01 -6.6403284737459256e-01
      -4.1430019011054786e-01 -1.1902324889350124e+00
      1.9729050866314901e-01 -7.0194521264779972e-02
      4.1908836202765753e-01 -9.7190843013548134e-01
      -1.8317330216488553e-02 -1.2916262482773959e+00
      1.9617286047023205e-01 -1.7341608139621556e-01
      8.5059358091677084e-02 1.2640538270222976e+00
      -6.9232421408931166e-01 3.0985127347698166e-01
      -2.5112293251970003e-01 -1.1896425472441542e-01
      1.5000488953107949e-01 9.0517173751693603e-02
      2.8392977950456172e-01 2.5383093717319427e-01
      9.0637661206598011e-02 -2.7261341095684055e-01
      -5.2497465670304144e-01 -5.0583011039598980e-01
      -6.2084627010696403e-01 2.6332031779556037e-01
      7.8874929900194723e-01 -3.5831660563418621e-01
      1.8304683983907069e-01 -1.6635321290745703e-01
      -1.2305540291913804e-01 -3.0097362561111207e-01
      9.0846982709452884e-01 -7.8036084743456724e-01
      5.8965317355192826e-01 -3.6520594465751705e-01
      3.1444483654701055e-01 2.0007708415441483e+00
      2.1406484673029333e+00 6.5803262822461350e-01
      4.6311725364496276e-01 -5.9699788958536915e-01
      1.3226435636013343e+00 -5.3126914935814240e-01
      1.1675849285824891e-01 -3.9432150546339917e-01
      -3.0056202135663057e-01 9.2333254436632178e-02
      -2.0902320421221607e-01 -2.2754936510080880e-02
      -3.3236042066361227e-01 1.5698916287095410e-01
      -8.3245004549760915e-01 1.0106879000319130e-01
      -3.6150896061647664e-01 1.1830722011225350e-01
      -1.2407156859277163e-01 3.9157491163978336e-01
      1.1637352710952757e-01 -4.3780057549154833e-01
      -3.0671179991525838e-01 3.3858995646271803e+00
      -2.5354214057988939e-01 2.9154507976878569e-01
      2.9516694235815888e-01 7.7287841160112558e-01
      9.7958555940988540e-02 6.0328180128035702e-02
      -1.0832282045076043e+00 6.0114697303318954e-01
      -1.9687914506699694e-01 6.1383339065370590e-01
      -2.3132630127927012e-01 -4.8584549880007910e-01
      -7.2351562899659692e-03 7.5637887504966961e-01
      1.6007790571516156e-01 5.3154519237588638e-01
      3.1767837875125321e-01 -4.9123064782970349e-01
      1.0575804003824169e-01 -6.3669504515212846e-02
      -2.6786395165946886e-01 -2.2567885749555211e-01
      1.4465840205874743e+00 3.2012830396448777e-01
      5.1114477893381627e-01 -1.4333716290739722e+00
      -1.0353044815236882e-02 -7.1466003714664916e-01
      -3.2632925860018841e-01 -5.7419348938146453e-01
      1.2173351158392378e+00 5.0300286193048327e-01
      6.8217130138044102e-01 -1.1653955163235226e+00
      -9.9454628798016220e-01 5.7810497742402711e-01
      -2.1637858623775105e-01 -1.9592895760167617e-01
      -2.2431088336741598e-01 -3.1044459211515668e-01
      9.3658357569785647e-02 -8.9891770280491723e-01
      -1.3618258875060070e+00 6.0191586882688208e-01
      -4.6541845131974813e-01 -6.2187469391996320e-01
      2.4419012437743879e+00 1.1304947922845914e+00
      -7.9972727780523098e-02 -4.3622075020132384e-01
      -2.3236200043585620e+00 5.2032394170130980e-01
      -3.0309683060452047e-01 -3.0910239682674895e-01
      2.3221254402291383e-01 2.9507341146727367e-01
      -2.0479619781236882e-01 -6.8121441585303588e-01
      -1.0739184637845411e-01 -7.8949599949117308e-02
      5.1988231324042483e-02 4.4410020777878850e-01
      2.3465857188076233e-01 -4.6446206874232093e-01
      2.8775270957297983e-01 -8.1397261020797029e-01
      -2.6146921398605033e-01 4.2680986210622129e-01
      -5.5646961671339989e-01 2.6984233440135208e+00
      7.2542911496696283e-01 3.2796780831648542e-01
      2.5668308607031204e-01 1.3395259384624716e+00
      4.9115749964753347e-01 -1.0088469753553981e+00
      -2.5782315166901976e-01 2.6336106156214889e-01
      -5.7561767029859290e-01 1.0328425885176015e-01
      -3.5532534592271259e-01 -1.1303598308089753e+00
      5.1152037792448901e-01 -3.6047344847391921e-01
      9.0278479267610137e-02 -4.7140338858507463e-01
      1.7535977598483263e-01 -5.3012248879053675e-02
      6.2264397684763953e-02 1.6724257703729113e+00
      -8.2503658856401563e-01 -3.3340760384426160e-01
      1.2719692886710678e+00 8.2073160712006277e-01
      -4.7083984804091306e-01 -7.6245800070270386e-01
      -1.2688651422801783e-01 -5.2827106261695334e-01
      -3.7202100773478469e-01 8.7569956899536916e-01
      -6.8821552930588148e-01 1.8265176846749053e-03
      3.0833825908625584e-01 -1.4715936047662290e-01
      4.6763022917187219e-01 -6.7805667495903735e-02
      -1.4529131794186950e-02 4.8106571831443534e-01
      -3.5677108700849658e-01 -1.8540144791905308e-01
      3.8596385775737811e-02 -2.1447114422480890e-01
      -6.0886136674262958e-01 -1.6215876948164643e-01
      4.4708134206634942e-01 -1.0092229121323137e+00
      1.0753942865230619e+00 2.9094073660312675e-01
      -5.1526632008910855e-01 3.6902093133428147e-02
      -2.2912337436557911e-01 -1.6363111949668813e-01
      -3.2642259069757812e-01 5.3075992794838678e-01
      -1.7813456792377658e-02 1.1285829090886759e-02
      -1.4109694911958273e-01 -1.5061242023787719e-01
      -7.7716319367942277e-01 2.4255493322619154e-01
      -8.2092595096318643e-01 -8.3465584946173332e-01
      1.9244970498746669e-01 4.1404966712068392e-01
      6.1110819490651003e-01 -1.4440867454021397e-01
      -6.3148937017918916e-01 4.0481073688694957e-01
      1.5643893448571369e-01 3.1073435743471554e+00
      -5.6366946786414063e-01 4.0719713032863925e-01
      7.6613892971142223e-03 3.9852909637128586e-01
      6.2070975059613426e-02 -7.7898820508101374e-01
      7.4326765895273761e-01 5.3781217131073700e-01
      3.0970092230141230e-02 -1.5655753012793658e-01
      5.4751804320554731e-01 2.1751196098320529e+00
      2.6744329642845888e-01 -5.4896514700954568e-01
      -2.9223796844808175e-01 -4.6592194840810908e-01
      3.2551664361512367e-01 -7.2878167792572002e-02
      -3.8251178302855615e-03 -4.8825953642532993e-01
      -4.6124314145672246e-01 2.6819218077394674e-01
      -6.8062355102192429e-01 -9.2267472791025096e-02
      -8.1337889413763964e-01 5.1461800497062539e-02
      1.5467739819764967e-01 5.1958805098037297e-01
      -5.1180413007763681e-01 6.0786992608276924e-01
      -7.5560118689199696e-01 1.4266532560866012e+00
      -3.4016708125664546e-01 -5.6283387551361926e-02
      1.2614926815207765e+00 -4.9254621511760625e-02
      4.4153255090415983e-01 -2.5078986362853328e-01
      1.1971361962626276e-01 1.3491747674423056e+00
      -3.6071081859219944e-01 -1.7524400602337837e+00
      -1.5356123937153457e-01 -6.6756507440440704e-01
      -2.4221733359161329e-01 -7.3218343762541149e-01
      4.3294397080619945e-01 6.4909080117892959e-01
      -3.2716531671739146e-01 -3.2743277166794160e-01
      5.2579114668072291e-01 3.0438667301020228e-01
      -8.9877911523338613e-02 1.6024506658760723e-01
      -5.7466114507927535e-01 4.0376551098390667e-01
      2.7118301582875848e-01 -6.7807265336614775e-01
      2.4095854268499539e-01 1.4914813502540569e-01
      -1.5472621614387172e-01 -3.2106406268202436e-01
      -2.8888096183015921e-01 2.5994843251441718e-01
      9.0385693471251660e-01 3.7583591410204226e-01
      -9.4116508064062118e-02 6.1194738113695490e-01
      -2.4890430896585594e-01 2.4279994805978999e-01
      1.1696548655821215e+00 -7.3110108428427123e-01
      -3.5375028745727694e-01 9.7995006956025699e-01
      3.8903609291695074e-01 -4.0367204918960298e-01
      1.6097845538838673e+00 -1.9847026470529019e-01
      1.8380588538283659e-03 1.5557326150061801e+00
      -7.1953794111899572e-01 1.5572508364307663e-01
      3.0067688905222673e-01 -9.5986206717326328e-01
      2.0899150460357233e-01 -1.4010613733970717e-01
      1.6278196383606758e-01 -2.7787244801412736e-01
      -3.2541982297406423e-02 -1.2723332125757345e+00
      -1.0338194578843218e+00 3.2032634306290919e-01
      -1.2749977650149840e+00 2.7374459811734508e-01
      -1.7120721405488326e+00 1.2003786281368591e-01
      2.4041710243650194e-01 1.2076461264979872e+00
      6.8477620816069951e-01 1.0216869585853445e+00
      5.8361685933059382e-01 -7.1896325652973603e-01
      -1.4252005254223319e+00 1.5716115708990488e-01
      4.6243943322663245e-01 -6.4034987585429759e-01
      1.4135925673392363e-01 -7.6655505734703450e-02
      1.1551740703944663e-01 -2.2398691016457095e-01
      5.2674108259065333e-01 -9.8167124712935330e-02
      1.9377019637197643e+00 -9.3313873322721430e-01
      -4.9201397767637889e-01 -2.3054388547003568e-01
      -1.9098254766578848e+00 -2.2924411218045160e+00
      1.7671783921340492e-01 -4.7640225847212073e-02
      2.0604948816999871e+00 -3.2125561691525562e-01
      4.1357767185899785e-02 -3.8540016813920219e-01
      1.5517531008897892e-01 -5.9712007130020162e-01
      5.3375204011841326e-01 -3.2836040491461743e-01
      -7.5787649043490418e-02 -2.0898265710294497e-01
      3.4692065176230202e-01 5.9358149196294197e-01
      1.0571535875029438e-01 9.0670750376676906e-02
      5.1406983973442677e-01 -1.6875794728267571e-01
      -1.0159198913623359e-02 -1.7425964176114977e-01
      2.5115750424032063e-01 1.2961801416737034e-01
      1.8464628995338003e-02 -1.6160606468102262e-01
      1.7705720465735464e-01 -7.2951135759786667e-01
      4.2241293550338510e-01 4.4359221115116509e-01
      2.4015811625193024e-02 -1.9465023734034717e-01
      3.8255663150352515e-01 1.5653274396007363e-01
      7.5538879609365547e-02 4.2550110067277080e-01
      2.1261977259376758e-01 1.2282671975986443e+00
      -2.1147387518814675e-01 1.8428309121988423e-01
      -4.2263725821984988e-01 -1.2764382291800364e-01
      -3.9318607883834772e-01 -6.4276009992882022e-01
      2.5248400489465933e-01 4.5782867616563550e-01
      1.7325014744318885e+00 1.3081776142086848e-01
      -1.6871111062381822e-01 3.7555057880000720e-01
      -1.4139347497411422e-01 4.9875995920241672e-01
      3.7599690423591425e-01 2.8598990860828125e-02
      -5.8755072923951185e-02 -4.8328170757922456e-01
      -1.0731747095848407e+00 1.2322598646712994e+00
      4.2558451689845633e-01 -1.1353686960024743e-01
      1.0221895778207025e-01 -1.0798489796747422e-01
      -1.8461521901216441e-01 -4.2416997373770127e-01
      -2.6424824072547586e-02 -5.1501563767526271e-01
      1.0163753615637914e+00 3.7767832294728948e-01
      2.5165045269910641e-01 1.6699491121239918e-01
      -6.6382837133146400e-01 6.3989935600601822e-01
      5.2882593549864187e-01 -6.7612298850679586e-01
      -5.4112634335694143e-01 3.8224308128749113e-01
      -1.3349561891742934e-01 8.0810062206887567e-01
      -2.1936300692487429e-01 -3.4106514257174037e-02
      3.2056389464543844e-01 2.5666439370628480e-01
      4.1383799583105157e-01 -1.4114225700389099e-01
      1.9703341057144649e-02 1.2734979013321426e-01
      -4.3025278629106989e-01 -7.2779314163614134e-02
      7.0641102806984268e-02 -1.2851974160333718e-01
      -3.0546827812478156e-01 1.3800326407435115e-01
      2.3022931608218047e-01 -1.1764214834705169e+00
      3.6094524108989084e-02 -7.5418897130086635e-02
      -2.5834246944048806e-02 4.6839651211171679e-01
      -1.0769979799100096e+00 5.2227878646210681e-02
      2.1350750956881179e-01 3.6605082170038433e-01
      2.1062871708673861e-01 -2.4083330541216091e-01
      -1.4620934630838339e-01 6.4310742940052112e-01
      -5.3346608683902397e-01 7.8001748901758150e-01
      -2.2464741290852600e-01 -2.1335254586010075e-01
      9.7794025026591333e-02 -2.8675499897848056e-01
      2.0134326677458347e-02 -1.6231320831339435e-02
      3.6295628062868363e-01 -9.6133751582817686e-02
      -4.7895506208291422e-01 -1.0932878209476089e-02
      4.3925391617355941e-01 -6.5565784606078992e-01
      9.1749085418641227e-02 4.0988232500991351e-01
      9.0442774797634851e-02 1.0146685090641636e+00
      5.8419749506736973e-01 4.1812114668348316e-01
      2.3738010577944260e-01 -2.9770460560933892e-01
      6.7809233582418849e-01 -1.3927976460608715e-01
      2.6472216538789017e-01 -2.1201090893005131e-01
      2.6873335058063758e-01 2.7174510685618797e-01
      -1.0394459912349641e+00 -6.2918980479170925e-02
      4.9053835581547600e-01 4.2650493009404467e-01
      -5.9346844276091693e-01 8.0444287159275707e-02
      1.4700262050966512e-01 -6.6558103230389554e-01
      2.2601078404135780e-01 -2.2583532108715207e-01
      3.6785730085475871e-01 -3.5720758547722087e-01
      -1.4483493646738757e-01 2.3218576849192865e-01
      -1.3258710679692934e-01 -6.0904677275982133e-01
      8.8646571399380891e-01 6.7786943635720120e-01
      -2.2070924517223756e-01 -2.1431254259230228e-02
      5.3327560325063576e-02 3.8124093888901207e-02
      2.1645102752449419e-01 6.6177425619550215e-02
      7.0036914151166907e-01 -2.1574260658620914e-03
      -2.4012547613141114e-01 -2.1006248752668197e-01
      -6.1249161715306411e-01 3.3845539417481647e-02
      -1.5597459770787067e-01 8.6374572169923197e-02
      -5.6946928581259312e-02 2.3652048864029537e-01
      4.6937548897445347e-01 8.4139886129587241e-02
      -8.1689312037163975e-01 -4.6580365726021566e-01
      7.8266432148379828e-01 2.3852567961022867e-02
      7.6352357183256847e-01 1.5612131351701968e+00
      -3.8070494944006950e-01 -1.6321220852149718e+00
      -4.9567785606211173e-01 9.4901035886619439e-02
      -1.0505404779677016e-01 1.3384265750554641e-01
      -9.1748244818534178e-02 -3.6833680340186892e-01
      -7.4108354664929266e-01 6.5904893433191405e-02
      4.2990206243137330e-01 -1.2736356322303646e+00
      -2.5558250095492852e-01 -3.5851845573792707e-01
      -2.2274799633690703e-01 -5.7980041221861656e-01
      9.3344293091684544e-02 9.0757946051607852e-01
      1.9900943056916895e-01 -1.8111570900761418e+00
      5.7897011560544698e-01 -1.8094299119336793e-01
      7.6221767762654113e-01 1.1001639767378650e+00
      9.1753357159976602e-03 6.9707553410544809e-01
      8.6504348410332152e-02 -2.1358280946818267e-01
      -9.3959888836057825e-02 5.7722840413687682e-01
      -5.5133581826186218e-01 -3.1384817553791666e-01
      4.1946989620663538e-01 -2.3248307799324094e-01
      4.3409972510042566e-01 1.1753699057913096e-01
      5.8914490692344557e-01 -3.8132769164452512e-01
      -1.8085802451065840e+00 2.5504157297640245e-01
      -5.6364034168734534e-01 -2.0936243693455141e-02
      -4.2158604160959318e-01 -1.1385942357167795e+00
      -3.5067922369387861e-01 2.2036095902597125e-01
      -3.4562967646017734e-01 3.2060134993891659e-01
      -5.1204651865550332e-01 -1.5407045789749652e+00
      -2.3461749635038373e-01 2.0535990707700641e-01
      5.1848222730630111e-02 -3.7847805972072318e-01
      -2.8003496318977206e-01 3.3438682924150492e-01
      -5.1301926059385761e-01 1.3472545201730530e+00
      -4.8628681040400346e-01 -2.8616763994898042e-01
      -4.2129540101604868e-01 6.0775818177996577e-01
      -9.9285638394302156e-01 -2.4630785562148316e-01
      3.9245610053874613e-01 -1.1856216742113199e+00
      -4.4499809001345453e-02 -1.1846262534604497e+00
      2.7665981522970399e-03 1.2073892907204600e+00
      -1.2257564801441626e-01 1.2735042542686181e-01
      -6.6623045502842662e-02 1.0407684301345242e-01
      -3.4667507175370697e-02 -2.2772782595657312e-01
      4.8023906561351290e-03 6.5541377226511099e-01
      1.2359187198183598e-01 6.1874413019066654e-01
      1.0049851960748699e+00 1.1253809812637254e+00
      2.1393066311812400e-01 1.3797228156436278e-01
      -2.4267343713101930e-01 -2.5681023151061760e-01
      -2.5059518394759717e-01 -9.3689294129686754e-02
      -6.5037203924726639e-01 -1.1586161705610174e+00
      -3.8757615185279271e-01 -3.0331784331572038e-02
      4.9735231300934080e-01 3.9570612386493592e-01
      9.6186862374910018e-02 4.0366876199621865e-01
      -1.3602773006609398e-01 -4.7998095307603884e-02
      -2.8582649778108527e-02 1.7357042304815792e-01
      -5.5258292309657309e-01 -1.6396955837831192e-01
      1.5411402219347919e-01 2.7802624251239583e-01
      -5.1750072921972590e-01 7.6866453989796379e-01
      3.5125358695203179e-01 6.1936078362777947e-01
      -1.8386812630862148e+00 -9.8702986268975779e-02
      -2.9294698729397195e-01 7.4142276057943546e-02
      1.3193041196769048e-01 1.0003254998140039e-01
      -5.1606276202090240e-02 6.2451405924070047e-01
      3.9555930718199961e-01 9.4895008176910628e-02
      -1.7298923186820239e-01 -2.6233212741156797e-01
      2.5730914244951081e-01 -3.8691589130613196e-01
      1.7989229264033454e-01 -3.7388084465507909e-01
      7.8780707132026395e-02 -4.5709643731242766e-01
      2.0779261361205978e-01 6.6022028432776547e-01
      7.0050313697372624e-01 2.9854157868774861e-01
      -4.2408842822636511e-01 -3.6025723372725127e-01
      -1.9921675764650904e-01 -8.9025498716025797e-01
      -7.5387179555852835e-01 5.4884492579196231e-01
      -4.9940749655980408e-02 3.2964205902032340e-01
      1.3919360776421652e+00 -1.4826334879800143e-01
      -1.9120498732864838e-01 -8.7363544608303534e-02
      3.3373165431577656e-01 -7.1232085780119650e-02
      4.9277965808948367e-02 1.9576321687051361e-02
      -2.4366585982062466e-01 -1.3870614560754007e+00
      -1.0218125709070274e+00 -2.8939325000315574e-01
      8.8027053142109479e-01 -7.8122453519852947e-02
      -4.0571106380569638e-01 -7.5844528261454783e-02
      -2.8337750346264223e-01 -1.0810593845202333e-01
      -3.8363230729508868e-01 -8.6269588379982831e-01
      4.5146527346516963e-01 -3.7021437263448992e-01
      6.3281056473416908e-01 9.0684434861723151e-01
      5.3588160457537848e-01 -9.0496860895601897e-02
      -1.5681340866710813e-04 4.8455187122513621e-02
      -1.1922717627365763e-01 1.3540473070314843e-01
      -3.5575790415074610e-02 -5.3469909928221249e-01
      -2.8664560520963445e-01 -3.9929567426333756e-01
      1.9480644644443931e-01 -3.4333920255668388e-01
      1.0174939810162231e-01 -2.5791471039887570e-01
      -4.0491470980400590e-01 -5.9860076679753127e-01
      -4.0701169335547288e-01 -1.1144217684833926e-01
      -7.4810290832154136e-01 1.9745682923815111e-01
      1.2829596427593495e-01 -2.3969415554473700e-01
      -3.2372579566603776e-01 3.7618413112283822e-01
      -5.2481873514287147e-01 -2.5481900047659160e-02
      1.3006319050576343e-01 -4.9941286621289144e-01
      -1.0119151690238266e-01 5.8944103355426924e-01
      1.6828310490547185e-01 -1.3260519144891875e-01
      4.8524930078971396e-01 2.7182921281395034e-01
      -5.9375420100810192e-02 -6.0582057279712742e-01
      -3.7928148252094829e-01 -1.1226159055991338e+00
      -2.9589775802110008e-01 3.1756144537520181e-01
      4.5297346859740678e-01 9.2821620585194187e-01
      1.2186448465403605e+00 -1.2458100367795334e-01
      -2.8862416996621054e-01 -7.1415746422922721e-01
      -1.1087291437214526e+00 8.2427978854932826e-01
      -2.7336806829664861e-01 1.0351700438259417e+00
      -1.0166670142614481e-01 -1.3683640696180665e-03
      9.0129576455884625e-02 -1.7125498525869438e-03
      -1.7138008578407168e-01 6.2735806463636967e-02
      -7.7640241060478821e-01 1.6314143199050041e-01
      1.2425199486598359e+00 1.0437333306286078e+00
      -2.5550712923128521e-01 9.3263551349143081e-01
      -1.4022792770551515e-01 -3.0755523613983948e-01
      6.3334357496815086e-01 2.5801309938777012e-01
      -1.6959990532241181e-01 1.2327209027365751e-01
      -8.3357624701353927e-01 7.4420138232104116e-01
      5.6724782199618418e-01 -1.7019143443424509e-02
      -2.4727929585344050e-01 4.1129104553173029e-01
      8.3474029608100866e-02 -8.0616650379550170e-01
      2.5383451314273769e-01 -1.3936164548378203e+00
      6.9092297736106534e-01 -9.1280934136209180e-01
      -8.7538568464818806e-02 1.2909764253921752e-01
      5.2673304068873628e-01 1.1770039025328505e+00
      5.1581298052874780e-01 1.4487018153164682e-01
      5.8661505767742628e-01 -2.7478238296915941e-01
      -1.3137489807541983e-01 -1.0452672087992849e+00
      4.0094472653561170e-01 -2.6666525558181181e-01
      -8.0429911173944690e-01 -4.3052579321744006e-01
      1.4846299350877418e-01 3.9084851987551750e-01
      -6.1787252372714774e-01 1.8357318908926420e-01
      3.2675450412284818e-01 -1.6351204047262460e-01
      -1.5727529422332062e-01 1.6287028689530939e-01
      -5.1306645194663891e-01 -3.6427417342779955e-01
      6.2333801404622469e-02 2.0521980178367158e-01
      -8.6186597382673480e-01 -4.9053226928340821e-01
      1.4998621392203043e-02 -1.2811069857083714e+00
      -2.7365613426880341e-02 2.4030313640227152e-01
      7.2840650264627937e-01 4.6656906610730459e-01
      -2.4388424054024044e-01 9.3023683274924096e-01
      5.7024746014391081e-01 1.2514695403466511e+00
      -2.1299884297109498e-01 4.6295832549190113e-01
      4.5817130555781199e-01 1.6149585720770593e-01
      -2.2135877997807019e-01 -1.0690064217797141e-01
      -4.5992637758270678e-02 -8.9293361431952634e-01
      1.9638961406933903e-02 -6.5127619467035647e-01
      8.5241140905890367e-01 4.4039621375363869e-01
      5.6508956281718037e-02 1.1343593862300341e-01
      -3.5668434876834174e-02 1.1655761996860525e-01
      3.3458411427783674e-01 7.8292165651084156e-01
      6.0667306114770403e-01 -3.5929569116804422e-01
      2.8426004655798037e-01 1.5113755088494946e-01
      -1.3282262760828309e-01 -1.4098116451929215e+00
      2.2488509298663927e-02 -3.8916512754838023e-01
      -1.0471622887782504e-01 3.3203298022244992e-01
      2.4882281713790183e-01 3.3009658174568879e-01
      -1.9925384809952545e-01 -5.9326207953380055e-04
      -3.9737654969834352e-01 -9.4011780502398312e-01
      -1.0759459736459640e+00 2.1531098869064552e-01
      -9.1561371091007454e-02 1.1916838347344952e-01
      -9.7672183881391661e-01 1.6312321357333953e-01
      5.1781291978919883e-02 -3.9884638728701523e-02
      -1.9661035800680601e-01 9.1400129477727965e-01
      3.7439706865194816e-01 2.9691226232451967e-01
      -1.5420855630507094e-01 -5.1915525292629716e-02
      3.5746039673162661e-01 1.0639838670138541e-01
      2.4782718423382138e-01 -3.5992825787223431e-01
      -6.5690836628850047e-01 -3.7652011623434350e-01
      -4.8219795996384979e-01 -4.2825471536814902e-01
      -3.5437438403468774e-01 6.8256538116432919e-01
      -7.3546468463605741e-01 7.8989848443450328e-01
      -3.3216660769160071e-02 -1.1052174040766378e+00
      5.1539520488230788e-02 -1.4807222387126107e-01
      5.4647297749918000e-01 -1.8742217938538669e-01
      -8.1831689374745002e-03 -1.2052078329018006e+00
      -1.0472314106910989e+00 -9.8312912455140344e-01
      1.7971830220638393e-01 5.3132752412414408e-01
      -1.6083985310276777e-01 1.6752226496827000e-01
      -1.1728985072875762e-01 6.5995870504088394e-02
      2.7655977662533104e-01 3.7469446132401130e-01
      6.0827573776688371e-01 1.0043906186415280e-01
      1.5023423842711814e+00 8.6151438943637049e-01
      -6.1657350289136881e-01 3.7876464799790649e-01
      -2.8116297737537327e-01 6.6730420713034061e-02
      -4.9010704902729246e-01 4.4786045166358807e-01
      2.6371574222548788e-01 1.1347335892953947e+00
      -4.8157668436132200e-01 -1.0209912806890695e+00
      -4.9055022412260291e-01 1.3780281146456011e-01
      -5.7371845732013904e-01 3.3889151739951345e-01
      -1.8018147406653939e-01 1.9638646918085365e-01
      2.0841538994161318e-01 5.5327818772550275e-01
      4.2933084232474145e-01 -6.0624103207580227e-01
      6.2066008006434148e-01 1.1043550783537730e+00
      1.3750959573215886e+00 -1.6544551623068571e+00
      6.9972401935252018e-02 2.3433809847610829e-01
      -3.3103611660809001e-01 -1.1628972151487220e-01
      -1.1258793479948405e-01 -4.2354644324949675e-01
      4.4368755161944329e-01 1.4189734804038590e-01
      -3.9849994633723484e-01 -4.3741842667568159e-01
      -1.3990623443440772e-01 -8.0043492052568965e-01
      -6.0475445222790483e-02 3.3030369650082170e-01
      -1.9644138784072440e-01 4.4198521776098709e-01
      5.5605000109366975e-01 -4.0573240196727633e-01
      1.5718829484949143e-01 4.5780743820581515e-01
      4.6783936911643614e-01 -7.2479385808793184e-01
      1.0705331454149486e-01 3.5696046361949424e-02
      4.3899501161348220e-02 2.5528359054304878e-01
      -5.9816999033265761e-01 6.6320303108958773e-03
      2.9324719701584906e-01 2.4184520649485020e-01
      2.6267750636176257e-01 -7.1521365326207931e-01
      -1.7790041948372151e+00 1.1503759810413131e-01
      -1.8275479424409821e-01 -2.1275332990971024e-01
      3.2816629792205826e-01 -6.7856270626909581e-03
      2.4245917450646409e-01 3.5492655140563550e-01
      4.0107112148877416e-01 6.3131442420078088e-01
      -6.8305485120503850e-01 7.8174105876484115e-02
      6.1010636449173172e-01 1.8554644798206846e-01
      -7.2587356470263376e-01 -4.1618729055140369e-01
      1.8149759261449330e-01 1.8599885788044887e-01
      1.1439798186249904e-01 -5.4205251714696001e-01
      6.0932565650336334e-01 7.2011525632731543e-01
      -6.5416270685247146e-01 1.1652330515424920e-01
      4.1175967968660765e-01 7.3087385363519675e-01
      -2.2772796925092892e-01 -5.7268967720537911e-01
      1.8384059392494882e-02 1.6314421045364955e-01
      1.3330964634721310e+00 8.3005766672900505e-01
      1.0325530015544453e+00 1.6730370408082759e-01
      -3.7278460423246740e-01 -2.6206845397975764e-01
      1.6372323467673735e+00 1.1484979738450898e-01
      -2.5337250095099784e-01 4.3156429325807148e-02
      1.1601110886008530e+00 -1.8858170922895767e-01
      1.6003953484582445e-01 -6.8297590335578168e-02
      6.4250241736401204e-01 4.0365160093684127e-01
      1.0928779595671373e-01 -1.6125066339005287e-01
      4.5454481869640601e-01 -2.3995965094648555e-01
      5.5249670966637887e-01 8.0212736108895524e-02
      -6.5343425782813866e-02 8.9584980247914767e-02
      -6.7568383916964225e-01 -4.2184785227945060e-01
      -1.8271841620432339e-01 6.0675282647028239e-01
      -3.2990571978171462e-01 -8.6073600995013599e-01
      -6.4124136014990851e-01 -9.6988187456998415e-02
      -4.9089934532447921e-01 -7.2323155460116395e-01
      2.6274146625507372e-01 2.1901942308180784e-02
      1.8318189185957923e-01 -3.3546710849755096e-01
      -2.3266913820998952e-03 8.5912307909054986e-01
      1.4856232984785961e-01 -1.3209192299332062e+00
      2.5777713034658017e-01 1.1615605450854620e+00
      5.3438110062825628e-01 2.0237014956149782e-01
      4.5532871805924274e-02 1.6710342397653655e-01
      3.6433589996967934e-02 7.4178676225119822e-01
      -1.0458910315683911e+00 4.4304612271576121e-01
      9.5421350929125504e-01 -4.6988554093145389e-02
      5.2360307975833997e-01 2.6737819657173612e-01
      5.9353993712995511e-02 -2.5240064567919512e-01
      1.3198686000663049e-01 6.5356768885063543e-01
      3.9812177989206243e-01 -8.9197136082003858e-01
      5.4889728686856987e-01 9.5010403814658834e-02
      2.0791868831330132e-01 2.9558796165317348e-02
      -1.9235912865201960e-01 -2.6388911113549901e-01
      3.7068495535203007e-02 -3.1638170846190128e-01
      -1.2592491841187456e-01 -7.1901872786827714e-01
      -6.7997229084464417e-01 3.0047101863332243e-01
      -3.7769751940364538e-01 -2.1251084776161069e-01
      -6.5213531270692482e-01 -8.6603027890311046e-02
      3.8101990209556480e-01 -1.0374019733674192e-01
      3.2336203968611121e-01 1.8574852562333272e-01
      1.3279511637251493e-01 -2.7995136425613137e-01
      2.4872754597707752e-01 1.1814985955902771e-01
      -2.3866802898300929e-01 2.5474551249925620e-01
      -4.0826081553737115e-01 -4.2523429922873479e-01
      3.2493687382749636e-01 -4.4019131782314974e-01
      -2.2568742615405236e-02 -3.3214385434095821e-02
      -4.1145656533291841e-01 9.9482647500095028e-02
      -1.4853659186552176e-01 -1.0299846084387625e+00
      1.6454856723226158e-01 -1.0496669344088667e+00
      3.9589663041310991e-01 -4.2300618774723076e-01
      -3.5435293830073944e-01 6.1576849065818784e-01
      3.1471136095155533e-02 4.1612347662364735e-01
      2.6103845249015023e-01 1.0951939411199535e-01
      -3.5446891502236610e-01 -2.7381075720009806e-01
      -4.6789836277642277e-01 2.6108068878676238e-01
      -1.0256714855968554e-01 4.3309176222040724e-01
      -2.4204900472170338e-01 -3.5686537188704548e-01
      -1.1065154306177560e-01 1.9097430039737842e-01
      5.1400206228790941e-02 5.0675573491331916e-01
      -1.8518829619256630e-01 3.2681945477271918e-01
      1.2118548040171624e+00 3.9475994722088120e-01
      -4.4819409879759931e-01 -3.8583418565128624e-01
      1.5810515898920141e-01 -2.5160563326245644e-01
      4.3168524121358312e-02 1.8994437535347644e-01
      4.5507102098297173e-03 -5.2603089714779644e-02
      -1.0241649269623118e-01 -1.7370221831575567e-02
      7.0265926012603452e-01 -2.5619130841947668e-02
      3.1909336967608226e-01 -2.3383012887578808e-01
      7.9641601550982821e-02 3.1382700822852155e-01
      -7.1376473571612287e-01 -1.2247753451022276e+00
      3.1430323413694872e-01 6.9967408081236193e-02
      2.6536184570859578e-01 6.5761718364956076e-02
      1.1065273593856449e-01 -1.0514700086979476e+00
      -2.5310475445256492e-01 -5.7642877898188760e-01
      -4.4009566542025264e-01 4.9960030984904946e-01
      1.3479534857862147e-01 -5.4417654985140196e-01
      -9.9778013335967941e-01 7.1063817137038451e-02
      3.9785889774624728e-01 -4.2893740685050036e-01
      8.0272270867236284e-01 5.5409348618416128e-02
      2.1477314967224881e-01 -1.9426785705693048e-01
      -2.7828061159136851e-02 -3.2313048029434988e-01
      1.1947489966841598e-01 3.0319079527888676e-01
      1.1292086168136750e-01 3.2347563266042717e-01
      -4.9851823858659433e-01 1.6747859845220958e+00
      -3.9197720922891632e-01 -1.5223822900329251e-01
      -2.2451152719555466e-02 -8.2037053558894635e-01
      3.8034233532875557e-02 -9.8349499107135618e-01
      7.4493466747978476e-01 -2.4561440089385883e-01
      1.1949153455103487e-01 8.2608672599898780e-01
      8.5960029696345430e-01 -3.8546946522749967e-02
      2.0869920503934526e-02 7.7659205685973265e-01
      -3.6472409527631738e-01 -4.7650978732152111e-01
      8.3709009721323890e-02 1.0922766047704344e-01
      2.5497530242987249e-02 4.9926361041575584e-01
      3.5601479493280713e-01 -9.8999314967724905e-02
      1.7681087910377349e-01 -2.0091504627007462e-01
      -9.2831483086797084e-01 3.5625140117831611e-01
      -1.4906901307039364e-01 -3.6242080451971875e-01
      4.7256226845342066e-02 7.5481347990323092e-02
      -4.4445232252626682e-01 6.9380704979908037e-01
      1.4317259194774165e-01 3.7330000514553913e-01
      3.1125689167995779e-01 2.9567354216745156e-01
      -3.3586820169540610e-01 1.6961089455732040e-01
      -1.4248523346652917e-01 9.0156551716232769e-01
      4.0057329548145754e-01 5.8250985544670442e-01
      7.3973242274597645e-02 -1.9375518657014945e-01
      -1.5002850883942717e-01 1.1473142207152316e+00
      -3.6838434587654129e-01 3.0603245716402572e-01
      -2.2219435594579354e-01 1.3597709322914231e-01
      9.1641066391788306e-01 9.8237975141460977e-03
      5.7996281065994838e-02 2.7667983118796369e-01
      3.1569020837523676e-01 3.9687508015227091e-01
      -8.4882896804979424e-01 -3.4665042306887539e-01
      -7.8318995236454302e-04 3.5683071268194300e-01
      -2.7840164557588398e-01 -1.6423053882193392e-01
      -3.4814173674214094e-01 2.0358143356516922e-01
      3.1966339846669252e-03 1.5538205242306558e-01
      -3.7539372333200427e-01 2.3137815686425808e-01
      1.8419781760411466e-02 -2.0635927870259714e+00
      9.1380896857844382e-02 -3.6791566993589248e-01
      -4.8521511161102365e-01 6.7667643967365132e-01
      5.2934352118190842e-01 9.7027068173853770e-01
      -1.0143420232309795e-01 2.4592271957280085e-01
      1.9485228910574009e-02 2.1798552001794028e-01
      3.1206188509416966e-01 -2.7961515653863400e-02
      -2.8970192590002047e-01 -1.5892872291933058e+00
      5.8687290232814049e-01 4.2754555527100041e-01
      -2.0719146299668503e-01 2.0813935700227662e-01
      -4.0046257628271564e-01 -5.6645640646848805e-01
      3.5034971685089911e-01 -9.8469964761495041e-02
      8.6335568145243180e-01 -3.7334091503968858e-01
      1.8380314281808641e-01 1.0668930847549121e-01
      2.6977025603807625e-01 4.2186142746485894e-01
      -6.7314042976988675e-01 -5.1845035745605439e-01
      -1.6909091165140222e-02 -1.1743129681476441e+00
      -5.7994965976706647e-01 -6.0585265651019182e-02
      -1.9104373956405990e-01 2.1035967089733690e-01
      -2.7492148790659920e-01 -7.5990539000296253e-01
      -7.2780654953664953e-02 7.7093085258361849e-01
      1.1382324717294774e+00 -8.0425593530776565e-02
      4.8640728268833250e-01 -5.4765991759370858e-01
      -1.7610330450776041e-01 1.4216192708999498e-01
      -8.0617277467391479e-01 -8.1611339881201328e-01
      2.8038633848545069e-01 -3.1123593294942803e-01
      2.9270617938689492e-01 4.8473828688945436e-01
      -1.0905142542670082e-02 -4.6657946073225759e-01
      1.2507832076624481e-01 -6.6268534709756022e-02
      -1.5348616219094757e-01 -2.6542740860654185e-01
      5.7335973266035933e-01 -3.7217050595677215e-01
      8.2684453524299456e-02 1.9174225964576261e-01
      3.8551810419277473e-02 3.1228300746076143e-01
      -5.5680913722804526e-01 -1.6171353813152509e-01
      -9.0601026620228869e-02 -2.2857784031392531e-01
      8.1010226945823202e-02 9.3965563873472902e-01
      7.5854022123644405e-01 -5.6023961839663605e-01
      -4.4623111578541874e-01 7.0430495799867454e-01
      -1.5466072676654088e-01 -2.6178462232971605e-01
      1.3203148513387741e-01 1.5179021985507107e-01
      -7.6026007656837841e-02 -1.0886601446947053e+00
      -1.4942762940267909e-01 2.1069856458764694e-02
      1.3013590975302727e-01 -8.5214931859673451e-02
      -2.0145619784193225e-01 7.5033740660641404e-02
      9.1808777548784512e-02 -1.4693142421775579e-01
      -4.7896732033177031e-01 7.6609825244582219e-01
      1.1426838976403293e-01 1.2276085857628452e-01
      -4.7587785505126962e-01 -6.2566580779605641e-01
      1.1412005540986080e-01 1.9824241361810294e-01
      -2.7961481993693205e-01 6.8622034228433515e-01
      2.4733481104059143e-01 5.2885480575495958e-01
      5.9263365089959708e-01 1.2272700431704520e-01
      1.0359762391836338e+00 1.3916999476340877e-03
      4.8943211619494931e-01 5.9975186603075437e-01
      -1.0338881985372779e-01 -2.7639818498787303e-03
      -3.3351740667804786e-01 -2.7929663200022792e-01
      -4.0905637873509043e-01 5.4932849398382488e-01
      7.3586519931582911e-02 2.7684075619420712e-01
      -4.4328399337911994e-02 9.4858312933013847e-02
      8.6090747354967175e-04 -4.5275588348129614e-01
      4.4409808568094032e-02 5.8892601289337621e-01
      -1.1692760576225612e-01 -3.1015462046362863e-01
      2.3318012443842143e-01 -7.0317138099128751e-01
      -2.3380950680827425e-01 -8.1678567398437008e-01
      -3.6425571029652642e-01 -7.3819379281919756e-02
      -5.0683297369225599e-01 3.1753302289654384e-01
      -9.9144430554819751e-01 5.0045971029980918e-01
      1.9978059814764873e-01 -1.6476467429491651e-01
      -3.5366283722704323e-01 -2.1820627960834299e-01
      9.9214444666340149e-02 1.0906455868224575e-01
      2.8510653667153113e-01 8.4764655811654233e-01
      -1.6629908605418486e-01 -7.6651536223203531e-02
      1.4281270923614581e-01 -7.9595512570162130e-01
      -6.2906860298374845e-01 -5.2672583469097223e-01
      -7.4017333278633846e-01 6.7301607166481636e-01
      2.5442510763853482e-01 -5.9502415471360026e-01
      -3.5059936627692390e-01 -2.5111377521597661e-01
      1.4749085848075952e-01 9.8566088985262604e-02
      -9.3642263773220014e-01 6.8591138798661544e-01
      -3.6732536856942921e-01 7.0226323467356758e-02
      -2.9274426144046151e-01 -1.0242996758435552e+00
      -7.5997325618147205e-01 -7.4701463792297640e-02
      -7.9183890236627710e-02 -6.6123586762385211e-01
      -1.4146071866471294e-01 -4.4033121097623118e-01
      -2.8848862194709590e-01 5.0701912101028779e-01
      -2.9297175196069158e-01 1.9805339017191392e-02
      5.2545143771954472e-01 -6.3738095083887503e-01
      -7.5623707235673188e-02 -2.9712587083577219e-01
      1.6978803459302169e-01 -1.0786904438358444e-01
      3.4163539337054927e-01 -1.5812515562853477e-01
      3.6844571380082958e-02 -2.1935472724132521e-01
      -5.7687012946025762e-01 1.4422893409839692e+00
      -5.4114814708838294e-03 2.9628126156448520e-01
      -1.7553663111912426e-01 5.2643556126452484e-01
      3.6086225309791586e-01 -5.2076374994609298e-01
      -3.3917713272766081e-01 8.1994838117729674e-01
      -9.6006489097501724e-01 3.8203766937143335e-01
      2.3880667176898712e-01 -1.1193065397872073e-01
      -4.9852872760308718e-02 -4.1053462852338640e-01
      -1.4452834975185618e+00 6.7895016633135952e-01
      -7.4166948691754830e-01 -3.4746235203772374e-01
      4.6979743725672329e-01 -2.4208274675627228e-01
      5.0580275696001112e-02 8.5338851117765527e-02
      -7.2838719799218543e-01 -4.9446352088992757e-01
      -5.3002261686653706e-03 -2.7401622563009104e-01
      -4.1170206154465268e-02 -7.3259148094583648e-01
      4.0398829757665983e-01 -1.3907146356122210e-01
      -5.7231257835368332e-01 3.1219343448122316e-01
      -7.5467473529674078e-01 -7.1378098850636862e-01
      -5.5313850362789740e-01 -2.2879714599438691e-01
      4.7292153299128814e-01 7.9761036629705862e-01
      8.3614358716471626e-01 1.8350499375470161e-01
      1.4536901903920674e-01 3.4112821065217441e-01
      1.2806346247011349e-01 3.0072947487061713e-01
      5.2458643750196252e-02 4.1275782611404394e-01
      -2.9198418369118978e-01 2.3827442716840738e-01
      3.2262535078896343e-02 5.4141013566012774e-01
      2.5017133191793034e-01 -4.8393150563646259e-01
      2.2145886234625121e-02 4.7379036566132749e-03
      -1.0234471658043810e-01 -8.9464568714868492e-02
      7.0035473671430051e-02 1.2557598547672373e+00
      2.9250389427821660e-01 4.8451358687230389e-01
      -4.7768245776058271e-01 6.5805278982563720e-01
      -2.1166404621791690e-01 -7.6473203777453136e-01
      -3.6636220611913621e-02 -2.2852012465896940e-01
      -2.3535259741042663e-01 3.3026364842061406e-01
      -5.8257473913904179e-02 7.7680210471966105e-02
      2.3340910086272988e-02 -3.5333609318114284e-01
      -1.7900681286609130e-01 -6.2532423863338613e-02
      -3.2357668940499723e-01 6.4045693728483644e-01
      2.8143411801016766e-01 1.4787175037992836e-01
      -4.0162597388273602e-02 2.4587823575532425e-01
      -1.4338533418956515e-03 -4.5561699129465766e-01
      -2.4511127907791538e-01 2.3807004961285239e-01
      -4.1041866968660945e-01 5.7254628870305890e-01
      -1.6600752606873304e-01 -9.6874299091014984e-02
      3.3008426080325842e-01 -3.3323174959155882e-01
      7.8883957723114101e-02 -4.9000073619833251e-01
      -8.2988147680054664e-03 -5.3429564102351990e-01
      7.1936202323274023e-02 1.4845029488618369e-01
      -2.8129106884879795e-01 -2.3289042983437377e-01
      9.1939874939024269e-01 -7.6843534769963917e-02
      2.1838611761441324e-02 -3.0763561832261327e-01
      9.0238754547025357e-01 5.6745916888270609e-01
      -2.0449360078999554e-01 4.4596114410589882e-01
      -4.5570535592971112e-01 -6.4584601959352325e-02
      3.9999987392191622e-01 -1.5487866065225483e-01
      -2.3544511934028159e-01 -2.3190208547298619e-01
      3.0812302428269389e-01 -2.6991819334821943e-01
      1.4551674605337114e-01 -1.4407692343827530e-03
      1.2934670516295022e-01 9.9072355121514688e-02
      1.9463343725454407e-01 -3.5622253150493494e-01
      9.1793603528372458e-02 5.2280290165950050e-01
      -2.9661667100751976e-01 7.3380754558135164e-01
      2.5728582903175673e-01 1.3215593465102984e-01
      1.0465036702713217e-01 -5.6059739122802399e-01
      -3.6124395488203065e-02 -5.2151914136378839e-02
      -1.2845511300609949e-01 2.4913350277930035e-01
      -3.2871258696201208e-02 -4.7233602566163829e-01
      4.0504643297039017e-01 -3.8943004097907330e-01
      2.2370681291168568e-01 -2.1467057596032291e-01
      5.3960481415210904e-01 -3.0876543761022746e-01
      -2.3219026859524883e-01 4.6181720247448854e-01
      3.6339909732599970e-02 5.1975308948172161e-01
      1.4924591055812572e-01 -1.2814166342714752e+00
      -1.0850775612567622e-01 -1.1478748364032594e-01
      5.0485384242825504e-01 3.1316696684017022e-02
      -1.2177050716360740e-02 -4.4607040336763520e-01
      2.6040513644704849e-01 9.8107446427516481e-02
      1.7626429618449819e+00 -2.6671359296922886e-01
      6.5626505055368300e-01 -3.9422241893594817e-01
      -9.1612579517573636e-02 1.5680191786773012e-01
      2.4388478482564116e-01 -8.7114430362141546e-02
      -2.1508253242680242e-01 4.7492724953150725e-02
      4.1471406887298573e-01 -2.3798817943565756e-01
      1.1885301777784475e-01 7.7988831326879426e-01
      9.7707064757515269e-02 5.9769135173074683e-01
      5.5794358185871507e-01 3.1727659920884455e-01
      -5.8004566198070720e-02 -8.2870219301221926e-01
      7.5623108739479272e-01 -2.3880622547123084e-01
      3.8075635117808099e-01 -4.8907082490451853e-01
      -4.4086385030821007e-01 -1.2455984029463341e+00
      1.8645667547040737e-01 1.9662364166394561e-03
      -1.1441456303958256e-01 -2.4553219304813886e-01
      -1.2701310101823085e-01 -1.8257571190992869e-01
      1.5029664416885252e-01 2.9344725659116912e-02
      1.7489985513048872e-01 1.8560624445540735e-01
      5.2165852818614478e-01 8.0219808143926341e-01
      3.5524955725953783e-01 -6.0878668306868067e-01
      -1.0986026751758783e-01 1.1501791836500503e-02
      -3.7126322911822729e-01 -5.2513686101799795e-01
      -4.1090053634389689e-01 -6.1919388385665901e-02
      4.1117335166358680e-03 -2.4932726089623386e-01
      1.8238326087179829e-01 -1.7879279444039144e+00
      -1.1432170118536109e-01 -2.8636076962931406e-01
      2.2879642396642802e-01 1.4798321259083677e-01
      -5.6798243064866794e-01 -1.1398780828332672e-01
      -8.3056378068104522e-02 7.6330699234777977e-01
      -1.8770068257382977e-01 1.1035794807801745e-01
      2.0037607325065893e-01 2.9564836625901608e-01
      4.2339020582401266e-01 -3.5857898011890926e-01
      8.2879955265692162e-01 1.7588624246761070e-01
      -3.4386542418191812e-01 -7.2291560564626892e-02
      -5.8269842233192246e-02 4.6202726778060803e-02
      -5.3044586220980827e-01 8.5635011311788289e-01
      2.2014617713758092e-01 -6.3670619839930984e-02
      -6.6253509119972065e-01 1.2575407163804531e-01
      7.5571106793953527e-02 1.5537258119277088e-02
      1.5675823147878384e-01 -5.5814267756250646e-02
      4.9009216997122462e-02 9.9913247658222515e-02
      3.9086626247985090e-01 1.0570530467574718e-01
      -1.1981741364594436e+00 3.0715358362224626e-01
      -3.1148163634517290e-01 -3.5142023198450584e-01
      2.8487227781423774e-01 -3.1660564553671788e-01
      -1.0131291590334658e-01 1.1432964365588978e-02
      -2.5582468650459694e-01 6.9656799980116077e-02
      -5.1354996604393757e-02 -7.5121016038647370e-01
      1.6876289056034384e-03 6.2277752420105903e-01
      3.1147276580550598e-01 6.2394950159895102e-01
      -1.0004949370859390e-01 3.1547411030308636e-01
      1.9591896801886374e-02 2.3707323468345570e-01
      3.5036170936203076e-01 2.5477171961198886e-01
      3.2921519124306303e-01 -3.0477557713528790e-02
      -5.5628513665641421e-01 9.1965074677996070e-02
      -2.1400038812397376e-01 4.7121562760729048e-02
      -3.3830621108300696e-01 3.8855672873790248e-01
      5.5655012309279284e-01 -2.4490075773754741e-01
      -3.9507283221526357e-01 -7.1235064356803302e-01
      5.7670744194060053e-01 3.8674687648636574e-02
      -3.5658252691074421e-01 -3.3637880539182752e-01
      -3.3396619340355654e-01 2.2226335764129915e-01
      6.3668062219468602e-01 5.6386959244382762e-01
      -2.8319069581395806e-01 -2.7253518593279624e-01
      -1.5747525853923749e-01 -6.8855742469858250e-01
      3.7559944784806915e-01 4.4601360132008594e-01
      3.1944476781681191e-01 2.0148675107629088e-01
      -2.6232218059826262e-01 -1.7990716623685366e-01
      -2.3886865080424471e-01 -5.1887967430033632e-01
      -1.3259316198077048e-01 5.4821098323841067e-01
      -3.6908889855119503e-01 -4.0103180161393998e-01
      5.9868220232957003e-01 9.5813473552987759e-04
      9.1820379590613881e-03 6.6599494595719774e-02
      5.6760675245355707e-01 -1.0493387164218994e-01
      -4.7486408112301304e-01 1.3547780838141343e-01
      -1.2132069266090835e-01 -1.8801830867040956e-01
      5.9437891277124366e-01 2.7907368585514974e-01
      -1.0154831706866403e+00 2.5873468800966065e-01
      4.2034064614451533e-01 6.1739277328295361e-01
      4.3637865892257356e-02 9.2190728423457602e-01
      -1.7954839881822510e-01 2.6595342478695716e-01
      1.9287451171191353e-01 -1.4480694605120367e-01
      -2.2939719219702531e-01 9.0391217519858968e-01
      3.5911399871758154e-01 1.1355127730853478e+00
      -6.3849637579428864e-01 -7.1344629336820536e-02
      1.2187194479667483e-01 3.2510737041405069e-01
      8.5701048279134731e-02 5.9166379194640767e-02
      5.6012385797410913e-02 -4.9355189858243192e-01
      -4.2610957395323834e-01 -5.7231498998019367e-02
      -5.2673536868567961e-01 3.6759446036413274e-01
      7.0021253137111841e-02 3.2049377601035162e-01
      -1.0721828654840417e-01 9.0764356518328093e-01
      -4.9113123925897262e-01 -2.5026167668182331e-01
      1.0037775784646952e-01 7.5586441473442001e-01
      8.5674174686652027e-01 1.1693574316876232e+00
      -2.1313288931199648e-01 -4.1462887914091584e-01
      9.4158289162021971e-02 2.0665085465145630e-01
      -3.1994438619252380e-01 2.1489820447225025e-01
      2.2037020624355028e-01 -4.3828259933839187e-01
      -3.5878489708335143e-01 2.3499001619625004e-01
      -1.6863785611131585e-01 9.1696182768610690e-01
      3.7799197126396583e-01 -6.2655703505797911e-01
      -9.3880501968805097e-01 -4.4836869279566860e-01
      1.9875423376308549e-01 -1.0468272753351353e-01
      -1.9432453633441482e-01 -3.9257003407627744e-01
      -1.1120441390191277e-01 -5.8848012720716170e-01
      7.8382435075506740e-02 -2.1012439254603291e-01
      -5.6242498896199457e-02 -7.0845610593370101e-01
      1.2338198846937377e-01 3.8806981458750150e-01
      2.7164974724958685e-01 -9.9911027758853979e-02
      -6.1470223640820554e-01 2.8630857271605037e-01
      -3.2341482314792652e-01 9.2409689248613591e-01
      1.6650964484024097e-01 2.8549453988873519e-01
      -1.8438077682622581e-01 4.5908351256885305e-01
      3.5906475573984509e-01 7.9150566723989202e-01
      4.5630028366448966e-01 -1.6232688738903017e-01
      -5.3229374265373032e-02 -8.5598798552733246e-01
      -3.8371370842966779e-01 -1.8522474559433681e-02
      -1.9766717591889588e-01 -6.2976508455310121e-01
      1.3474131637740686e-01 3.1060993689761596e-01
      2.4221971206970481e-02 -4.7974516074494869e-03
      1.9546450592642611e-01 -3.0544011573230179e-01
      2.2637060406293145e-02 3.2641314393528670e-01
      8.8602608206447286e-01 -2.1180592527460107e-01
      -1.9770992783818514e-01 -4.1488328901843563e-01
      1.6015721411126088e-02 3.7650908985586778e-01
      1.7077064265058328e-01 1.7175826816391385e-01
      2.1104832994266154e-01 -4.3242871765157609e-01
      2.9742211447100469e-02 -5.2093132439473577e-01
      2.1994548162907490e-01 -1.0914545527825954e+00
      -3.7027277098178935e-01 -3.2708434250562973e-01
      -7.1229440668627270e-02 -6.0175377237470262e-01
      -5.7793097894895640e-01 1.5792072839123691e-01
      1.0715772887876709e-01 -4.0686565089143945e-01
      2.7645576743304556e-01 -2.7836278863335163e-02
      -3.9183365482083427e-02 -3.9522352771762231e-01
      2.3234058225192859e-02 -9.5455950713744103e-02
      -6.6344903327180671e-01 -5.7909009262644429e-01
      2.2909376041235233e-01 -7.7125977840729931e-01
      -3.4782767086976601e-01 3.6430533396291548e-01
      -7.9367919657093222e-01 2.5277183976831868e-01
      6.2700163860065927e-01 1.6728023853152585e-01
      1.0483773287958985e-01 -2.9139862835712491e-02
      -1.5406767327181567e-01 2.1948825550520679e-01
      -3.5749861636246182e-02 1.1066497213060075e-01
      -1.9984645783157515e-01 1.9411414158753570e-01
      -3.2640086745737240e-01 1.1865012770412919e-01
      -4.6322899135584605e-01 -4.0481694205563232e-02
      1.3231448047280048e-01 -1.1577928273193790e-01
      1.4869720300169723e-01 -3.7889357818986413e-01
      2.7765160330082728e-01 5.4175927284704362e-01
      -3.1254846511966283e-01 -6.6405006360108521e-01
      2.8823995412563841e-01 1.7530128795020603e-01
      -1.2854642186004983e-01 7.2503183057218712e-01
      9.1411633031155071e-02 9.9877965724049542e-02
      2.6911111272326854e-01 -4.3733668162628292e-01
      1.4786100894972631e-01 -8.2436290741452034e-01
      -5.0293218407951668e-01 2.2181771925304830e-01
      1.4917515071627740e-01 4.8755158346775784e-01
      8.3027402032459119e-01 -7.0225543854316419e-01
      4.1623514257836403e-01 2.2413132167695768e-01
      3.6785770745202490e-01 1.0437754109714925e-02
      -5.5549622955929945e-01 2.2217877711442582e-01
      9.1658200026205172e-02 -5.3646812266201171e-01
      3.9397069704711674e-01 -7.9271662714362523e-01
      -1.2426211549972574e-01 -5.3773642039386071e-01
      -1.1414302338030587e-02 -4.0409291275025988e-01
      7.2723996696719206e-01 1.6909877123784670e-01
      1.9900446574976352e-01 -8.0247513218001776e-02
      -3.5006605213336706e-02 -5.0547885930860070e-01
      1.1065406746187769e+00 -4.7453197135640235e-01
      7.8009010174203169e-02 -3.7614307038410455e-01
      -3.7980263131227676e-01 6.4028972064646728e-01
      2.4359102264716612e-01 3.9693183104683484e-03
      -4.5678305117946078e-01 5.6031445248814271e-01
      4.1298952259323801e-01 -2.2902583308727301e-01
      -3.9972345604089465e-01 3.1877845965026136e-01
      -1.2110248122841105e+00 -3.3020785725065960e-01
      -1.7428763895000157e-01 -4.0279847312915767e-01
      3.9727164348176902e-01 -1.4015969397154049e-02
      9.2520733548300899e-02 -4.4163678209112450e-01
      -1.0394641287371700e-01 -5.4099292946891275e-01
      -6.7907102917243900e-01 -4.5512869315734901e-02
      1.3323578299660266e-03 2.5767360327776456e-01
      -3.7729048909219176e-01 1.3700144556035435e-01
      1.4522435229936697e+00 3.2627205241684176e-01
      5.0257475172891797e-01 -5.8704618079606818e-01
      -2.5715558387071236e-01 -4.0641785823492005e-01
      6.2776843065688898e-02 -2.9685368700429476e-01
      -2.3407772603963928e-01 4.4870970472752604e-02
      -4.2536613178530780e-01 -1.1729733959235818e-01
      7.3579438123807878e-02 4.5634398651501690e-01
      -4.7354629079885763e-01 -7.8900453045809074e-03
      4.1150953099667348e-01 -4.2532276611160202e-01
      3.4334913055680949e-01 2.0859458712976017e-01
      4.9922806463714012e-02 8.2983966558687827e-01
      2.6546241305700469e-01 5.0485599383099211e-01
      -8.3571659340378945e-01 -7.0197084855646807e-01
      1.2004667738060394e-01 3.6187794685940688e-01
      -1.0546924404419891e-01 -3.2089814451103693e-01
      1.9760048413776418e-01 -3.0162908817078915e-01
      1.6722314189129220e-01 -1.6680160547045117e-01
      3.3132508517844128e-01 -4.2557761077635614e-01
      -4.5351988801343301e-01 -1.6764310499812302e-01
      2.0032094074014270e-01 1.6793764600501351e-01
      8.0847752236531206e-02 8.6258352815585659e-01
      -2.6236270133496509e-01 -1.3917296292903880e-01
      7.9440376334546758e-01 -5.1576521102731576e-01
      3.0470890323805011e-02 1.2698399587850442e+00
      2.1439978470511054e-03 7.6591751245974515e-01
      1.3887759222641765e+00 -7.7533941818315144e-01
      1.4031233112209973e-01 -3.1821107090065143e-01
      2.1976141079162936e-01 -6.4891072126118921e-01
      8.0830788514731453e-02 -1.7730538545599950e-01
      -1.1183776051042806e-01 2.7672406702206009e-01
      -7.5055095616521753e-02 -1.2510859744176145e-01
      -1.8068235668732620e-02 9.1107934923458322e-01
      5.8703372273706189e-01 -2.8271470924229508e-01
      1.7800709129918050e-02 -1.9749440506844002e-01
      -2.1666930071248314e-01 -7.2789618912317788e-01
      2.1490542490391135e-01 6.8073251478124230e-01
      -2.0620371242689239e-01 5.1323801876587005e-01
      1.7890354065269706e-01 -2.9824963190110221e-01
      -2.3909276385412934e-01 -8.8756238668509690e-01
      -3.7192777395040166e-01 -2.7828957442237229e-01
      -1.0207989195727174e-01 3.8495724463289538e-01
      3.4633506204849729e-01 6.2110824777019756e-02
      -8.2396964110073259e-02 1.8147616705876496e-01
      -3.4257683574348600e-03 -1.2526560488995353e-01
      2.4496250674564110e-01 -3.6299417719487143e-01
      1.4369269045887120e-01 1.8482170310045640e-01
      -2.9450994688054000e-01 -1.7834848734387609e-01
      1.4702648470314782e-02 -1.8185655290342592e-01
      -4.0697423557846002e-01 1.8599581047925787e-01
      2.7017062179221479e-01 3.1714137893382521e-01
      3.3301443333297215e-01 -1.6354532426793389e-01
      -2.8449287782479105e-01 1.4277249374300416e-01
      -2.6886157019026452e-01 -1.8180151848775900e-01
      -9.9403823950901804e-02 1.7826147820405119e-01
      -3.3608333063520268e-01 -2.7646704458106275e-01
      4.3232232832015910e-01 3.1262382872853733e-01
      -4.1612666278878455e-02 2.7964398378000949e-01
      4.8828973894646972e-02 -6.9806595015430226e-02
      1.0988865959782525e-02 3.4877567301230317e-01
      -5.8774814847077611e-02 3.2919612511232954e-01
      -5.3062454780478152e-01 -5.1735078744449936e-01
      -1.0995973113440012e-01 -1.7113700106298912e-01
      8.5579340547904414e-01 -2.3711231826253473e-01
      -4.4885956018963852e-01 4.7909818313079450e-01
      -5.1261385085887690e-01 -1.4023859050654650e-01
      1.0199098647708466e-01 -5.8505048108907587e-01
      1.1191457730296742e-01 -2.6092126939581733e-01
      6.2082723797968815e-02 -3.6299652800621481e-02
      -1.4770478890015493e-01 -2.4677245504499304e-01
      1.2939357098207693e-01 -4.7050711161027353e-01
      5.4478579084005885e-01 -4.2872579148406098e-01
      -5.7951493482212768e-01 -3.5808684893190756e-01
      -4.4359383658816881e-01 -1.1979332001483416e+00
      -1.1636700326510286e-02 -9.7839296161492706e-01
      -5.4823601951563411e-02 -9.6877219910039739e-02
      8.7156049624505932e-02 5.7322410247312827e-02
      -5.8453847874610521e-01 6.0753817182543524e-01
      -4.5362960364405674e-01 -3.3428730494505415e-01
      3.1426040761127244e-01 -4.4626213802010783e-01
      3.2078531989488751e-01 4.0150345732740518e-02
      4.8762855712576898e-03 -5.6327954831790726e-02
      -1.0640701662177129e-01 -5.4631194768683677e-01
      -1.0924629677781385e-01 6.4436545666144507e-01
      -2.3062723036524788e-01 -5.0425640920687076e-01
      6.6486590582128288e-02 6.4679973828506110e-01
      -2.4160284323183118e-01 -4.1327666958420178e-01
      -1.4688324301751995e-01 1.2228037620186356e-01
      6.0643764035817271e-01 -3.8777268570520984e-01
      1.5992813202417436e-01 2.5706676662085960e-02
      1.5482061833406358e-02 -2.9133934593141086e-01
      -1.0674173695887648e+00 6.9623915768881522e-02
      -2.0003969349807676e-01 4.0065387337849473e-01
      4.7934988584288346e-01 -6.4673593054649189e-02
      -8.4013964208334002e-01 7.7696834978037932e-01
      5.5086440143876758e-01 -2.7655885384542479e-02
      3.3862112441981196e-01 3.8534098629578056e-01
      9.5854040416187569e-01 -6.3063173626028294e-03
      -1.5702237292802171e-01 -7.4935173070136168e-02
      3.8425301748203250e-01 -4.1898617114474862e-01
      1.0043474737315075e+00 -3.0338723903881060e-01
      7.2554039349305308e-02 2.4044497355201497e-01
      3.9865014239196345e-01 -1.0353000403001492e-01
      2.1759150426040534e-02 -1.4911179765002430e-01
      -3.0036181699386033e-01 -1.1702252061285431e-01
      -1.4715693205288672e-02 5.2113689668326157e-01
      -5.8984224730903623e-01 -4.7268231710799929e-01
      8.8017281520405233e-01 -4.6204497400583383e-01
      -4.0872405262251832e-01 4.0788254170927941e-02
      1.3931529723966754e-01 1.0779720840278633e+00
      -2.7104486482568885e-01 3.1299739504013263e-01
      -1.8641422582213768e-01 -8.4775400607443471e-02
      5.1395425129168870e-01 -1.6829237342235595e-01
      6.4183798975883000e-01 -4.6186529102211848e-01
      3.6182430104751501e-02 2.8725241009904923e-01
      5.4832967032858748e-01 3.7871984536108988e-01
      3.5545290464257201e-01 3.7262987760714439e-01
      1.5473576824579388e-01 -6.0080812413061169e-01
      -1.5366040087501920e-01 3.0951672722864731e-01
      1.9570112392623687e-01 3.5402695760139713e-01
      8.5520658547690309e-02 -4.4998075961461187e-01
      5.5521126580867730e-01 5.7443335237381798e-01
      -4.3523739218226214e-02 -2.0467686701263260e-01
      1.2776682622988364e-01 1.0312893450444305e+00
      2.2228643858622540e-01 2.9393075799733964e-01
      1.5444056886659061e-01 1.1252710275861617e+00
      7.1424611699587603e-01 4.6012841246123465e-01
      2.1155843726856799e-01 1.0504909912633309e-01
      -3.5795902476516928e-02 -7.1825871561486954e-01
      -6.9840732605943756e-01 4.0081407570606781e-01
      -5.9605299590402269e-02 -2.4121470915940045e-02
      4.9456341644171714e-01 -4.5857689842234833e-01
      -5.8710922346086325e-01 -5.4071477142221248e-02
      7.3783881668197093e-01 1.7968499901604351e-01
      -6.3165135842559406e-01 3.4270443703341633e-02
      -1.2785727858399232e-01 -6.1369484290742071e-02
      4.4395161014937040e-01 -2.2207351450298296e-01
      3.2273338432727278e-01 -4.0077211225454196e-01
      -1.5344027321766768e-01 2.8823940602293990e-01
      -1.3131065162667938e-01 5.8732857274663186e-01
      -1.2809585430197853e-02 5.1006601661469986e-01
      -5.7313184261217354e-01 -2.7210785340328286e-01
      2.1771183650139025e-01 -3.4594340675848284e-01
      3.8190954551494388e-01 6.1860844756923750e-01
      3.6892596408717129e-02 -4.2569666753813779e-01
      -9.5014384944666616e-02 5.1784070829453355e-01
      3.6134582924930925e-01 1.2361913026341904e-01
      -6.0966730230162122e-02 6.5341226847574896e-01
      3.9067740734207695e-01 -4.4736409396964166e-01
      7.3177042869267006e-01 -5.9249643160968701e-01
      -2.1659952027827423e-01 1.1987055010448312e-01
      -3.5051302389043450e-02 -4.2692509647642890e-01
      -3.3454113460477181e-01 -6.3931723417536113e-02
      1.9899767526862761e-01 7.2743937442953055e-01
      1.7412173352446315e-02 4.2643107042256312e-01
      4.8014705592005845e-02 5.5441301323692660e-01
      6.7959995746072283e-02 -7.3338947835338419e-01
      3.1915623389275860e-01 -4.0275527059865457e-01
      9.6911361177249827e-02 1.3040518280703078e-01
      5.1323126445656031e-01 -2.4038367863277141e-01
      5.0019006921391003e-02 -2.2600471754440313e-01
      -1.1627554847577064e+00 6.5451169216211791e-01
      1.5409358405665316e-01 2.1871939098078083e-01
      -3.8838109938116355e-01 1.4792810966018766e-01
      -1.5706078009039878e-02 -1.6556803231652173e-01
      -2.0553411504156580e-01 -5.5387609546794936e-01
      9.4381835783793472e-02 6.2311318901307577e-01
      3.2539936403544578e-02 2.5245818646806228e-01
      6.2128665889108162e-02 -6.3513866440279410e-01
      1.7839953371735620e-01 1.9514213908363992e-01
      -2.6978261485196831e-03 -5.6776125928154464e-01
      9.2541659049426420e-02 2.0401978510883595e-01
      3.2980043369460676e-01 -2.9309860273648297e-01
      -7.2598465879233562e-02 9.5588571906866621e-02
      -1.3446170385158571e-01 -5.4369482230687860e-01
      1.0537135574340198e-01 -1.3178207911100084e-01
      3.7041739386576306e-01 6.0735902073075021e-01
      2.4347743350884343e-01 -3.6478169136529591e-02
      4.1233040958002863e-02 3.7659531767721338e-01
      -3.2165963295187713e-02 -6.8383723983542943e-01
      5.9942971312969240e-01 6.2023460846175760e-01
      -1.9717688312941878e-01 -4.1412961817781735e-01
      -2.9646785385564822e-01 8.1290640140538814e-02
      3.1033759123016445e-02 -4.4118833587228873e-01
      3.5356184145983655e-01 2.7984224306395439e-01
      6.6076355763305603e-04 3.5794438615851104e-01
      3.5884844456292353e-01 -9.0693908408576718e-02
      -1.0615425393672082e-01 4.1950158817072281e-01
      -1.0746704270927507e-01 -4.8199568792086933e-01
      7.0487670957199294e-02 -7.2689706843205804e-02
      3.2366210436344078e-02 -1.7809283001132142e-01
      -4.4758800668858761e-01 1.8840551929654689e-01
      -1.2967775430322470e-01 -6.4398784637041528e-01
      2.1033581623551495e-01 -1.3143976673082150e-01
      -6.4139215378556977e-02 2.4474713543702431e-01
      2.3671637865162504e-01 -4.0933932975294324e-01
      -3.8520492363615669e-02 -1.1311327705444715e-01
      -5.9295656430940979e-01 2.5231542920648869e-01
      -8.4683125263706485e-02 -1.2751425507821834e-01
      2.3632700438605439e-01 -3.1311072137584600e-01
      -2.4458503258635386e-01 5.4324161819291250e-01
      -3.0874585861127080e-01 -3.6613795063081739e-01
      -4.6956625626579740e-01 -2.8571510847847800e-02
      -2.9129994234623552e-01 -8.7605504832121717e-01
      -7.2500191072399162e-02 -1.6811690403415486e-02
      1.8023439378432574e-01 -1.3493190541579778e-01
      3.0909809178895190e-02 -3.1057606721931585e-01
      -6.5077496947238120e-02 7.7761769256633029e-01
      -2.8517195344666940e-01 -7.9160198413661664e-01
      -4.5639140915379711e-02 -2.6413959275208815e-01
      -9.2161848796006052e-01 6.2715352372729505e-01
      4.7038761881779456e-01 6.8967597649095144e-02
      1.6775980536600080e-02 -2.0572373652585349e-01
      1.2262493152913091e-01 4.5423644175676176e-01
      -1.1373445607812928e-01 1.2449772991687653e+00
      2.8274069206856572e-01 -1.6534989259422317e-02
      1.0451773099388890e-01 1.2322556220496989e-01
      1.8133703437847201e-01 6.2347581038817002e-01
      1.0097865905617507e+00 -5.0173098948210682e-01
      3.9905284887409859e-01 -5.2567864327352032e-01
      4.4932766340168073e-01 8.0415493385750558e-01
      1.1942166631383240e-02 -2.5459265489483279e-01
      -2.5178510831015832e-01 -1.1826385125925538e-01
      -5.2179032813838311e-01 1.6822328366141590e-01
      -1.8601783456428833e-01 2.3398249030478796e-01
      -3.9820656264205606e-01 2.8083839977848418e-01
      -5.9831457028239741e-02 -8.7514525179109548e-01
      -1.9523936575927292e-01 -2.8355933262214000e-01
      -6.3442849015324898e-01 -8.2116817005744719e-02
      1.9352161550673767e-02 -1.0367731170586865e-01
      2.6495204432470376e-01 -4.8592516503729234e-02
      -8.6272527590877679e-01 -5.6443509190061046e-02
      -3.5552574238266507e-02 -1.6295821434192209e-01
      2.7551602582641199e-01 1.1793619271248627e-01
      9.5736487372841184e-02 3.1168294184219253e-01
      3.7969551672507018e-01 3.4180324474627094e-01
      1.0735339959625587e-01 -1.3546665407950989e-01
      3.2919757196348709e-01 6.1938662262097466e-01
      4.8506205946167565e-02 5.9108472519548338e-01
      -5.6139081646609371e-02 6.4559428001532790e-02
      -1.2753430634200202e-01 3.4016686300740256e-01
      -3.2072108625685669e-01 -7.5845693659180410e-02
      -3.8307423527412199e-01 -1.2125824699362271e-01
      -8.0440567413312347e-01 -2.9768828685870818e-01
      -1.4864661628948236e-01 -5.4219857174061370e-01
      1.8525891937222644e-01 9.1629160848994906e-01
      -6.9568183068424505e-01 -4.5704593236648294e-01
      -2.1362029529871135e-01 -3.9023127722859080e-01
      7.8649594025454073e-02 4.2070460675930199e-01
      -3.2186431235644419e-01 7.0526088044953705e-01
      1.0245429189775204e-01 2.0405842457219603e-01
      -2.8229229732571953e-01 1.4643983305850619e-01
      -1.5671655332857781e-01 3.6869300811182909e-01
      5.0256207753102955e-01 -7.9687538171206551e-02
      -4.0381260916285668e-02 3.9818276508265416e-02
      -1.1795250303365699e-01 -2.9219821360523762e-01
      4.1084495904016506e-02 -2.5926436778824453e-02
      -5.4510147745741679e-02 -1.5113087160672758e-01
      7.1764096121800258e-01 6.7132422170267680e-01
      1.6708097713727113e-01 -2.6943088452389491e-01
      -2.0736743472305480e-01 5.1084167556367888e-01
      -9.1082148936090693e-02 2.9032073207874198e-01
      -1.5120725725639622e-01 -3.1418190538857954e-01
      6.8703139175912853e-01 5.7454751511218771e-01
      -2.9244769857964004e-01 -4.6031078154702632e-01
      -3.5084973376095296e-01 6.3401037321451373e-02
      -2.2422902996999156e-01 7.0601965798270261e-01
      1.7585126070926504e-01 -9.2401074605137815e-02
      -5.4390525252235422e-01 -1.0635732902246635e-01
      -1.7145981232876531e-01 -3.3297280282322150e-01
      -2.4405737244423718e-02 1.7988361375582029e-02
      8.7486766057865289e-02 4.6783359398193197e-01
      7.4047022703066484e-02 2.1023780146767332e-01
      3.8951334903761389e-02 -2.6198141679652259e-01
      2.9010351628497877e-01 -3.4750561923413043e-01
      -7.1221960392767777e-02 1.7854019661965664e-01
      1.3514900226104301e-01 -7.0425449937038398e-01
      -1.9939527199217721e-01 -3.2722132216420602e-01
      -4.0522203082695019e-01 2.9397923973775425e-01
      -7.0535147469582365e-02 1.8729764743914246e-01
      -3.1287512963183911e-01 -2.6414659691684561e-01
      1.3121479931463872e-01 -6.7439661235877890e-01
      -5.1569238560304331e-01 3.9204807169202904e-01
      -1.8522069580145081e-01 -7.2167900448539912e-01
      -1.2589933541569845e-01 5.4955840677747447e-01
      1.4787287949498840e-01 2.2212449544484936e-01
      1.5200833527354718e-01 1.2531505989305580e-01
      -1.6143700026660318e-01 1.9376708642048232e-01
      -7.3232945400711713e-01 1.8426108006267550e-01
      4.7138223845388832e-01 -1.0470624074405665e-02
      -3.3870245715689717e-01 2.3099695269812703e-01
      -1.8465077624953052e-01 -1.9281207059551717e-01
      4.0271195937122861e-01 1.9497317581553472e-01
      3.1605385789749751e-02 1.2950757599575174e-01
      -5.9644065177253014e-01 6.8723774883097588e-01
      2.8011100024909197e-01 5.6261674326923516e-01
      6.0814898858492672e-02 -6.9262185171773474e-02
      2.1851064355846694e-01 -1.0058508555918271e+00
      3.0014444597284878e-01 1.7596100325693900e-01
      -2.4047866488337096e-04 -3.2107543891092677e-01
      -4.8401380361358748e-01 -3.1175404941985796e-01
      2.1011825488145241e-02 8.2263841464233722e-01
      -8.0009080733537769e-02 4.6084431250100844e-01
      3.6143274255592384e-01 -3.5151544217936892e-01
      -1.6534897722793210e-01 -7.7371076160422199e-03
      6.2777750678644006e-01 1.3664443527252559e-01
      -3.4812954449013284e-01 -5.5346436739958260e-01
      3.3438916987574302e-01 -3.6304412048371693e-01
      -4.5652824991074881e-01 2.1598121235336878e-01
      1.0617943682398195e-01 -5.6184471714859671e-02
      -4.2894328449301959e-02 -1.7068271858085096e-01
      5.4849790613030869e-01 4.9946317754921005e-01
      2.7691648627200594e-01 -4.0251698896885091e-01
      -2.9732007558947399e-01 7.6582549484509183e-03
      -1.2232167569344371e-02 -8.1202680985198783e-02
      -4.6173687835523630e-01 -5.9567649835675543e-02
      5.4790891980384904e-01 -8.3584223933942742e-02
      -4.1053243809276696e-01 -1.2532567468502376e-01
      -7.4614900028381370e-01 3.3442227993418372e-01
      4.8737356127993980e-01 7.6652208203153849e-01
      -4.9642696858285901e-02 -4.0954639904142415e-01
      1.2732528582190991e-01 3.4548879922058734e-01
      -3.2438567032876708e-01 2.4503927690587821e-01
      1.2812673747712724e-01 2.3623855956158690e-01
      -1.1648464214233735e-01 6.8162296160309777e-02
      -6.3532886937688404e-01 1.5907627387455572e-01
      -4.1658625362291812e-01 7.7896803948122179e-02
      -2.8107197284302804e-01 -2.9454904306643243e-01
      1.0934851020540927e-01 2.2991838669406275e-01
      -4.1989659147854380e-01 5.2343465887812968e-01
      -2.3580937445823399e-01 -5.1241989122384546e-01
      1.7989915835644277e-01 7.3153144552584370e-01
      1.9957261069210941e-01 -4.0704176046523088e-01
      -9.3711294344138663e-02 7.6964805508832534e-01
      8.2316411736779407e-02 3.8370670054840178e-01
      2.9516943371269178e-01 -2.0639981071692334e-01
      -8.7569437318457810e-01 1.1745977178721660e-01
      7.4436459082563711e-01 2.8936035358170903e-01
      -3.0733513179955926e-02 -2.2354385038930757e-01
      7.3746613069642390e-03 -8.8435986264222266e-01
      2.7756698352141562e-01 -1.3379166379660765e+00
      -4.6348673678256777e-02 -4.5307694250334923e-01
      -2.3711059634699305e-01 4.8137179553046028e-01
      9.3907803500273390e-01 -1.1920375269239920e-01
      6.9186366991519546e-02 -9.6023774360100334e-01
      -8.2271100395314434e-01 -1.3243821361580274e-01
      -7.8674248864427399e-01 5.0815219293112057e-01
      1.7715302091476706e-01 -6.0455963684237313e-01
      1.0557677612648057e-01 3.5435789376605692e-01
      3.0288201822780220e-01 2.9641882854741147e-01
      -4.7927534415862633e-01 -8.1658177625093065e-01
      4.3729228630632649e-01 -3.8364521603564417e-01
      1.6356296369462173e-01 2.5381592954318050e-01
      1.0697589470893556e-01 6.3330847444501820e-02
      2.0355869777678734e-01 8.0167928801693389e-01
      -1.6222652677166305e-01 4.0937715651562340e-01
      -2.8544526309187934e-01 2.2623633784316488e-01
      -3.5572288307417810e-01 9.7764033781708581e-01
      -2.6966128081878460e-01 -4.3453591090768698e-02
      2.5104633392346465e-01 2.0997849506233826e-01
      4.6762203875505465e-01 -9.0798649452256824e-02
      -5.4990604689979483e-01 1.6508510899067373e-02
      4.9142204690023818e-02 4.0984137099874147e-03
      -2.6575475011434202e-01 -5.0870092708560222e-01
      6.4545426724771715e-01 4.3496498422372210e-01
      1.4405514910778322e-01 -8.8207791244359637e-02
      -3.5827883180161690e-01 1.4214889333079792e-01
      3.1008409896638905e-01 3.9286805662251589e-01
      1.1440535511145034e+00 -6.2682883325677174e-01
      1.0188053160286893e-01 5.4070911406684807e-01
      -1.9334329925540988e-01 1.6915759321086585e-01
      7.1516160292404229e-01 -3.1078402683683465e-01
      -8.7596449879213986e-02 -2.6705305071564700e-01
      3.7480519490787809e-03 -1.7517943288270052e-01
      -2.1387385651120189e-01 1.1385068808646467e-03
      -3.1993852040748644e-01 6.4728525887926447e-01
      -1.3689242948994607e-01 2.4205797124380402e-01
      -7.4033030898262886e-01 -1.0636729123529911e-02
      -9.6644947418840665e-01 -3.7275348422090387e-01
      -3.6312725050786970e-01 7.8761491050244048e-02
      1.2938974889739446e-01 -7.9845737865931410e-02
      -1.9098292124600308e-01 -4.1149448397981181e-01
      -4.7565908394637541e-01 2.8807241273359824e-01
      -1.1230733125245673e-01 -5.8820100687415766e-01
      -9.0490831088767446e-02 1.0345200332501714e+00
      5.3409349579888177e-01 -5.1587237585198537e-02
      2.1148361213803010e-01 4.7150493581694020e-01
      -2.7788118367505715e-01 -6.8331331936345566e-02
      -7.3362696495716639e-01 1.7385833302969331e-01
      1.8181561387933312e-01 -4.4515718907503715e-01
      2.6799251950567565e-01 2.1538157812171596e-02
      2.6140190491571075e-01 -7.1637405054703063e-02
      -1.1054382257524576e-02 7.7871541417283607e-01
      5.8827038240725782e-01 1.1237179848561595e-01
      -3.6004817572123382e-01 4.2305947496326960e-03
      4.0648900461364079e-01 -2.6015933423726917e-01
      -2.9834080378213560e-02 1.4130887953849364e-01
      2.5621031485178980e-01 3.4421747746060166e-01
      2.5954669045085821e-01 4.9685176273580028e-01
      5.5259603193247520e-01 -5.4445443888155309e-01
      -6.0293932733005491e-02 7.0349498990719117e-01
      -7.5143610409629469e-02 5.8195372729861616e-01
      2.4480912320692735e-01 -1.0699772638005522e-01
      -5.3804285412632269e-01 4.0949858297288266e-01
      -4.7194542325102318e-01 8.2573743191836121e-02
      -2.6717087177260745e-01 -1.8751192881543371e-01
      2.4386385379155126e-01 -2.6667698927148892e-01
      -1.5780493324446826e-01 8.5465517260231771e-01
      1.9251696259235856e-01 2.7239066869698841e-01
      2.3338230479603952e-01 3.6408699267540878e-01
      3.2670710185847079e-01 -5.1259286587307451e-01
      -4.6705869466801753e-01 7.8043482791182339e-01
      -3.0769886102633748e-02 1.5644139537347140e-01
      4.5934112978072567e-01 -2.1318390179268917e-01
      -8.1799310139001921e-02 2.8730752621156103e-01
      -5.1555768108672712e-02 1.9189347564086068e-01
      3.0674620268258668e-01 -3.9442253037368175e-01
      -1.3847877629412421e-02 -6.8382114146047124e-01
      2.1355822768384887e-02 4.0615715634849704e-02
      7.7970589306987151e-02 1.7281049477711038e-01
      1.2613518748845542e-01 -6.7082778441212199e-01
      7.1908375672324776e-01 -8.2011350965083787e-02
      2.9213123376394928e-01 7.4034283388558081e-03
      6.3858200367540729e-01 2.0827051778962710e-01
      2.5696774368618305e-02 2.4159594605988627e-01
      9.8150182482202225e-02 1.6931523459107423e-01
      2.1284907380329726e-01 4.2511820431305004e-02
      1.7816314161527697e-01 1.2956126352322561e+00
      4.9061112453956651e-01 8.1235927023286969e-01
      3.0337516205528398e-01 3.0363401011874704e-02
      -1.3022784840954738e-01 -7.5608902381507337e-01
      -8.3318772469791205e-02 8.0929021965290171e-02
      -7.8621008503242232e-02 -3.3263215487891667e-01
      -1.7199023298630567e-01 6.5168869795074047e-01
      -6.3871104707945436e-01 -1.5564263626640007e-02
      2.7356074378308926e-01 8.9491359053263952e-01
      -6.3514326314425801e-02 -1.1586604444452006e-01
      4.1553774300321583e-03 -8.5379625037218243e-01
      -2.7275954625063353e-01 2.7424416222527831e-01
      3.1443030152743967e-01 4.0997393239541585e-01
      1.1875387608568518e-01 -5.3064640490639081e-01
      1.2630221056164248e-01 -5.5405087689685129e-01
      -5.1387805032545497e-01 2.8396972746318451e-02
      -3.9127145102264643e-02 -4.0747766218283521e-01
      -1.2916520102988110e-01 -6.5868673251093379e-01
      6.0310265251860085e-03 2.4656629960106272e-01
      -4.8711589011620138e-01 -7.0210397323299534e-01
      -3.8524579476759935e-01 -2.3637663641995135e-01
      3.7452054296988924e-01 -7.8068354224890155e-02
      -1.4831763525909744e-01 -7.6900188870251976e-02
      -9.6001204814261554e-01 -1.9748710741961015e-01
      -6.1687822552433769e-02 -1.3587213512356056e-01
      -1.4216514717722847e-01 -2.1029944535487166e-01
      1.2141928053594497e-01 2.8731907606963147e-02
      -5.2150374395394328e-02 -1.5062271429853610e-01
      -2.6813370939253822e-01 -2.2421170049438713e-01
      5.4080128009639972e-01 2.1165716787706641e-02
      -1.8503641302191273e-01 4.9692538273642822e-01
      2.1678706868841938e-01 2.1101230016350508e-01
      3.1141976052033352e-02 4.3357936187378354e-01
      -1.9482061237182081e-02 -2.7690723369242509e-01
      1.4369300143521721e-01 -2.1456691859692931e-01
      1.3864368352348017e-03 7.3235314770660020e-01
      1.4699927254853340e-01 -9.6183114850018070e-02
      1.2122392247630366e-01 6.2767260846172318e-02
      3.0668176275836551e-01 2.1902299902296629e-01
      -1.6599828930061319e-01 4.6566659595345206e-01
      -1.5349326019670426e-01 -3.6290254643791137e-01
      2.6820552924049423e-01 -6.3655551913710895e-01
      3.1945839533560477e-02 -3.0928940472093858e-01
      6.6971831381823921e-01 1.2563162849114490e-01
      -2.2291607900415558e-01 -5.2085481882480533e-01
      -4.3700531852690877e-01 -1.1849288150218676e-01
      -9.7214609014482622e-01 -5.0402288464731015e-01
      -6.9915845304516111e-01 9.0044141156058813e-02
      1.8430261479762503e-01 1.6215240270876427e-01
      -4.2890394521417508e-01 -4.0799166846589224e-01
      -3.3797054331994819e-01 -3.8713713379495790e-01
      1.3320716821859360e-01 2.5951326658393326e-01
      -1.3601350896746800e-01 -2.4727412418132960e-01
      -7.8714154640116607e-01 2.9655304741749611e-01
      -2.4582936240312206e-01 -9.8580147588034683e-02
      -3.7125238807483647e-02 -3.2150043383131227e-01
      3.9273908207692676e-01 2.0954503894361493e-01
      3.7537311612925789e-01 2.4055561021241695e-01
      6.4732363089554801e-01 -2.5498693186586963e-01
      -2.3442646731503692e-02 -6.1749152016884457e-01
      -4.4004724894397074e-01 6.0312390968833431e-02
      -4.2915822606286153e-01 4.0009907201462754e-02
      2.9625491022957412e-01 6.5140227291627439e-01
      6.7859424355966236e-01 4.7624533920060930e-01
      6.0906403621010796e-01 3.6060520877650015e-01
      -2.7457670387525179e-01 -6.8616260854450839e-01
      3.2910981241830617e-01 5.6223558493944537e-01
      -1.9331201697981718e-01 -1.3277280532458482e-01
      -1.2814255155488247e-01 3.9830174425775200e-01
      -2.4351297905583272e-01 1.4099307732147923e-01
      -1.8671735516605889e-01 -4.7263272812001694e-01
      2.2218721565545194e-01 -1.3370310407384445e-01
      1.2779753362079543e-01 2.7238524426633670e-01
      -2.2407122063069221e-01 -6.7172592207255966e-02
      -1.6402012441048663e-02 4.0447105185371046e-01
      4.5938281297403150e-01 -5.3019028866683937e-01
      6.4140899586449829e-01 3.2315226097699372e-02
      3.8247656487386400e-02 4.2375739670905896e-02
      2.0759734557092100e-02 2.6761375691301786e-01
      -3.1536961520481316e-01 -3.8531072884647871e-01
      6.6105650839717811e-02 -1.2321934789888975e-01
      -2.1171637254387285e-01 3.8093586207198143e-01
      -1.9628051485877845e-01 -3.9998434313147535e-01
      6.3507173711951984e-02 -2.4198474762354397e-01
      -6.5961108945283531e-01 3.1432465843003254e-01
      5.5474198525259111e-01 1.1516682923052529e-01
      -6.2179088514345456e-02 3.0262896928255045e-01
      9.7576010784994296e-02 -3.7950493983395367e-01
      -3.8565966024797493e-01 -7.3314369845216576e-01
      2.0877097779036385e-01 8.0843329033840287e-03
      -6.1803885880270726e-01 1.6718803922635339e-01
      -1.6807829616812656e-01 2.0783401777881247e-01
      2.0310562004564461e-01 -9.5819403367826725e-02
      -8.8517024187407825e-02 1.0717244220758181e-01
      -1.8986816364422185e-01 -4.3751327467636120e-01
      -1.5463850837684950e-01 4.4879719559866960e-01
      4.3686779639395551e-01 7.4078362259077801e-01
      -9.9799376974485640e-02 -3.7773474626943325e-02
      -1.0907030636127300e-01 6.7291667152860346e-01
      -1.8429238962937117e-01 3.3716149254560068e-01
      1.7814452305165990e-01 -3.0901005221975980e-01
      6.8923968590775209e-01 2.8508909788648629e-01
      9.8506587728330444e-02 -2.9563357482855968e-01
      4.6596021549049277e-01 1.1795226070123311e-02
      1.6936827163185475e-01 -2.0660824492854606e-02
      -2.5156154044503493e-01 -9.6332693554006288e-01
      9.6651549427565417e-02 2.1026083830944303e-01
      1.7507815260210352e-01 7.1544443818241454e-01
      -2.5668998556254994e-03 1.8260422094366918e-01
      1.1398711297390134e-01 8.1019492168319107e-02
      -5.9387280430380673e-01 -2.6100883953868753e-01
      1.4822999105759604e-01 -1.0981537191388933e+00
      5.0662780040148826e-02 3.3437009090527720e-01
      7.7260311818281052e-02 -2.7358347524044557e-01
      -2.3407967283211314e-01 -4.2649327140905263e-01
      1.2715330430026228e-01 3.3774806347478492e-01
      1.4613253129191070e-01 6.1425310782442266e-01
      1.9656873864960861e-01 -2.7936685593374161e-01
      -2.3408860972780654e-01 -2.5313802026660376e-01
      -1.8312559313125104e-01 1.1519803309102664e-01
      2.5006749904618614e-01 -6.5841279298632552e-02
      3.2408907516300413e-02 -2.7686922058844704e-01
      -2.7773152010649138e-01 6.5656992959426030e-01
      4.1911834955176773e-02 -5.1912627612345119e-01
      1.6470614012051019e-01 -2.6559800584813203e-01
      -1.0623456238479152e+00 -4.2032388877934046e-01
      -6.8743994932010166e-01 -5.3114392568714064e-01
      -1.3687742463246660e-01 3.0951154694002496e-02
      9.8725366916804780e-02 -5.0750847841137418e-02
      1.4694854821448156e-01 3.6953579943774982e-02
      -2.6497497066255421e-01 2.4209393379177566e-01
      2.7824265323328817e-01 1.2129423870054178e-03
      1.2751974459569110e-01 1.3795691623901044e-01
      -5.2687322936556114e-01 2.6607509620993847e-01
      2.0760621600524803e-01 2.5997068897217646e-01
      -5.0032864644711927e-01 -2.0583766490629946e-01
      -1.6814903576465162e-01 1.5839198594441267e-01
      5.4390748960515241e-03 3.7205149604909631e-03
      -5.7427801027577763e-01 -2.8099100012050521e-01
      -1.9511745717176182e-01 -1.2427611955123984e-01
      -1.6409754568949567e-01 5.5691252297883498e-01
      -6.6488051916618555e-03 3.5289349612106768e-01
      -2.7472267061050493e-01 4.6914329064482518e-01
      -4.4239795802270704e-01 -1.3869281040534228e-02
      2.2544237612325629e-02 -2.7302352962354803e-01
      -3.4878652731536192e-01 -1.3054329940725043e-01
      1.1666333196758338e-01 1.4668556916649744e-01
      -1.5678416368660689e-01 1.5654293896193214e-01
      6.8327870072986394e-02 1.0750339933818689e+00
      4.3375413320057726e-01 -2.8966681816932321e-01
      1.7989994203002460e-01 -2.6571181871738786e-01
      -9.8166332092204989e-02 -2.4990069900154250e-02
      -5.2535195142003099e-01 2.7533320895198771e-01
      -4.1315587151580441e-01 -3.0150676858187941e-01
      5.4953962387134969e-01 5.8215986713925094e-01
      -7.4747871433734764e-02 7.3483696776786167e-01
      3.2435955131073176e-02 3.3039810642473616e-01
      1.9879096398133375e-01 4.3533309049222446e-01
      -3.6025721099170094e-01 -1.5133340133954523e-01
      3.8425243552478339e-01 -5.9666893560863676e-01
      1.9483088426720810e-01 1.3796913465454422e-01
      -2.8751640881674972e-01 -1.4598609540726629e-01
      9.3696724801286060e-02 -5.4418455453107961e-01
      6.2535512700915591e-02 -6.7517857996685863e-03
      4.0044032809064545e-01 -3.2022883954941234e-01
      3.8904043453050569e-01 -2.7890865037664564e-01
      3.4439263468766329e-01 2.9103056692421014e-01
      -8.9708956155026595e-02 8.8997296483538713e-02
      1.2421139832910055e+00 2.8186554929058033e-01
      5.6408181029167739e-02 7.6780619484320606e-02
      -1.5266477233726569e-01 -8.3433649869035931e-01
      -2.9262581758235062e-01 -5.4297688932129551e-01
      -1.3890019121005162e-01 6.5779011682954425e-01
      -6.8420511328895317e-02 -3.1159470068379019e-01
      -2.7455510513864051e-01 -7.7060736469770533e-02
      3.2617391683401176e-01 1.9365262079256768e-01
      9.9947733593748783e-02 2.0112137672025640e-01
      8.9034396366878502e-02 -5.8227073273329855e-01
      -1.3925881216813699e-01 -8.3264721649210882e-01
      -3.4719895382778121e-01 -4.0657057211416187e-02
      -1.4490392464334667e-01 -1.5078109465427289e-01
      1.5858572203150600e-01 -7.5389022069675338e-01
      -2.9461477839769196e-01 -2.8610939509438469e-02
      -7.0228187507932012e-03 -1.0924694887309232e+00
      -2.2381350004994127e-01 3.4000138923058149e-01
      -1.6451873169489936e-01 -3.6622519213310062e-01
      -3.0830461206081822e-01 4.6008845614451005e-01
      -2.0024920837351207e-02 -5.3301789122321297e-01
      3.6384109162879839e-02 -6.2425604859244044e-01
      -1.1359135454987876e+00 1.4699812464378234e-01
      -3.1064403993655226e-01 -2.7301916131522497e-01
      2.3186855664151756e-01 2.0282840973190167e-01
      2.5739556615671322e-01 -4.8963857436796199e-01
      1.4379171815669464e-01 -4.3617481074874542e-01
      -4.6292231345582457e-01 2.0142698618068888e-01
      -3.9465186097065709e-02 3.0076051772996876e-01
      -1.8053346379033663e-01 -4.8040522622526510e-01
      8.3404844535903567e-03 -1.0936540305688727e-01
      4.0762891144996360e-01 4.5976781797793312e-02
      1.8637863701907353e-01 1.3330521621175963e-02
      -5.0618356923039051e-02 1.5543280028865564e-01
      -4.3181859784132193e-01 -3.0450604798099890e-01
      1.5207044795655911e-01 -4.1464830487491422e-01
      -1.0333066544071452e-01 -5.9007813494440953e-01
      -1.2774822585124551e-01 -1.4939795450576815e-01
      -3.3078731737079348e-01 2.5619294108545271e-01
      -3.1994748025737574e-01 1.8481153014983701e-01
      5.9101571049561423e-02 -1.8439966722891935e-01
      2.4534503549546466e-01 -1.1452482591686908e-01
      -7.5425467612707617e-02 -1.4836518900494217e-01
      -3.2146682050627218e-01 -4.3253971749956810e-01
      4.1875149579294085e-01 -1.0147599184799069e-01
      1.0656936604694267e-01 -1.2534497639267947e-01
      2.9921598176649150e-01 -5.7999247058660075e-01
      1.0227917737716988e-01 1.7178702693376033e-01
      -6.9092323106348397e-01 -9.0687841523102733e-02
      -1.0572057728545192e-01 -4.6766190439819784e-02
      -2.2700929641638623e-01 -3.3386644571856255e-01
      -1.1897490230346376e-01 2.6560399419436098e-01
      -3.2723271121093314e-02 -2.3159016925838544e-01
      -6.8684482697953270e-02 6.7356198714422066e-01
      -3.9058270594088690e-01 5.5886101303919411e-01
      -1.4457737275623975e-01 -3.8472378331358492e-01
      -1.2279391053854437e-01 9.5101478233187764e-02
      3.3333258016706624e-01 -4.0932327085584547e-01
      5.3745401019567367e-02 -3.2441259831027297e-01
      -1.2925513393986807e-01 -2.7764837724963876e-01
      1.2111494319597979e-01 -6.7055083669188320e-01
      -2.3538804582299833e-02 -1.4392103774140930e-01
      -3.7854047869208785e-01 -7.2293759355927678e-01
      -6.9745690689127574e-02 5.9301387251467463e-01
      2.0673733367013339e-01 2.5738313813868630e-03
      3.4798636900689550e-01 3.4106955630904950e-01
      -4.8778036552372950e-01 2.6012454088444564e-01
      -4.7745052987035887e-02 2.7936960009593270e-01
      -1.2049685640328467e-01 -4.2608388077831283e-01
      1.0344498533084809e-01 -3.4100996173411446e-01
      -2.0377604045906247e-01 4.5059994699667572e-01
      -1.9489017944990469e-01 -1.1089721775681893e+00
      6.4453559263177043e-02 5.2700343634469085e-02
      -1.2224824025957367e-02 -8.9771446391790789e-03
      -8.0366615997926147e-02 -4.5523533753427331e-01
      6.4217716793265517e-02 5.4602211263737932e-01
      1.7103491914652438e-01 -1.4441862549604687e-01
      -4.5638600710095950e-01 -1.5279070445784707e-01
      1.8093423680097953e-01 5.6040044418440860e-01
      -1.1946451702433039e-01 -2.8614332450370555e-01
      -1.3888750517327247e-01 1.8190953867410192e-01
      1.8620154273531517e-02 9.2617325917226531e-02
      -2.8465177612762144e-01 -3.9470697892491796e-01
      6.9241648525567101e-01 7.5019382636573484e-02
      4.1104002356602241e-02 7.4639864355698726e-01
      -2.7983142801149669e-01 3.8869562055173290e-01
      -5.7368720975362456e-02 6.3531839191898087e-01
      -6.7321013363460069e-01 8.3530319539404485e-01
      -1.2145923450112685e-01 -6.6233688517339115e-02
      -4.6047351747752591e-01 -2.1079493870744453e-01
      6.8758094400714523e-02 6.5254327365217094e-02
      -2.1827167493954797e-01 -3.9178469307277664e-01
      5.8323695552131266e-02 -5.5082784036104471e-01
      -9.9528971408278134e-03 -3.1929676870198175e-02
      -3.8559370521958805e-02 3.7541735209722822e-02
      5.6093812311343827e-01 -1.2334990148871553e-02
      2.6964324257832548e-02 1.2386850787559004e-02
      2.6960869971957802e-01 -5.5883173586761181e-01
      -4.3366993597229397e-02 -4.4852132641146591e-01
      7.5922810808960239e-01 -3.4622532193246047e-01
      -2.1378436184557620e-01 -2.7230259521866818e-01
      -1.7093905878678889e-01 -2.6200141063370103e-01
      2.7704437624245610e-03 -1.6840876628156087e-01
      3.4839781185096180e-01 -6.2851214561361968e-01
      9.2644533564072429e-01 -1.6427719122908829e-01
      -3.0585347015727421e-01 -6.0060324449838631e-01
      4.9929000874628171e-01 -1.8037930274813831e+00
      -1.2730408411932734e+00 -1.7744256403988332e-01
      2.7579398685288997e-01 1.3851753895775607e+00
      -3.0205876101341778e-01 -3.5605595378097288e-01
      -2.0812623071102110e-01 1.6490782069603496e+00
      6.6547919411855905e-01 -4.1208127524804089e-01
      -5.0292765624307589e-01 3.8382422335393279e-01
      8.1434697758753435e-03 -1.4331740636469350e+00
      1.0317370805571919e+00 2.5104746225914026e-01
      1.4804406244300816e-01 -4.5408217985780519e-01
      8.5099109860883948e-01 8.2183412503283082e-01
      1.2914340575748118e-01 7.6317473561501870e-01
      8.6691748439020133e-01 -1.6081796731397828e+00
      6.7602432509534260e-01 -2.2377379974831300e+00
      1.8368235583038384e-01 -4.2798273733506648e-01
      -5.0546874763055916e-01 2.4799240612976701e+00
      5.6507453804067653e-01 -1.3579734297947970e+00
      -2.9232183911367082e-01 -2.6051952332995820e-01
      1.2573023067685853e+00 5.9858393221573014e-01
      1.8563239372609830e-01 9.4515295307033098e-01
      -1.0094980938479590e+00 6.4215307559413071e-01
      1.0335746736537230e+00 -1.9770165262984807e+00
      -4.6301402292820654e-01 1.5695746013427709e+00
      -2.4918759650697098e+00 -9.9771997439629034e-01
      5.3229789129827909e-01 -2.7971722506168994e-01
      -1.6029960498506662e-01 -4.1954427336654343e-01
      -2.0221098946242821e-01 1.5219714404740532e+00
      2.2914077449402517e-01 4.1097234480128425e-01
      1.4148767597424847e+00 8.0928925958436360e-01
      -4.3931082384149894e-01 7.6036535183906573e-01
      1.2276559148481739e-01 -4.0137784473367083e-01
      -8.7338794771132489e-01 4.8392594770234110e-01
      -3.7891765797641519e-01 6.0144161320962353e-01
      -1.9487450604374840e-01 -7.3171279082393659e-01
      5.6603322568692616e-01 -1.4035666923539445e+00</_>
    <_>
      -7.7184537473466031e-01 -3.1389103991010908e-01
      1.5394655528904369e-01 1.9755071591229029e-01
      -5.9906231162327878e-02 4.8593572323549389e-01
      -1.8635639669383494e-01 -2.3980835573795736e-01
      1.5631201357100683e-02 -1.1321946584481066e-01
      -2.5722338109715581e-01 -1.2020676723906434e-02
      -4.2970126797053676e-01 7.1616741432783224e-02
      -2.6483010172970739e-01 2.7125404853420937e-01
      -6.4556146626452293e-01 5.5618699589374855e-03
      -3.4750169419968058e-01 -2.3161819096429981e-01
      -5.4790602900406604e-01 -1.8199320810169423e-01
      -1.1923523826191185e-01 -4.8191497585634219e-01
      -5.0431424848972957e-02 -3.6970357650255442e-01
      -2.7349430003133873e-01 7.7058685263813528e-02
      -2.2559101254846636e-01 2.2078231121213945e-01
      -3.1676632823970180e-01 2.6224352729871320e-01
      1.7029740939132773e-01 -1.3488556295887838e-01
      -4.8842738718247389e-02 -3.7542785463131494e-02
      -1.6955086041148072e-02 -3.7851877039058307e-01
      2.3081051172826719e-01 2.4992148422649868e-01
      1.5518176522179064e+00 5.0149169797580007e-01
      4.6769940815418104e-02 6.6420732007417146e-02
      1.6331566981861950e-01 6.3449605668474529e-01
      -1.7166662935122295e-01 1.8538256093222505e-01
