<?xml version="1.0"?>
<opencv_storage>
<my_nn type_id="opencv-ml-ann-mlp">
  <layer_sizes type_id="opencv-matrix">
    <rows>1</rows>
    <cols>4</cols>
    <dt>i</dt>
    <data>
      50 70 35 6</data></layer_sizes>
  <activation_function>SIGMOID_SYM</activation_function>
  <f_param1>6.6666666666666663e-01</f_param1>
  <f_param2>1.7159000000000000e+00</f_param2>
  <min_val>-9.4999999999999996e-01</min_val>
  <max_val>9.4999999999999996e-01</max_val>
  <min_val1>-9.7999999999999998e-01</min_val1>
  <max_val1>9.7999999999999998e-01</max_val1>
  <training_params>
    <train_method>BACKPROP</train_method>
    <dw_scale>1.0000000000000000e-03</dw_scale>
    <moment_scale>9.0000000000000002e-01</moment_scale>
    <term_criteria><epsilon>1.1920928955078125e-07</epsilon>
      <iterations>300</iterations></term_criteria></training_params>
  <input_scale>
    2.2789097704413078e-04 -1.2566647475523887e-01
    2.7642520743911239e-04 -2.1682886576783051e+00
    3.8020469283894001e-04 6.4545608055945969e-01 4.7570818423812224e-04
    1.3443345362415779e+00 6.0381222731058779e-04
    -7.6531412459517967e-01 6.5429296748463191e-04
    2.0799981428560729e-01 6.9253526871965296e-04 8.5690495417533308e-01
    7.7850654312660878e-04 -5.8038171919083413e-02
    8.3602035148718716e-04 3.1490822229445359e-01 8.2845784466052067e-04
    2.9151009152990875e-01 9.2299853103821792e-04
    -5.3753292559789401e-01 9.5967961153943396e-04
    1.9289422811341084e-01 1.0255152440133716e-03 1.4788805778654845e-01
    1.0326290877369618e-03 -1.4337215463120351e-01
    1.0429100844275986e-03 3.9903405776310852e-01 1.0820329662995299e-03
    2.3952733500698503e-01 1.1155537960368779e-03
    -5.2706623360736049e-01 1.1699296226357994e-03
    -4.1370126728033557e-02 1.1917927000935911e-03
    -4.1108285771564279e-02 1.2355021785629158e-03
    4.3822635403776938e-01 1.2779371155366278e-03 1.3571540530439544e-01
    1.3467716584391694e-03 3.5379020243093071e-02 1.3741538819980565e-03
    -2.8596087068969223e-01 1.3979134046275610e-03
    9.1755816989654640e-02 1.4687763540281742e-03 1.0460625530221947e-02
    1.4697590546206077e-03 2.1088165864179432e-02 1.5073681562560344e-03
    1.8172725586158425e-02 1.5283572908218249e-03 1.0898774761129672e-01
    1.5439305969659645e-03 -4.1778903295674769e-02
    1.5733248965149017e-03 -5.9804616497793200e-02
    1.6299113861842828e-03 -4.5483937037479202e-02
    1.6615648240542263e-03 -4.6854123880453475e-03
    1.6722213294658934e-03 3.8643641164791007e-02 1.6810527859367369e-03
    -7.4925029436062746e-02 1.7344728741821706e-03
    1.6329747278401910e-01 1.7442418869565871e-03 1.0366325458627827e-01
    1.7944890071753415e-03 -1.7221542738171408e-01
    1.8600561728111286e-03 3.4019556524875948e-02 1.8745312028211291e-03
    9.7094036058605601e-02 1.8910658440023525e-03
    -4.1781874586543033e-01 1.9705880497654467e-03
    -2.7878656270483106e-02 1.9455285417865457e-03
    1.7487947301983459e-01 2.0194534067040008e-03 7.0252778677323588e-02
    1.9890715824441166e-03 1.8462022506627138e-01 2.0374404484951401e-03
    -2.6631788624270997e-01 2.0801823269495055e-03
    3.3739484558537969e-01 2.1479702226017165e-03 5.5467644141752787e-02
    2.1294433707286569e-03 -4.5482175205453745e-01
    2.1938599985253139e-03 3.8017775008910559e-01 2.1994181191352150e-03
    -8.7223850031932185e-02</input_scale>
  <output_scale>
    5.2631578947368418e-01 4.9999999999999994e-01 5.2631578947368418e-01
    4.9999999999999994e-01 5.2631578947368418e-01 4.9999999999999994e-01
    5.2631578947368418e-01 4.9999999999999994e-01 5.2631578947368418e-01
    4.9999999999999994e-01 5.2631578947368418e-01 4.9999999999999994e-01</output_scale>
  <inv_output_scale>
    1.8999999999999999e+00 -9.4999999999999996e-01
    1.8999999999999999e+00 -9.4999999999999996e-01
    1.8999999999999999e+00 -9.4999999999999996e-01
    1.8999999999999999e+00 -9.4999999999999996e-01
    1.8999999999999999e+00 -9.4999999999999996e-01
    1.8999999999999999e+00 -9.4999999999999996e-01</inv_output_scale>
  <weights>
    <_>
      -2.8788950123736043e-02 1.1380033417174233e+00
      2.2156851246698778e-02 -3.3510294964539938e-01
      -5.6766759495755814e-01 -9.8365686023829113e-02
      2.6507951257174166e-03 1.9674723980022826e+00
      4.4923541099245023e-01 5.5306316071657891e-01
      -1.9983288150915327e-01 -8.3821529355895419e-01
      -5.7076650779548876e-02 -8.3138377056483248e-02
      2.5779203854517274e-01 2.5318991573197713e-01
      -5.6308176243516417e-02 5.1405260006484710e-01
      3.4490770839306673e-01 2.1973954841558625e-02
      1.4987641331217091e-01 -4.0825029737888680e-01
      9.2975136901005506e-02 3.9044925505057823e-02
      -4.3722387086414161e-01 -1.7849033752585416e-01
      1.4589211107561681e-01 -4.6413438218652611e-02
      -8.4623686233110257e-02 -6.4348974225086386e-01
      1.1063101504631476e+00 2.3077247027644918e-01
      6.1034119795015473e-01 1.1977244606509925e+00
      -4.0474885341081429e-01 7.1382962179202236e-01
      -5.2327721411806771e-01 3.4074441134515138e-01
      -2.2343273881666603e-01 4.7420858757481360e-01
      -4.5603703831034365e-01 -3.1540707934501272e-01
      -2.1338991173660218e-01 -4.2578328568298729e-01
      -1.3185236962984528e+00 7.2736567790170251e-02
      3.2155616430047140e-01 -6.5797423545560993e-02
      -1.8362704205437005e-01 1.3346678216990721e-01
      -8.9326451793208736e-02 -2.0990661309510505e-01
      -9.1533130033329724e-01 9.7508438374676754e-01
      -2.7237369644033066e-01 -1.4903574836308590e-03
      -1.8726202811653353e-02 -1.1664620991384049e+00
      -5.7863409074627581e-01 -1.1659561897726276e+00
      -1.0292282040838072e-02 -2.9776971665442808e-01
      -1.0458046011128856e-01 3.4534074383068308e-01
      1.8223377320509934e-01 -2.5732590765150354e-01
      5.7553903031642296e-02 1.0829800437070602e+00
      -6.4782008736716620e-02 -2.3446922807008183e-01
      -2.8300634020899457e-01 9.2332382589778050e-01
      2.6224031589380958e-01 -2.2033797397348262e-01
      -5.1939813820398528e-01 8.5637223263703166e-01
      -1.2324131424435028e-01 6.5647417937715363e-02
      -6.3831634140380766e-01 -3.2799801128670375e-01
      -2.1015650986832790e-01 -1.4478194645911227e-01
      2.4049884980616726e-01 -5.3019709130166411e-03
      -4.3209460410434897e-01 3.1967304973573935e-01
      -5.4317041994343596e-01 4.3636681381244069e-01
      5.0424656724406514e-01 -1.2527192480778276e-01
      1.3046100603305417e+00 -3.9977928440127358e-01
      -2.1634629799019880e-02 9.0264061254790562e-01
      -9.1144296341395825e-01 6.2833451691450978e-02
      -1.1547231941395290e-01 -5.1879764690874697e-01
      -1.9458207022420010e-01 -1.4214819995616956e-01
      -6.1122523851248911e-01 -1.2155930044927206e-01
      -5.6743244016015382e-01 -8.5427016768535124e-01
      -1.1717499039491623e+00 6.3262833039874622e-01
      1.0479569501975119e+00 -5.6735098122209260e-01
      2.5531465971332057e-01 1.6619718976030276e-01
      -4.4331973950165565e-01 -6.0248162005806927e-01
      -5.1794715388475598e-01 6.7661443086553619e-01
      -4.2345034045951491e-01 -1.4615601091909571e+00
      -8.5891091664693595e-02 2.5125933878658863e-01
      -1.9576854790297257e-01 -1.2435238682336230e-01
      -2.7081007558290676e-01 6.1995854479258961e-01
      7.1342743695221944e-01 -3.6016841551166412e-01
      -1.6072770935769479e-01 -2.6826371652039538e-01
      -1.9012553647205273e-03 -3.8265203332183262e-01
      1.2160075806456936e+00 2.0698476035357785e+00
      -3.8426093415939871e-01 -1.0089881150449682e+00
      -2.9327619704592345e-01 -2.7348984987670160e+00
      -4.9655505525901794e-01 1.4834849578537107e-01
      -3.8481578024783458e-01 -1.6578662269327546e+00
      -1.5167162895423987e+00 -3.6957305046178901e-01
      -9.0421792207273322e-01 6.3427934546940767e-01
      5.6081685993613760e-02 9.1662922357057877e-02
      5.5758347528099717e-01 8.4709882577531559e-01
      -3.0177671326783012e-01 -1.2672644886935920e+00
      -3.6161280650506461e-01 -1.0703458810853912e+00
      -6.3816996741070564e-01 8.1656524573567812e-01
      -1.9804569331321348e-01 -2.1683508253201322e-01
      -5.4152759249269888e-01 1.7457671892199045e-01
      -2.4665150078988093e-01 -8.8465405963755950e-01
      -3.4145536642273006e-01 -2.4149364393176682e-02
      6.0742252704400623e-01 2.4313286610956283e-01
      4.4785634722394690e-01 -2.2893014258851935e-01
      3.8327182793174347e-01 -3.2690355385614012e-01
      1.3245809102763798e-01 2.1323490481567051e-01
      -6.9752665299840155e-01 -1.1121227808567613e+00
      2.3786935602541992e-01 5.0506440930702924e-02
      1.6672596463542996e-01 1.0108302541300276e+00
      4.9952510020793106e-01 3.1788060400452373e-01
      -1.3629829395035301e-01 4.4634441232316191e-01
      1.2328259252176539e+00 -3.5409131734789927e-02
      -1.4815026565655118e-01 4.7043734100835244e-01
      -4.1283609068901589e-01 -7.7994415150948793e-01
      -8.2254654812536487e-01 8.0555508915418506e-01
      3.9558290928460471e-01 -3.0118504190388701e-01
      3.7274509314554688e-01 -8.6339741804381609e-01
      3.5292051193824092e-01 2.8397362987652403e-01
      -1.9108430349606162e-01 4.9294223481849514e-01
      -5.6973633032161193e-02 -2.0245625024450603e-01
      1.5047192043278254e-01 9.7818341651991270e-02
      1.0494269750615175e+00 9.2729157372987592e-01
      -4.7550591217279864e-01 4.5730532064572954e-01
      5.2605874693396237e-01 -2.0024672623180635e+00
      -4.7320614045358117e-01 -1.0490607918912712e-01
      1.0187143962010869e+00 -4.1934104161123098e-01
      5.7662258506714248e-02 3.8647348970118950e-01
      5.6436210189266123e-01 2.5472443060178920e+00
      -3.3485922126830991e-01 -2.3038885197905906e-01
      5.8673122146440637e-01 -7.1364737501825481e-01
      1.9992466753125263e-01 -2.6197152175449956e-01
      -3.3093680825007449e-01 -7.2588975522201871e-01
      9.6372098573370057e-01 -1.6843603079964647e-01
      -4.8564195792138909e-01 3.9740884485254790e-01
      -1.1759228364593786e+00 -2.9132507638666982e-01
      5.9844379795518715e-03 -4.2254983378498823e-01
      -1.6975692459593055e-02 5.4719497434657116e-01
      -2.8055677954385999e-01 -3.4784907932058418e-01
      -6.2477777249849938e-02 -1.9185767401931383e-01
      7.5519712340840406e-01 9.5939287355780389e-02
      -1.9088271419411842e-01 1.1477421113328577e-01
      1.6384557471616595e-01 1.7189148543271388e-01
      -1.0261936902680804e+00 -9.6917854263775582e-02
      -1.7174675576042478e-01 -1.3774821747909585e+00
      -8.4834841757792004e-02 -2.2259033220198352e-01
      -3.0424707264383066e-01 -2.1278159355300191e-01
      -6.6635074640856204e-02 6.3663195729122601e-01
      -9.3852692318997052e-02 1.0528029844925185e-02
      5.5457183312650271e-01 -3.7987548113082020e-01
      1.1066679288856790e-01 2.0952869800185017e+00
      1.5539904246408971e+00 -5.3257917546692235e-01
      -3.2949486109209758e-01 8.1834325952602927e-01
      6.0292516559038201e-01 -1.2990623802858517e-01
      1.3277081621624298e+00 -3.2024700165238168e-01
      -6.4198363163077490e-02 -6.1964883217512090e-02
      3.5284991763458423e-01 5.0825648697628489e-01
      4.7766950312881401e-01 -3.2499327416619592e+00
      -1.8322648370277156e-01 2.9517361212613369e-01
      7.1993981870187340e-01 -9.7251054193935038e-01
      -2.6187909150841016e+00 7.2091115415410256e-01
      1.5783426716799229e+00 2.8833892830391665e+00
      -4.1918221287082758e-01 5.5464340201862461e-01
      1.2092490947843713e+00 -8.4826317665137430e-01
      -2.4840397545928605e-01 9.5895334439298555e-02
      -7.6081713932391715e-02 4.6770039143692477e-01
      5.1518856711787619e-01 -1.2380789181498618e-01
      5.5682948362566020e-01 5.5524085660789713e-01
      -7.9015301409554428e-02 -3.9789969423607291e-01
      -4.1836071013054998e-01 -3.5384141829829430e-01
      -1.7972229703878842e-01 4.4351128369843723e-01
      -1.3453061191357435e-01 7.3443300098948228e-01
      1.2686595635635894e-01 -8.9004518244964481e-01
      -2.6108698443373207e-01 4.1329863461906885e-01
      7.9825511982599895e-01 -5.4232666140580414e-02
      1.8926311857953626e-01 -3.3568175213228679e-01
      -2.0439373555411888e-01 4.5302283649718561e-01
      1.5141232399127177e-01 7.2346026943442387e-02
      7.8386632961598410e-02 4.8517131213757281e-02
      -6.6309840434539036e-01 -3.6411477050505270e-01
      2.5913687139575059e-01 -6.3221967361820047e-03
      -1.4354541877161737e+00 3.1801268518096765e-01
      9.4384784975063793e-02 2.8541648409106413e-01
      -3.4214418259708729e-01 -8.3233055223045904e-01
      5.9971159600057874e-02 5.2665244196708993e-01
      1.6274702460227852e-01 6.8962831759317078e-01
      -9.1178414088278292e-01 -8.8005084914714160e-01
      -1.0226476422626562e-02 1.8589001466072265e-02
      -5.4511420175143965e-01 7.4766223630085324e-02
      -3.1901504423014260e-01 2.7990793773913617e-02
      1.1560859110508401e-01 1.7789971488121858e-01
      4.2549905433438895e-02 -2.6308084682289828e-01
      1.8996269534082695e+00 -3.1266403294513916e+00
      4.7759992086238517e-02 5.8804423755800660e-02
      1.7866250303884659e-01 2.2267445236430894e+00
      1.6805847753647842e+00 7.1785565124701067e-01
      -2.2308487176118441e-01 8.0913811991127560e-01
      5.2832369654801736e-01 -2.7516957556221699e-01
      3.9924583399356295e-01 2.2204766413437935e-01
      -8.6066011874991355e-02 8.4782928554488740e-02
      8.2005938336387807e-01 5.0026975368994886e-01
      6.1340408216626841e-02 5.6598165969310985e-02
      4.7721236249499877e-01 5.3362371974906164e-01
      3.2049347453425359e-01 -2.7766464375272842e-02
      -1.4886980892132706e-01 -2.4391756054695465e-01
      1.1899601457335998e-01 3.1772214291390338e-01
      -2.0215722785262144e-01 4.0737713368593176e-01
      7.6282025422985988e-01 1.8623303457600790e-01
      6.8990405518528575e-01 8.6770218982695921e-02
      4.1406625431978750e-01 -4.6882272343594891e-02
      1.0529830646543108e-01 9.3248576538112762e-02
      3.7461935244309003e-01 3.3627238235490547e-01
      -8.0528442330694811e-02 -4.8493885105532719e-01
      2.7538019735245195e-01 -1.1997232858450956e-02
      2.3702019724582188e-01 -4.6844000374526801e-01
      2.4143098755674516e-01 2.4911232472390335e-01
      5.4683782969113215e-01 1.6347528202577946e-01
      3.0062160792623127e-01 3.6873778704892329e-01
      2.0881374534516239e-01 -2.6145403471466705e-01
      9.0489767117071684e-02 2.4607572664523336e-01
      -2.9277027805354972e-01 6.3922448835894341e-01
      -9.1061310229596049e-01 -6.5916464245182516e-01
      -1.7351290995568422e-01 -2.1029240032700655e-01
      -5.5597961301213428e-01 1.0361350112301998e-01
      1.2907954460534088e-01 1.8272721886562535e-01
      -1.4833962643453860e-01 -2.5276403955417220e-01
      -6.3464056100662292e-01 -1.1066398982499452e-01
      -6.3879901541194148e-02 -3.4314535161142881e+00
      1.5424300213942793e-01 -9.9054186587449500e-01
      4.6480757705156966e-01 -2.6837135463476242e-01
      -2.6884284349812770e-02 6.4896946681327228e-01
      -5.3800149133893478e-02 6.0044122228346508e-01
      -7.9919860093001505e-01 -1.0770299763326868e-01
      6.9554077284338900e-01 2.3475313738334519e-01
      -4.3359949349858040e-01 2.4615874037900218e-01
      -4.5998226418846333e-01 9.0879783622038335e-01
      -5.4304678842801468e-01 1.4420160083007308e-01
      -4.1741413940215571e-01 1.9718669057373625e-01
      2.9468356595605449e-01 1.3003859554392883e-01
      -2.6166046030731943e-02 -1.8555633429553825e-01
      -3.5203756656347385e-01 2.4822610746790696e-01
      -3.6264429268264342e-01 4.3409393093913856e-01
      4.2009262615093501e-01 -8.9027742080324143e-02
      -3.8431000167358081e-01 1.9374447262864231e-01
      3.0048157459597952e-01 2.0653229673803591e-01
      -8.2129631992829188e-01 1.8797941974933446e-01
      6.7043705359812089e-01 5.4133731985787525e-01
      -1.8334810959412390e-01 3.0566280989479366e-01
      -4.8509823746716883e-02 7.1850847825433162e-02
      -1.8490684110339242e-01 5.9590453389924014e-01
      -2.3111176465150829e-01 2.9327860034542669e-01
      6.1738727214939759e-01 3.8010250086752784e-01
      -2.4602046145671791e-01 -4.7344890942556622e-01
      -8.6236518316946772e-02 1.4970485273778791e-01
      -3.4762386092074116e-01 1.8849482840081761e-03
      3.6450781751068911e-01 5.5518375780531548e-01
      -7.2103241061227419e-01 -2.3087291387152514e-01
      1.4840543323345345e-01 -4.9535703277177656e-01
      1.3510125062873335e-01 2.7060098336265265e-01
      -3.0335147938755847e-02 3.6069242247643618e-01
      5.3145951913374112e-01 -6.3007053572582472e-01
      7.8356293826030474e-02 6.3052461118277370e-01
      -1.8133338301313140e-02 -5.9702703134512025e-01
      -2.3441249821129284e-01 6.7096962939297400e-02
      -2.2716218605322441e-01 2.3732216049790950e-01
      -6.5223075531362126e-02 1.4917624098431567e-01
      6.1069223115925705e-02 -2.5138767771643511e-01
      -3.7264262008288829e-01 -1.8123848074853685e-01
      7.0938731355202256e-01 -2.5309804975552455e+00
      1.1815543301046064e-01 2.0721108110032992e-02
      -3.5519882783999845e-01 2.6675244546923077e-02
      8.3290454349715315e-01 5.8692908383295772e-01
      1.7232667700636356e-01 -3.7170702310325276e-01
      3.7637591596559916e-01 -2.4053437535855113e-01
      -6.2688679382295742e-01 6.1078808822498366e-02
      -2.9929752087879725e-02 -2.0565832337982701e-01
      -7.3862442421692542e-01 -2.8807239502592241e-01
      -5.9411476700583699e-01 7.3104523270697067e-02
      -1.5581279421903766e+00 -5.7752098343641589e-01
      -6.1034716153537460e-01 -3.8983319348560652e-01
      1.1861801853276617e+00 4.4320006358309350e-03
      -6.0483333746665557e-01 -1.9629983447679324e-02
      2.3445797372361513e-01 1.3640694356339153e-01
      -7.0055608405027961e-02 2.5644827491107425e-01
      -4.9784798353995502e-01 -1.9223759775023525e-01
      -5.0871412212816924e-01 -3.1978092265384721e-02
      1.0252874008220776e+00 2.8814889945693151e-01
      6.2418173882949977e-02 -6.1789739556428122e-02
      -1.2930756865304160e-01 2.2836949198915617e+00
      -1.3996406052267782e-01 -2.0078601958128775e-01
      7.8503263780194665e-01 -1.0342003240185620e-01
      3.6910338277076557e-02 -1.4992705685868501e-01
      2.2271356156948450e-02 4.0361875692857313e-01
      -4.4968562976648196e-01 -2.9328326869865684e-01
      1.1206930929458299e+00 -3.4515804205779842e-02
      1.3521021805718297e-01 2.0823835946040534e-01
      2.3462441265013426e-01 -6.8505054747807714e-01
      -5.5112248323187396e-01 1.9473601355216119e+00
      -1.9151954987504122e-02 -1.6492987514367721e-01
      1.0225731578136950e-02 -1.5126074624105985e+00
      -1.6963101906960945e+00 1.8603164810785924e-01
      8.0247091553189853e-01 -2.3237032317935196e+00
      5.9950167120385311e-01 -1.4006539802320048e-01
      -2.7932419389742674e-01 1.1886950211552791e+00
      6.0261770553202707e-03 3.3226372332677007e-01
      -1.1778617414077637e-01 1.8087511966643385e-01
      6.2918576280322647e-01 -5.0375419935375265e-01
      -3.1947782476164416e-01 3.2840311287518470e-01
      6.8398620900975468e-02 1.9721654462668811e-01
      -8.4285476345390808e-03 -1.6120248628841735e-01
      -7.2112397633421355e-01 2.9606752908013462e-01
      -1.7183410565759071e-02 2.2547725248272510e-01
      2.3616490362295259e-01 2.0303257544554790e-01
      6.8220435132717583e-01 1.0282115136145240e-01
      -2.2712543917284885e-02 -4.4371291102840427e-01
      2.1308060570335088e-01 -1.1088170958175332e-01
      -3.3414662798373257e-01 -8.7328646871282875e-02
      -4.6237814005166233e-01 -6.0791307252962563e-02
      -4.7223408611927198e-02 1.1943272089947013e-01
      9.9258805434892350e-02 -8.5260152818723267e-01
      1.3941550254848329e+00 -5.5166595880862090e-02
      -2.2071604758564109e-01 -1.2836086008370279e-01
      8.5234890537265307e-01 -3.6421729259045676e-01
      -2.9429870567365279e-01 7.3984329202557131e-01
      -1.0895519801657484e-01 -1.9197916083668740e-01
      -1.4954151085485307e-01 1.2419600633491295e+00
      5.7408485606849899e-02 -8.5978551180927898e-02
      -5.6213641873387322e-02 -3.7048839560686131e-01
      -7.8524188168248277e-01 4.8150247866942969e-01
      -3.8363804564955639e-01 -6.7885512744705645e-01
      3.8314681366128200e-01 1.8387393808110694e-01
      2.5817701240404634e-01 4.8080325297348958e-02
      -4.9013501657032427e-01 5.5266598013811463e-01
      -6.0171017040247288e-01 -1.4519555435120191e-01
      -2.3028260618378743e-01 -3.7857826379160503e-01
      -1.0965904944181017e+00 4.6237969491605224e-01
      6.0534250864281125e-01 -9.8125444992709998e-01
      5.8315397723099327e-01 -1.8355091718598576e-01
      -1.5604191809020448e-01 -8.9094220547383363e-01
      1.2520194975165991e-01 1.1927148620136489e-01
      -3.9789676931598975e-02 7.2437090583901331e-01
      1.1485229824723908e-01 -1.1918552123383803e+00
      1.0973015003916574e-01 5.4931271178996277e-01
      9.0994641473630034e-01 3.4090954609013741e-01
      1.8409867273872413e-01 1.5486770608155775e-01
      -8.7694954746783083e-01 1.0763961139307315e-01
      6.1617438247836470e-02 -1.9269965016200111e-01
      -4.8874309576285491e-01 1.6665224457998293e-01
      3.0632002297323702e-01 9.8278301888543551e-01
      -4.2713769462358436e-01 2.8421716688387599e-01
      -3.5346752502714462e-01 1.3801330734869263e-01
      2.2341609715941013e-01 2.6239905805316777e-01
      9.7651248534344454e-02 7.7879964346135133e-01
      7.9052265683931033e-02 -1.2275439610759513e-01
      3.4845658779012628e-01 -3.8814902806878598e-01
      2.2221706768387279e+00 -5.6101689030252394e-02
      -6.0741505229728465e-01 -5.0698611141602394e-02
      6.9745698146472179e-01 2.7073746417878830e-01
      8.6518807253186836e-02 3.2331340263816138e-01
      8.4082675082249564e-02 -2.3293550380063840e-01
      2.5384584991768596e-02 1.9739440247346421e-01
      6.5730254647736974e-01 9.1441145060320184e-01
      4.7381316688305047e-01 -4.4865655803036580e-01
      5.4380463342293672e-01 -1.0794791162693719e-01
      -4.1422663071118887e-01 -6.2763983209181318e-01
      2.8705971595279850e-01 -4.7914232811361157e-01
      3.5961723618515445e-01 -8.6159830518920133e-01
      1.0977614549285281e-01 -8.6628008642336429e-01
      -1.2124376114035472e-01 -5.6918150229344144e-01
      -2.0222343059201404e-02 -3.3752277628951843e-01
      -2.5472556489593595e-01 -1.7178212561397349e-01
      6.0354281498408235e-01 1.5329570808718742e+00
      -7.7590710098436078e-01 -3.9911105641597666e-01
      -3.4615294953638748e-01 7.4431731172076365e-01
      -5.6303920266521437e-02 4.3638253144443452e-02
      5.1980090777004273e-01 -8.2220073937907742e-02
      3.4237137974795068e-01 6.3434623143274071e-01
      -2.3372668621335749e-01 8.9648709430102869e-01
      3.4083090076734907e-01 8.1484439647544382e-01
      -5.9723733970375958e-01 -1.3762312569398108e-01
      5.1951891608438050e-01 -1.3576365695574499e-02
      -3.9381575586010970e-01 -7.5490038970928386e-01
      -7.1359431737991597e-01 1.1517013202932707e+00
      -4.5811823353066916e-01 9.2382264420809143e-02
      -1.5055814028591358e-01 -7.5326169070020835e-02
      -2.8407423792668413e-01 -1.5646263664545590e-01
      -3.8977007640938943e-01 -1.5583879721175042e-02
      3.9475066906549443e-02 5.2281597665382751e-01
      4.2437936506172641e-01 1.2662584915485750e-01
      1.2973005530001902e-01 4.3468962195546323e-01
      -1.1229216609560371e+00 -3.3652179813763033e-01
      -1.1649260754667896e+00 3.1564198649971204e-01
      -2.9069465785489745e-01 -1.9284655234591028e-01
      -1.4769964573460162e-01 -2.9068226658799184e-01
      8.5659591944001277e-03 -4.3285415881620125e-02
      1.3516083480096097e-01 3.4112749589807273e-01
      1.2495080553005478e+00 7.5974637043859553e-02
      -1.9444473994782253e-02 1.7072262382601283e-01
      -8.4578277760906262e-02 -4.0236414076507082e-01
      -1.5421852290159860e-01 -8.3536559212911254e-01
      -3.1473578201109159e-01 -4.5429206634196828e-01
      2.2515953181065509e-01 -2.1564309908479135e-01
      -1.1820649938349350e+00 1.6611713106172699e-01
      1.4233811186334785e-01 -1.1355808847928388e-01
      3.0885454598677975e-01 -6.4566035527856020e-03
      -6.9033986811027603e-01 -2.1898474339977353e-01
      -8.4728741556481472e-03 3.8060702385477613e-01
      -2.1246229486744478e-01 7.2344148833581784e-02
      5.8208871986803257e-01 7.2289928642600720e-01
      -1.6556126655672912e-01 1.2868123986878974e-01
      -3.3941811616783185e-01 -2.4343470743223633e-01
      -4.5398898147779854e-01 -8.4971954085635570e-01
      -3.7675370652747192e-01 8.1401366897981692e-02
      -1.1319648240779152e+00 -5.0593082021927482e-01
      8.5815043184689938e-02 -6.9555713202994862e-02
      3.6604936460356918e-01 2.8869000639963094e-01
      -1.4626966479553644e-01 -1.1005873673041548e-01
      -7.3171748015816029e-01 8.3650699661816608e-01
      5.6581049172588138e-01 2.0121775536925340e-01
      1.5342837827533817e-01 2.6387436558127464e-01
      9.8561578383597337e-01 7.0212298476825363e-02
      -3.9936875624197669e-02 3.3324333738586609e-01
      -3.3228059714949146e-02 9.7846410766538383e-01
      -2.0238175070134473e-01 6.4458931313640988e-01
      -1.9812710525044369e-01 3.4970190147527158e-01
      1.8315389216541400e-01 -1.1468460671559848e+00
      -5.0443929380875352e-01 9.6081681025246071e-02
      9.5490302300141522e-02 -7.8250551649495778e-02
      2.6415508046216346e-01 1.4020769060309411e-02
      -2.1158417160461529e-01 -2.3354585148788937e-01
      3.7248946689030743e-01 -7.0105390349839869e-01
      4.6712165686646645e-01 -8.9106293987692387e-01
      -4.3553507239431982e-01 7.5082740786077129e-01
      -1.6232737601196276e-01 -6.0161042114310483e-02
      5.7023401905576265e-01 -6.1054963117526262e-01
      2.6119123868188365e-01 -3.7162863753798536e-01
      -8.8737211849778536e-02 -2.6439911596945961e-02
      -1.5846562341356099e+00 1.3980255697520492e+00
      -1.1515856052954830e-01 -2.7903977301980265e-01
      -9.9314801624212801e-02 6.0368239429785142e-02
      -1.0297162700165376e+00 4.3196099024431567e-01
      8.3724989013770582e-02 -1.4852537495903921e+00
      -1.8299437823861997e-01 1.8770037947303261e-01
      -2.2748274976575003e-01 2.7642761233469365e-01
      3.6427232645717053e-02 4.7215893671304658e-03
      4.8923800154836944e-01 -4.0807828488486075e-01
      -5.9325135876019106e-02 2.6414793349190296e-01
      -2.2337244964167177e-01 -1.4599663459164385e+00
      9.0542638716838331e-01 -1.9584300739696572e-01
      5.8820980042080334e-02 -1.3043203300695888e-01
      4.1327415318127614e-02 9.7424892816490846e-02
      -7.3719709677417811e-02 3.2267658829755730e-01
      -4.4061582028311519e-01 7.8864436157719403e-02
      9.6150756796731268e-02 -2.4647283099362263e-01
      3.2343845532503035e-01 -3.9533737017712976e-02
      1.0357255114378353e-01 -7.6513337363558517e-02
      -5.8597801026684035e-02 -5.7066519859147249e-02
      3.5245721261785062e-01 -5.2497113793641859e-01
      -2.2640926220487742e-01 -2.4543557626320625e-01
      1.5177111628830051e-01 7.5970571543770637e-01
      -1.2173270036662092e+00 2.6404029346365260e-01
      3.7642640835195873e-01 -9.1630826347432609e-02
      -2.0577822552251346e-01 -5.4814350968682996e-03
      1.3183533492289123e-01 9.6132723345658633e-01
      1.7633916628986852e-02 -2.8108646896980294e-01
      1.4782880270383887e+00 3.0063664887429764e-01
      -5.1220059078076652e-01 6.6328955264717115e-01
      5.3965533569715354e-02 6.6930441531013810e-02
      1.7538914743677633e-01 -2.0610154085537713e-01
      1.0989393537772594e+00 -8.4538991753574666e-01
      3.6903203745800292e-02 9.6017666972622401e-02
      -2.6120837945588332e-01 -1.2301923182625987e+00
      1.3670948400431099e-01 -7.9429293575797444e-01
      -1.0901009115036632e-01 9.9551635097428770e-01
      -1.5366135142245596e-01 1.5099105806585766e-01
      -1.8210011213162897e-01 6.7928079806256780e-01
      6.5599761942029255e-01 -2.4592803243659719e-01
      -8.4137282001645764e-03 3.7032567894819553e-03
      2.9831068514241271e-01 3.3468990036048257e-01
      1.1392065342810108e-02 1.7764509610202484e-01
      1.0847070776550856e-01 -2.0637870315510465e-01
      -1.4915876490176019e-01 -6.3990745286320683e-01
      -7.1588581851046562e-01 -3.6186029597786212e-01
      -1.1519718488814822e-01 3.7986374292300273e-01
      -1.0041659284678655e+00 -1.9364999885219603e-01
      -4.4850518556060148e-01 -1.7823540886745662e-01
      7.9173349111984426e-02 3.5014954508144114e-01
      -6.8140360639820222e-02 -1.9765915284325380e-01
      2.1729477649840936e-01 -5.0893808071765245e-01
      4.9170725998402842e-01 -4.7544951723706202e-01
      6.9087125120157167e-01 -9.2524115348285987e-02
      -5.1354758973632453e-01 -4.3584034345135947e-01
      7.2362659119432016e-02 4.0141441024587882e-01
      3.4519924335059543e-01 -8.5683540571585892e-02
      -4.4917044170730902e-01 -7.2515877092451919e-01
      -4.9408141834039915e-01 4.6107666933186964e-01
      3.9411733245560443e-01 8.1544617506072406e-02
      -1.2218377374456547e-01 9.9330212391718720e-01
      -1.9510285458682805e-01 -1.5502472237227811e+00
      -1.0887103676895993e-01 -4.7171108207509616e-01
      -1.9094516083086790e-01 4.7169082527964784e-01
      -3.5568132435413130e-01 -8.9214750113831764e-01
      4.1851962140423171e-01 6.3189871235001971e-02
      -5.8317769310510248e-01 2.8781928270698437e-01
      -7.9678644558700207e-01 -3.6845667572885932e-01
      5.6714594007208304e-02 -2.5027512894071563e-01
      -7.2000143092523783e-01 -5.3219108894587241e-01
      -6.4836695727107574e-01 -1.3444370073145238e+00
      6.7769174483286496e-02 -3.0391909353738734e-02
      3.4761921877304230e-01 -1.1155351323083382e-01
      6.6490134733677830e-01 3.2224148076288284e-01
      -1.0034291962219941e+00 9.6819979754238850e-01
      -9.7662258695839343e-01 -4.1858029110818823e-01
      -8.9993898659878491e-03 8.2076404364276079e-01
      2.2431462420313120e-01 -1.9689011729431199e-01
      -1.2152422171828092e-01 4.3358626251368648e-01
      -4.8828999488364311e-01 1.5671101148869064e+00
      -4.5247670413046226e-02 -5.0690969759901094e-01
      -4.3476842193463971e-01 9.3271052697170592e-02
      -7.9964125608249781e-02 3.9144585896961331e-01
      3.6302991628342729e-01 -1.4786937151627855e-01
      -1.6715280302294233e-01 -3.9420850814765024e-01
      -4.3395583369594193e-01 -8.4227720565716369e-02
      3.4779209451145254e-01 -2.3749457464476612e-01
      -5.5959960551059817e-01 4.8504339741265573e-01
      -5.5580561624269054e-01 -2.1828557157261447e-01
      1.1883428256098824e-01 1.5228972902310173e-01
      1.4915166875112187e-01 -8.9419748923691045e-01
      2.6921061586009998e-01 1.7069199883210348e-01
      -2.6293583977988627e-01 5.5556251224055431e-01
      2.2418279850479184e-01 -3.1184650809208073e-02
      1.6370463182335371e-01 -3.9197477446767753e-01
      -4.4318326330855619e-02 -6.2965429268150586e-01
      2.4655056058779098e-01 5.9453003049789699e-01
      1.9229555344448615e-01 -1.4475493044329921e-01
      -5.0445468607651034e-01 -3.2271793434512147e-01
      4.9229376722773704e-01 2.0126294345292853e-01
      -5.7616833415534627e-02 2.3218342912713613e-01
      1.2808424559899907e+00 3.0652477208780088e-01
      4.8779241207080104e-01 1.3926773733881009e-01
      1.9305240254966288e-01 1.5948416237142545e-02
      -3.3751081704775907e-02 1.0149459158881188e-01
      -3.6217388497653397e-01 1.0142589584514663e+00
      -8.0694717893163223e-02 -2.0818566305665348e-01
      -1.6785155012724381e-01 -7.8572187180157660e-01
      -1.6004858190903992e+00 7.5085466081568616e-02
      5.1082590817459572e-01 1.2084482619590391e+00
      2.7723678264207918e-01 -3.8660477940821175e-01
      -3.5291214687308525e-01 -2.6585288142691427e-01
      -8.9091639038052894e-02 -3.0745293606222673e-01
      3.4161889474860041e-01 2.3363447828139214e-01
      3.8874332574758463e-01 -4.6768947355844498e-01
      1.2528274254424882e-01 -1.1590379358698505e-01
      -8.9746923192733274e-01 4.0160777540719306e-01
      -6.1501389398515516e-01 3.0670283863424813e-01
      5.0088366920006477e-01 -3.3395502515997971e-01
      4.4448352190041990e-01 -7.0332949535036715e-02
      1.9761186388905114e-01 1.8304745574983233e-01
      -1.0033499606869849e+00 3.5305983568495181e-01
      2.0914871876634342e-01 -4.6918075989684511e-02
      -1.7748473949727098e-01 7.5398885664808402e-02
      2.1353004700931072e-01 -4.5516336001604002e-01
      1.9680408421919215e-01 1.3341404910501489e-01
      -2.3647993691064287e-01 -6.8265333419457408e-01
      3.2219629037828657e-01 -7.0730440306455500e-01
      6.6208766673448360e-01 1.1001474146555144e-02
      -2.6935969380777869e-01 -4.6511868139169171e-01
      2.5341097391380341e-01 2.9480620906474256e-02
      -1.5353743889261870e-01 -1.0797912966127774e+00
      4.2446319602905619e-01 -1.6651044250173619e-01
      1.2892792821469437e-01 2.7992984668606524e-01
      -1.0214175813783228e+00 3.6485398351841269e-01
      1.2658246984110341e-01 -4.4801862979049106e-01
      -2.4426366333712457e-01 4.4562091331227738e-02
      3.2911267784392677e-02 3.8664909073342857e-01
      -1.0757851223961132e-01 6.1503689441235403e-02
      -2.5228561876003786e-01 -2.7452460746421392e-01
      1.8914358994227465e+00 -7.8654103081276938e-01
      6.4452402461008418e-02 1.3428779127192475e-01
      -1.4758269162337578e-01 -1.4806582717276546e+00
      -9.2936506936055013e-02 -4.3107446458193799e-01
      3.7185264687061970e-01 -3.4060933691775358e-01
      -5.0739806956441237e-02 -8.9880669376548220e-02
      3.9727568037629574e-01 -1.3130946406159338e+00
      -6.2861871737349612e-02 2.4996380166046470e-02
      -2.5090856025120911e-01 7.5909566343403323e-01
      -1.2676613564083949e-01 -5.5193484111025548e-01
      3.5501774442834068e-02 1.3878071686919162e+00
      -7.2715586074166993e-01 -4.8603953232015473e-01
      3.0022434792257763e-01 -1.7565463139982732e-01
      -3.8631132766718934e-01 3.6774024666629247e-02
      -1.5909748402235496e-01 7.2545741858468260e-01
      5.8571790720389516e-01 -7.9143535727792119e-02
      1.0502178513546057e+00 8.0348933941434464e-01
      -5.2900547181299196e-01 1.6714013925367552e-01
      -4.1914343935822090e-01 -2.0236319943121533e-01
      9.5580693411999360e-02 7.9883739439176080e-02
      -3.0824365476337323e-01 -4.6531964154007394e-01
      8.2709438323451109e-02 -2.9234174345367187e-01
      -4.3642600787433578e-01 1.2003484957558480e-01
      1.0401831614646424e+00 -2.2562246485009022e-01
      -1.0032218497948064e+00 -4.1300360278324327e-01
      4.2660771463943634e-02 3.3491025203658531e-01
      -3.6388661796267269e-01 1.0830625934678144e+00
      1.0219617414239557e-01 3.9303976288867776e-01
      -2.4997844097580096e-01 -1.7311489164926178e-01
      4.7863521971774436e-01 -7.3439427494074749e-01
      3.4246084990313563e-02 -2.8244948716735030e-01
      9.7643034571142387e-02 -2.6374106396752106e-01
      6.4396064136241368e-02 -2.0139554508191040e-01
      3.7835279066897698e-01 -1.8757256972737091e-01
      -6.3844506485819719e-01 6.6270592711679510e-01
      1.4654884289066208e+00 -1.0962469085124962e+00
      9.3316236254556664e-02 -1.4286174395875612e-01
      -1.1509502842201050e-01 -8.4151144948312195e-01
      3.0207179919999078e-01 -7.6548261078813974e-03
      -2.5218564443759245e-01 1.0592748883399508e+00
      -1.5278555048840320e-01 -8.8585067848404503e-02
      6.6008055159789703e-01 -9.0345352056350803e-01
      2.4080913606037604e-02 1.1036122077826506e-01
      2.0511223468070691e-01 -9.2704121404705642e-01
      1.6071206427291887e-01 1.2100306213710927e-02
      2.0742944064590957e-01 -6.4982934859856800e-01
      -2.8726258906371149e-01 4.1865054761314097e-01
      -1.5050642893398566e-01 7.1798132409056636e-02
      1.5250368930112373e-01 8.8927813502505032e-02
      -8.7678145465017329e-02 -5.8581359670826109e-02
      -3.2760134686578353e-02 -1.7036346032203892e-01
      -1.3702016243479598e-01 -1.1622414685816124e-01
      -1.8417442152432859e-01 1.1074733206287282e-01
      -9.7641778018680714e-01 8.5096310081856211e-02
      1.7712110085697949e-01 -1.8683840285715375e-01
      -6.8143113201301495e-02 2.7891456799646636e-01
      -2.9322987595837563e-01 4.5185466048966302e-03
      -2.9806205589799323e-01 -4.7936682036629885e-01
      -5.0546466030488868e-01 -1.1029204476616192e-01
      1.0658983375648612e+00 5.8068495956711041e-01
      -2.0765215134328271e-01 -3.7751451747423687e-01
      -3.3676393727623061e-01 5.6989377922528348e-03
      2.9048675573524230e-01 4.4935360229429228e-01
      -2.6384282153931890e-02 -3.0836541498245353e-02
      -9.8002381821221274e-01 -4.1968429135806251e-01
      -3.1687456827733085e-01 -2.6447051733995702e-01
      -2.2409303077142617e-01 -2.4698089528763809e-01
      -7.7172515540719955e-01 -6.8347384319623339e-01
      -1.9607713699284782e-02 3.9471594513548390e-02
      2.4163764395030224e-01 3.9657163865224644e-02
      4.5735554126643237e-03 9.4514649092316674e-02
      -1.2759845631379904e-01 -6.8056041154220939e-02
      8.5298627511049954e-02 -4.1908662771872673e-01
      -2.2379130889246582e-01 -4.7948947584684282e-01
      1.6303405762557208e-01 3.1921976567865629e-01
      2.0738548227824299e-01 7.8090705508794239e-02
      1.4236334639194137e-01 -9.1672361087401832e-01
      -2.7152558518180708e-01 2.7380283374463865e-01
      -1.8512260686126999e-01 -1.2508203007086677e-01
      -8.4206076272970387e-02 -1.1585124592660234e+00
      3.3070711046639917e-01 8.1379729941534015e-02
      7.8200763984135901e-01 1.1616764680560370e+00
      -3.5191351545290718e-02 1.8243083608297248e-03
      2.3178977722438610e-01 -2.6190398604920714e-02
      -1.0697894423540276e-01 -7.9186345635476024e-02
      6.7055179362097850e-01 -1.4404408926176693e-01
      -4.7466299146562932e-02 4.1934763203649889e-02
      8.5313118530559826e-02 2.8140365568844145e-01
      -2.1136664154649737e-01 -6.7768096060189756e-02
      1.6835565577648123e-01 5.4831345431186584e-01
      1.5333445066664206e-01 1.6636557713722350e-01
      2.9860330793874412e-01 4.0895385909580217e-01
      5.9904997450943298e-01 -7.1081871930955653e-01
      -3.7356395941841380e-01 2.9224213883933703e-01
      -6.7835494066698354e-01 -3.5928759251721960e-02
      6.1452462712581472e-02 -5.9633385224090829e-01
      5.2377259821560836e-02 2.2591318555944112e-01
      -9.8925245785763519e-02 8.8021486710511554e-01
      -3.1058059623432603e-02 -8.0805137277209366e-02
      -3.3150058103656627e-01 -1.6943297333567481e-01
      -3.8141883758500200e-01 -6.4984292774815500e-01
      1.4874446424981963e-01 2.1825872938978194e-01
      2.0447797304414447e-01 1.8729396312918051e-01
      3.0564801604002123e-01 1.5059319539634450e-01
      2.9225848319116243e-01 1.5785789356546974e-02
      3.8652186892709267e-01 -1.4022356737002963e+00
      2.9352069663737101e-01 4.0340779227147261e-01
      -2.9002718723859255e-01 3.7414401296678695e-01
      -1.8465252477693195e-02 3.1799392069958277e-01
      -1.1156076423671220e-01 6.6792292234828243e-01
      -3.2568202370578361e-03 1.7545443882629164e-01
      -1.6220670242867425e+00 -7.7935646929741920e-01
      -1.2111093063433952e-01 1.7612747379894234e-01
      -1.7493861644397476e-01 3.2253227231586706e-01
      2.5642355920249055e-01 -2.4281059200486529e-01
      2.5157621258574220e-01 -5.2445380190549928e-01
      -7.8910934560918267e-01 -3.6716451930365657e-01
      9.1178855288698226e-04 -3.6315551872047752e-01
      1.5153239521397471e-01 8.2400049167342684e-02
      3.9704643856667116e-01 -4.6534104753040223e-01
      6.4221095229907854e-01 6.2401293732539775e-01
      4.6160015435790774e-01 6.2744566718443007e-01
      -2.4315154388769373e-02 6.5188997969595121e-03
      -4.1856868092362753e-01 3.1963867839177823e-01
      1.6717560762042896e-01 4.5364882292875930e-01
      -3.9913768301987063e-01 -2.7854453381737027e-01
      -9.7055362897548306e-02 3.7101154904736200e-01
      4.4626642523560545e-01 6.5557561110546470e-01
      -9.0395877360939958e-01 -5.0083408308421296e-01
      7.3111093356137080e-01 3.0629135756346537e-01
      -1.6290121953985334e-01 -3.5899109867231560e-01
      2.7915357053701401e-01 2.3728706174787253e-02
      -2.6983906158605242e-01 2.1957642504384592e-01
      5.0562761893024166e-01 -2.7243157747796809e-01
      7.7075077312788198e-01 -1.8991152334269686e-02
      -4.3864445445412063e-02 -6.4445902106100128e-01
      1.2591070928902306e+00 -1.2243905533782057e-01
      -9.4733038740019382e-01 -7.2187314628504007e-01
      -2.3785891426626496e-01 1.2882129155658190e-01
      3.3862232039802248e-01 -1.1785350894538696e-01
      2.4387934726735452e-01 1.2104866543831292e+00
      1.3927885332178230e-01 -3.5275168435769705e-01
      5.5268483000130389e-02 5.7543433654307496e-01
      -1.8330001135782181e-01 -8.8342404129279628e-02
      -8.7859718416521582e-01 -3.1659836213027959e-01
      -6.3305548807793643e-01 6.7427720521327161e-01
      -1.1917492405517995e+00 9.8214114623565418e-01
      -1.0941388704696763e-01 6.9058569393591368e-02
      -8.4694209325652872e-02 6.4341446327478524e-01
      5.5631626950628554e-01 -7.7048752942579535e-01
      1.8826044479965331e-01 8.5584948139715789e-01
      -2.9071466309533228e-01 -3.0286579901126987e-01
      -1.0759438156088395e-01 -3.2875671813568980e-01
      -2.6464147555999945e-01 3.3293936294143789e-01
      2.8435697730589982e-01 -2.0461875197587721e-02
      6.7860983793846275e-01 -2.4098611041004117e-01
      -1.0991249732486000e-02 4.0721154582163487e-02
      1.0080922965939574e+00 -2.1525069753341217e-01
      -1.8869881619143483e-01 1.0051653824429102e-01
      1.3784210210611059e-01 1.0030863569110375e-01
      -6.3078874236009808e-01 2.0696804260722812e-01
      3.0695482422078402e-01 7.4303576205417210e-01
      2.2829193605769782e-01 3.2831602838085050e-01
      -4.4185866818505698e-01 1.5589141907888507e-01
      -8.2870182559503547e-01 1.5154776434527462e-01
      2.2919263402190862e-01 1.3280723880397072e-02
      -1.1879815629565151e-01 -7.9636751042330856e-01
      1.8313817679851321e-01 1.4866839526651444e-02
      -1.4658761499296418e+00 7.5948294562576291e-01
      1.8778913941133457e-01 1.8759659656389160e-02
      1.2465925047205184e-01 -5.5663032535474266e-01
      -5.8946328864870967e-01 2.6005144286631049e-01
      9.4888288949569122e-01 4.5491868030866617e-01
      -8.8888820941015800e-02 -1.3727532968379161e-01
      1.0000068669631190e-01 4.9837318412690673e-01
      -1.0443005455670318e+00 5.7096836426827124e-01
      2.0543453813140111e-01 1.4427030430506133e-01
      -1.3468790349595711e-01 8.9664686459475762e-01
      7.7111267228820668e-02 9.4905207285088811e-01
      -1.3703597062602291e-01 -8.5629686050190912e-01
      3.8134207237021157e-03 7.0252080495395164e-02
      2.3280023379953901e-01 2.3644339906642148e-01
      2.8529257530325031e-01 -4.6859914748758350e-02
      -6.4428691688227524e-01 3.2368512849829993e-02
      1.7044349139454029e-01 4.9955057289964816e-01
      3.0361693046823257e-01 3.0845023917547687e-01
      3.9414062988867085e-03 2.2614521639764021e-01
      3.2607901795821975e-01 -1.4286282021828833e-01
      -1.0549226614732626e-01 -1.0338887592197900e-01
      2.0355028486296944e-01 2.4547453860220062e-02
      -1.0165034008952042e-01 1.9262510136665207e-02
      -2.0342800854049753e-01 -6.7123893316278993e-01
      -3.4389655625706661e-01 2.1216170936803691e-01
      -2.4763857501425388e-01 -2.6861918877557395e-01
      -2.1305306911672023e-01 1.8682431772938637e-01
      4.1003347746410912e-01 5.6458283285460348e-02
      -6.7947253432744004e-01 -2.4313334198786862e-01
      5.9158662027887887e-01 -1.1928212850873643e+00
      1.5158538456407022e-01 1.5829027071053361e-01
      -1.0698287990261317e-01 2.0428649860356837e-01
      -4.2481291953756867e-01 -3.6644792920238228e-01
      2.6586402557447186e-01 -4.5919274571231378e-02
      -2.8447712556992143e-02 -8.1112627806812387e-02
      -5.9712471455222782e-01 -4.7517312909613335e-01
      -7.3540523562060489e-01 -4.6798425565110789e-02
      2.1320282414207626e-02 6.7483642026394497e-01
      4.2474355993472890e-01 -1.3164505494740233e-01
      4.7770841239489870e-01 -1.0182852300773929e-01
      -2.0178101793983114e-01 1.8964899841059948e-01
      3.3935378050414233e-01 -1.6775063163928897e-01
      6.1193375311155929e-01 -1.1864708532157432e-01
      1.1507985603287772e-01 -7.7438734575815171e-01
      -1.5447372884688118e-01 -1.6229272543333281e-01
      2.1556200866525563e-01 1.6695033813364940e-01
      -4.5827564117804011e-02 1.2561487278623679e-01
      3.3941238874787916e-01 -9.9925076985751399e-02
      -9.5743232387336355e-02 -7.0720036071460080e-01
      1.0192470959322872e-01 -1.2614098917685282e-01
      -2.2576630878274823e-01 -4.3644447128037955e-01
      5.4541636059315068e-01 4.0621450459257435e-01
      3.7392011525267260e-01 -8.0109526844164058e-01
      -1.3383440311850928e-01 -6.8192372995137862e-01
      -6.4116216744934318e-03 -1.4345458593059701e-03
      6.6175328098549802e-01 2.0934337495240993e-01
      -1.0426921249135326e-01 2.9408587954244031e-01
      -3.8247592776945433e-01 3.5448739162288190e-01
      -3.6575083808375997e-01 -9.4582301163357294e-02
      -3.4968762508894929e-01 -7.0149005880330506e-01
      -2.5909491540776153e-01 -1.0540482267196256e-01
      1.3193742648392620e-01 -2.8045182357481141e-01
      -6.6621898902157833e-02 1.5658449002719954e-01
      1.1444858206539925e-02 2.1327962379274933e-02
      3.2170571307700978e-02 -5.7509392945915150e-01
      8.2166992541477246e-02 -7.5810910467914595e-03
      1.2288504379014652e-03 -1.6849504720476419e-01
      -3.5474296294760184e-02 2.1388218786856711e-01
      -1.9943172191374556e-01 -3.1973470090555928e-01
      1.5761697242336434e-01 -2.1850048438935812e-01
      -1.0005389390133277e+00 -6.4305100674869120e-01
      2.0495232222845339e-01 -3.3008380803065451e-01
      1.5956709576947604e-02 3.9559500105794598e-01
      -3.7161289485101223e-01 2.2325440947846137e-01
      4.8774759145446556e-01 7.6679779930917669e-01
      -1.6524611311806620e-01 -2.7145549010165082e-01
      1.9121601138872779e-04 -1.0533236924354934e-01
      4.4743068227623034e-01 9.7544848310322219e-01
      -8.7553595152908739e-02 -1.9473939835917456e-01
      1.6060159142341840e-01 7.7364097491556941e-02
      6.0746165209548353e-01 -3.9185912677137669e-01
      -1.6772857190838636e-01 -6.7672698789014374e-01
      3.6807221631573739e-01 -2.6881936144456723e-02
      6.7808444403467324e-02 -5.0475390843136581e-01
      -1.3630861201962968e-01 -2.9189887986388985e-01
      -9.3834123627824029e-01 4.8624232008718954e-01
      3.5754312825601420e-01 4.5078136446035300e-01
      -7.5538302450275918e-01 -2.6680337430263307e-01
      2.2622408524767368e-01 8.1751153828882751e-03
      -2.1075038337897042e-01 7.2330939305614822e-02
      2.7598795764667861e-01 -4.0393250793255266e-02
      -1.3579915701007664e-01 -5.6548280637661541e-01
      -2.9839875231397084e-01 -1.9320220045997816e-01
      2.3799234399426011e-01 5.9981356819546673e-02
      -2.6184666505143911e-01 1.9584245988432469e-01
      2.5152074440360189e-01 -3.1799113802081702e-01
      -2.8318649903814369e-01 -6.8386216710851159e-03
      -2.7125115175134527e-02 -5.4854667401936419e-01
      -1.7312628646216363e-01 1.3031554244735513e-01
      3.4312366331323163e-01 -9.1056797982974683e-02
      3.1982703532265350e-01 -3.5037165078894122e-01
      2.3687733737681613e-01 1.0988781981888099e-01
      -3.2276595051889939e-01 -5.3415883974304257e-01
      -5.6101307222741849e-02 5.0108587219096556e-01
      -1.4267858970877478e-01 4.6575605480167348e-01
      -4.0933250593907849e-01 7.2558652780784028e-01
      -5.6158099164426517e-02 4.5324550160483484e-01
      -5.6062614434988126e-02 -1.2648806968277007e-01
      1.5788628242029895e-01 -1.1208335073101559e-01
      3.9358886032307283e-01 9.8393687105936392e-02
      8.3351527058164315e-02 4.1236345265496896e-02
      8.9332141262172274e-02 9.2509504012421118e-01
      -3.9382383728703846e-01 8.7397268384264493e-01
      -1.2104535784670051e-02 -1.1732309129671060e-01
      -2.3759630538171841e-01 1.7009922424833071e-01
      -3.2956815360585978e-01 8.5034770293330286e-02
      4.1074706380540710e-01 7.1479765341781840e-02
      -2.5273470183734814e-01 -1.5659865347401625e-01
      1.6351406503462029e+00 -5.0842477060967195e-01
      -2.6173066197422962e-01 2.1786728264878424e-01
      6.6858444856923471e-01 -2.3534668872078832e-01
      2.7943201099401616e-01 9.3396003579081466e-01
      -2.4962562231478194e-01 -1.0243800783008068e+00
      -6.0841819606732801e-02 -4.3127386052824412e-01
      -2.1094716195778440e-01 2.6099838609844367e-01
      -1.2303967095745371e-03 2.0668026724883264e-02
      -3.3975775352513615e-01 -6.0556661456684528e-02
      -1.7303419804451614e-01 6.5087583655030895e-02
      -5.0139073348680718e-01 -1.3565342611158038e-01
      6.4153487271600473e-01 -2.4154069855674695e-02
      1.0201419076832130e-01 -8.7259323542501183e-02
      -2.6329722136116074e-01 7.6794222801824186e-02
      3.1474053987243039e-01 4.0190572836922339e-01
      5.4968245976850028e-01 4.5760103651771362e-02
      1.4116780003919860e-01 9.1076905655158358e-02
      1.0010559363439707e-01 -2.7931925714552197e-01
      -8.5382286072879912e-02 -1.6388643938740094e-01
      8.5483779661051348e-02 -3.4666268868416145e-01
      1.7038703316609810e-01 -4.4877512944297859e-01
      1.4687791111891491e-01 -1.6531106067349502e-01
      -2.5074155611786447e-01 -2.2955855138776300e-02
      8.4731151278032446e-01 4.2380479685161893e-01
      -8.4188076918133257e-03 3.3916810723140794e-01
      -5.1983809912032208e-01 -2.0019203793615353e-01
      -4.0616225034451514e-01 1.6854942602794498e-01
      6.1883773346909876e-01 -8.4213050095452657e-02
      -2.9233341785937023e-01 -6.4277039761678523e-01
      -5.6428793785250564e-02 -4.5618823332234487e-01
      -2.7173511822364682e-01 -6.6396395247561357e-01
      -3.7642622997945374e-01 -4.4424558362319200e-01
      -4.7242502502532874e-01 -9.0291419241938897e-01
      4.0346261732098299e-01 5.5710710883415726e-01
      -6.6311257447567815e-02 -2.3521443127450262e-01
      -5.0174365303804358e-01 1.7876103116683348e-01
      -5.5082277816705150e-01 -2.2744049721269660e-01
      2.3005268941605655e-01 1.7331743081099257e-01
      8.5591283097155718e-02 6.6885329415902883e-01
      -1.5727625309326473e-01 9.3487324940108862e-02
      3.0473898914963959e-01 8.9590713850933729e-02
      3.7140049803957592e-01 9.9122840727494194e-02
      3.3926171416221762e-01 1.6449005676911191e-01
      7.1224879698403618e-02 3.3771035158769319e-01
      1.7041345615805889e-01 -3.2669329944907135e-03
      2.5977769760566127e-01 -4.6676588522888487e-02
      2.6228372519223543e-03 -1.5301332459132055e-01
      6.0425680837630946e-01 -1.2091809351366686e-01
      1.1170083746711856e-01 -3.7750277910881913e-01
      8.9910752045630274e-02 2.2921154402370442e-01
      -1.1318054927178330e-01 -1.8373121811961360e-01
      4.0406276250801276e-01 -1.5134693898276105e-01
      4.9640621443817545e-01 1.3982572447829214e-01
      -9.4066266031622237e-01 1.9729889851835497e-01
      8.2917837401486477e-02 -2.4238571440183732e-01
      -3.7921434931383807e-01 1.3469367701586223e+00
      -1.9794429963222065e-01 1.3571933644500835e+00
      -4.1667808681557333e-01 6.1556000283136136e-01
      6.3038073839956033e-01 -1.1025293866639656e-01
      8.5028582840849398e-01 2.8205118335261281e-01
      -5.0365762612891718e-01 1.0151658396082808e-01
      8.3301330260459883e-01 5.7021595062466146e-01
      2.7563800917490844e-01 -2.1922341201601361e-01
      6.8518499913319236e-02 -9.8262807629977814e-02
      -5.9920075747815804e-01 8.0824033995044031e-01
      -9.6701096936430947e-02 -7.0892057738793468e-01
      -4.0421342436942137e-01 -8.7752259252844056e-01
      -4.2433542046405065e-01 -2.4488159940510157e-01
      3.2483112511738077e-02 -3.9104470822190385e-01
      1.5484250385610010e-01 -1.2866504174135528e-02
      -1.2360662272322056e+00 9.9270004745345211e-02
      -1.7481829872298177e-01 5.2026078067845073e-02
      -5.5283461639227938e-01 8.3142188742368450e-01
      -4.0145944313403008e-02 -7.2217178865444888e-03
      6.6431938039750296e-02 -1.0903200429434390e-01
      -2.1971380340684266e-01 -2.8986639648485890e-01
      -7.7454798410502501e-01 -3.4842165582950596e-01
      -5.0281825538636937e-01 1.1717209837424257e-01
      1.3823564349136588e-01 -7.5618834446090785e-02
      3.9305415820693262e-01 9.5220640440145637e-02
      4.7655112422619605e-01 -5.5553656159562714e-01
      1.2920270035730572e-01 1.8746756420391486e-01
      -6.4078490008166611e-01 -4.7513524973473209e-01
      1.6928054603106435e-01 1.4799733239686183e-01
      1.0296665061759330e-02 1.6531352319577283e-01
      -8.0423909100169166e-01 3.1357866662535983e-01
      -3.5084090331146844e-01 -3.1728593372462427e-01
      -1.0358640345358132e-01 -5.6346267284184348e-01
      1.3637480592645757e-01 -4.8450717447617353e-01
      4.1975368342129499e-01 8.5611009244803193e-01
      3.4623685174569280e-01 4.7276154540121795e-02
      4.5585907606406406e-02 -5.7890564559110139e-02
      -2.6786608228472608e-01 -7.3407070184185486e-01
      -4.7314349090660179e-01 1.1292215795873653e-01
      -1.1998136287003643e-01 -1.9557227930871524e-01
      4.9858763796825800e-01 2.1776421021723097e-01
      -5.0667919052275445e-01 -2.4745631326374240e-01
      2.8116181676630836e-01 1.6774732954233465e-01
      -1.8153717591150106e-01 4.2697710734649913e-01
      2.9209363490788429e-02 -8.5691216662619696e-01
      1.7578824245115962e-01 3.4332987432676171e-01
      -2.1177095084567568e-01 2.5242540387401391e-01
      2.7978640711223157e-01 -2.3347218882869705e-01
      -8.5414848708777280e-01 5.7312424758978986e-01
      -6.2406375733744168e-01 1.8906897350108401e-01
      -1.0620813121401296e-01 -1.0185856859361342e+00
      -4.9204729773122591e-01 -3.3578185379280018e-01
      9.4204197571226045e-01 7.2530719934718046e-01
      -4.7341186668255270e-01 3.2559005232589711e-01
      5.3475166318721201e-01 -9.9206847551528654e-01
      -4.8343401693824719e-03 -5.0994859621563937e-01
      -1.2546699646230178e-01 1.6642105763365767e-01
      -1.3429791384476694e-01 2.9387183828947661e-01
      -1.5384702584136556e-01 -2.6918074874940867e-01
      4.1471160547037611e-01 -3.9376016102368683e-02
      -6.8329586911322704e-01 -3.4601136197788020e-02
      2.8059790548926183e-02 1.3054082573756395e-01
      -7.0387004798813185e-02 7.3923951809385866e-02
      1.0562116426544214e-01 -3.5090700031380467e-01
      2.8240091870494949e-01 -4.7783354850624689e-02
      -1.8299300126601775e-01 -3.7750703374154798e-01
      2.6445156281683667e-02 2.8373504575814834e-01
      1.0504246870711533e+00 1.9107985106614900e-01
      -8.7647473060191980e-02 1.5729187101521866e-01
      3.3014546804619005e-01 3.7220158594131980e-01
      -3.6035519069657823e-01 7.6663360040693351e-01
      -3.3534616426383161e-02 -1.8461655157428158e-02
      6.2738534713662331e-01 -3.5347231297655052e-01
      4.0928086989675477e-01 8.1211409367648801e-01
      -8.3358263974076452e-01 -2.8893091494720158e-01
      -3.1959075017696414e-01 4.8629436573524532e-01
      -1.1088557036132475e-01 -4.6572489215900925e-01
      1.4251608096903745e-01 2.1222286618204165e-02
      3.9343466692255989e-02 -1.2401367124220990e-01
      2.4685451075345241e-01 -1.1209446149233941e-01
      -1.0765908098766080e-01 -3.6421704767775043e-01
      2.6048245619775406e-01 -4.4648479154158327e-01
      -1.2242254997100859e+00 -5.0995979921741819e-01
      -3.6450232344668648e-01 1.9579822781131920e-01
      -5.1077396057723079e-01 2.7591149602261278e-01
      -1.0073159367124804e+00 2.3678255573458648e-01
      1.3302445454214423e-01 -2.5443257385591234e-01
      1.2396706846237177e-01 -1.7296700600023013e-01
      -2.8516747379045315e-01 -5.3892978439980033e-01
      9.1417536128801413e-01 1.1429568143917483e+00
      -8.2480693840983776e-01 2.7035170363176614e-01
      7.9794833798543663e-01 -3.8383836833987184e-01
      -3.8659322878591623e-01 1.5820524313650058e-01
      -1.1710518945511712e-03 -1.3444158011484181e-01
      3.5502923768040728e-01 -2.8170915905479277e-01
      -7.3093620975748175e-01 -1.9304024981618495e-01
      -4.2314356725952219e-02 1.5270818492273300e-01
      -6.1047848949671324e-01 -1.0314367013874458e-01
      -1.8135643013100378e-01 -9.9491512526353104e-02
      -1.3598124645627967e-02 7.6341407361884617e-01
      2.7548054278763917e-01 -6.0821355107061448e-01
      -1.8140220633583945e-01 -3.1583650781495709e-01
      4.5899087796932192e-01 -2.7606345504962759e-01
      5.3954258036109659e-01 -1.4301363249416438e-01
      -8.0023638654114482e-01 2.1967988846386127e-01
      -3.9382261463350665e-02 3.6195100845695338e-01
      1.5033192303817969e-01 3.7076142175034230e-02
      -7.8274640892837727e-02 -1.6693727331371541e-01
      1.2093327351379261e-01 -1.9856837889780210e-02
      3.7748410510703267e-01 6.1705237079709485e-01
      -4.0839392713842354e-01 -6.5464630628725795e-01
      -1.2140500621817032e-01 -3.8487245250544387e-02
      -3.6178142104144639e-01 3.4779709012698495e-01
      -2.8334856620781285e-01 -4.6453394054788372e-01
      -1.2423902455435807e+00 2.8706989878110750e-01
      -6.0174431433794445e-02 -6.1398835247754288e-02
      -1.1487836906050537e-01 -2.1528235234383561e-02
      1.4724877236105521e-01 -3.0710693865351840e-01
      2.2970080249459396e-01 1.0284545123687512e+00
      -2.7354244291295127e-01 -6.7857142961329386e-02
      -1.2341034131592694e-01 -1.0742933094608127e+00
      -3.8567322150058175e-02 -5.3626027067507270e-02
      1.5097091741740162e-01 -4.2871774228087572e-01
      -6.2017235809975107e-03 6.9527574327543279e-02
      -2.5801205662346210e-01 -3.1052664059738067e-01
      -5.4159613116525485e-01 -7.4984261563878396e-01
      -6.4795407665061566e-01 3.1201656419948742e-01
      -2.1084066727125506e-01 -2.6773716982734497e-01
      -4.1161316960039313e-01 3.8995089267482830e-01
      -4.2416365425718933e-01 -1.6210887301996318e-01
      -3.8016166015970099e-01 -8.5605302189477817e-02
      3.0834865052855354e-01 -2.2725150453557835e-01
      6.9699093226399764e-02 2.2967387272327812e-02
      -1.7966847184481410e-01 -3.6210289348053204e-02
      -2.6092188101312658e-01 1.7746105150391597e-01
      -6.2511945368108435e-01 -7.1086380135057123e-02
      -6.2982991119296150e-01 -5.1411494765472987e-01
      4.5858595339074321e-01 -1.8898239424539681e-01
      1.2392613862324793e+00 -2.1396157572169097e-01
      -4.4583597546571330e-01 -3.0765437417271602e-01
      4.3805493546253474e-02 5.1108899330052759e-01
      -1.6926618065271021e-01 7.3312129927804459e-01
      3.1005599362607061e-01 6.8002088944001016e-01
      -5.0678234902827600e-02 -6.0867128593437514e-01
      -3.5485672468911972e-01 -7.7606428242178815e-01
      8.2755605119733205e-02 2.3099516646743593e-01
      1.0566328091602933e-01 -1.3610488409415353e-01
      3.0901839937060255e-01 -3.6246613872169701e-02
      2.6391298855022227e-01 9.0331761824552670e-01
      -3.1234263507319626e-01 -1.2248972038223871e+00
      -4.1682073954233179e-01 2.6432764288145675e-02
      -8.4271471647271012e-01 -8.4447023326523118e-01
      -1.0027344403973499e+00 4.3731957515643904e-01
      -3.6157724688947807e-01 1.3968622884637147e+00
      -7.8145876130154612e-01 1.3186422088197366e-01
      4.9873604521971107e-02 -6.7798510164792236e-01
      -4.8420312379304636e-01 1.5112546650346399e-02
      -4.4145629159935257e-01 3.4127779585966705e-01
      -3.7573829149452487e-01 7.0009234482520932e-01
      -8.7009544724480969e-02 -3.6263346336243690e-01
      -4.9590674562513842e-02 3.0458132802643884e-01
      -4.7149563156264018e-01 3.3482136836290716e-01
      -3.8824547676495236e-01 2.6962511220758195e-01
      -7.9694959030435816e-02 -2.4419797583432282e-01
      3.9873804868711998e-01 -3.8144853608653068e-01
      1.1999982029608000e-01 1.1162122391296085e-01
      -1.0265206296042167e-01 3.0970161937928953e-01
      -7.9109504558609300e-01 1.5898209646104702e-01
      -3.1891380577290317e-02 -2.3875792946137309e-01
      -6.3521130187634348e-02 2.1063022774700374e-01
      -1.1578669352010992e-01 1.4508774936937940e-01
      6.1411593115373843e-02 -6.3264053981795421e-01
      -3.0416676346982080e-01 -2.3386454575908364e-01
      2.0842830281333355e-01 -1.4692541993877381e-02
      -1.7586181541237647e-01 -1.7914894858115113e-01
      -1.8452108409080878e-01 -1.0963604900915509e-01
      1.7490282635296125e-01 8.5870300835374599e-02
      1.0637697638096490e+00 1.5348785080168917e-01
      -6.6757796029335936e-01 3.7450358088542343e-02
      -4.9903488132183299e-01 -6.6140233233250878e-01
      -6.2432082968215741e-01 1.7962653368515186e-01
      -2.1260458857199194e-01 -8.1709397818936946e-01
      3.9346139937375735e-01 -1.8694099420692864e-01
      -3.1020644647735807e-01 -8.9978904540050586e-02
      -1.2152470112747335e-01 -8.0682455796426333e-01
      -1.5751813295359166e-01 -1.0308202323284172e+00
      -1.4446629543911588e-01 -1.2554587050322521e+00
      -7.2247041475967566e-01 -5.5996600641527650e-01
      -6.8934337466286055e-01 6.8277474284054840e-01
      -4.7302805554133448e-01 4.3211999646006216e-01
      9.2750161058390124e-02 -3.4226986585087393e-01
      5.2511178953706539e-01 -2.3727287862659310e-01
      9.0027211713781397e-01 2.2119260345390002e-01
      4.7235173839662520e-01 4.5896526326801951e-01
      -4.9781393931493623e-01 -1.6495586838626677e-01
      2.3182355107800720e-01 1.1039122754451693e+00
      6.5454901226929679e-02 1.0535127575839096e-01
      6.6466523147241419e-01 7.7560602997225989e-02
      -1.0706652709523924e-01 -6.2311322757202040e-02
      6.8919503786804585e-03 4.7474401957871259e-01
      -1.0051705671147099e-01 -4.4110894958892072e-01
      -1.3704031483748816e-01 -1.0402149450808167e-01
      3.7140242177078897e-01 -1.6607796588026832e-01
      -1.8081906205086665e-02 7.7534550245229025e-02
      2.6656713318479828e-02 -3.1525832383581148e-01
      3.3601769108294971e-01 1.7185712665007008e-01
      -2.7059334939135746e-02 5.8665636927602394e-01
      1.4340305920051180e-01 3.9325621065872923e-01
      4.0727917065043640e-01 3.1518889560100988e-01
      3.3168902818513502e-01 -5.6400726589655292e-01
      2.7989426441903831e-01 4.9582420780968101e-01
      1.3838647264002019e-01 -4.2663057856497727e-01
      4.5054220883780999e-01 3.9902749940824278e-01
      2.5862464029637983e-01 -4.0474864056588417e-01
      -4.4030782942573432e-01 -5.4806706115879800e-01
      -3.2256429503429544e-02 3.1027320298205735e-01
      -1.6827839083145285e-01 -4.6246293101929647e-01
      -5.0322054188974397e-02 4.3705373217331527e-02
      -2.0101332317939877e-01 -2.9053149887645902e-01
      -2.0094698841515397e-02 7.7110963850565062e-01
      1.4207800924998244e-02 5.9305521485962243e-01
      -6.7112808234686872e-01 2.7476357332315532e-01
      -5.3150947876677879e-01 5.7429924651301711e-01
      3.0264496666717239e-01 -4.6990333731072149e-02
      -6.4246241117121816e-01 -1.3444836668921636e-01
      4.5243361617305300e-02 1.3338261702744170e-01
      -2.0581659175828448e-01 2.3408079215557320e-02
      1.9769455942332184e-01 2.9903033020368602e-01
      -6.9155214768119685e-02 -4.0570098780293506e-01
      -2.5145382556459855e-01 -7.0751940668702260e-02
      -3.4165530785698361e-01 2.8144817647442133e-01
      1.6056831581837214e-01 -1.2754803305695162e-01
      3.3506250167666751e-01 1.9978831483889919e-01
      7.4555702003973800e-03 2.2169154520048151e-01
      5.1468774783649029e-01 -7.5276953417840034e-02
      6.9864080696173303e-01 1.3548191617203967e-01
      -3.0675367381166374e-01 -5.7043617750165687e-01
      1.8278156970943851e-01 -4.7132655323712275e-02
      1.7876237316378679e-01 -3.9963604941681141e-01
      -3.7364383491821812e-01 1.2265570791153574e-01
      -4.3356919335923921e-01 7.9975116259419554e-02
      3.2073090929939518e-01 -1.8591697741256706e-02
      1.9615955063076011e-02 1.7385893352145368e-01
      -6.0488416415574175e-01 8.5995406414720657e-02
      -3.2426213386720792e-01 -1.0429986676029852e-01
      3.0978493802870477e-01 -4.1907382957462286e-01
      -1.0941006381507015e-02 3.5782375054616833e-01
      2.2681342548741631e-01 2.8436522606162318e-01
      6.0463023853109088e-01 -1.1940898946532960e-01
      4.7996902216425712e-02 -7.7646416528882767e-01
      -3.2090691690221790e-01 -6.6275698931000049e-02
      6.0818769868267142e-01 -2.3801180169326649e-01
      -8.1846219174123727e-02 -3.0334494931772732e-01
      1.1488851866216815e-01 4.2330688800937216e-01
      7.8855010142033211e-01 7.0185956495294421e-01
      3.4690842314333441e-02 6.3170255935939301e-01
      -1.2368601079041625e-01 7.2343419206871118e-01
      -7.0882461129497566e-03 4.7478621827633134e-02
      -2.0623199280396798e-01 -5.1593820833163689e-02
      3.0898811803314818e-01 8.0833005945904299e-02
      1.8347571341159238e-01 5.7956292282587840e-01
      -1.0390520606436893e-01 2.3058106100316508e-01
      8.7883424858305881e-01 -5.9217520953203859e-03
      3.4504242353831088e-01 2.2103763296667661e-01
      -5.3347070776503658e-01 -6.8758810993007491e-01
      2.1809971258801122e-01 -1.2179521408947767e-01
      3.3060460105780159e-01 -3.1690146517623413e-01
      3.9961773309124016e-01 2.3936641965650193e-01
      1.6628412090896957e-01 -1.1778435275051764e-01
      -2.0243277727443168e-01 2.7950380463611141e-01
      5.6540752635663383e-01 3.5120926106086608e-01
      -4.4697037556953167e-01 -2.1314392375333385e-01
      3.8334378342019870e-01 5.7523898650759561e-02
      8.5912896814880693e-02 1.0173881155105396e-01
      -3.1385788760095462e-01 -1.7065539432248769e-01
      -2.0292262721073862e-01 4.6685211666255839e-02
      3.2724061656023384e-01 -3.5410478878394375e-01
      1.9334490274415259e-01 -2.1366921058200417e-01
      1.6366130666981921e-01 -7.4351058130613296e-02
      -6.1539602339673816e-01 3.4869440166200383e-01
      -3.0792785715594694e-02 -6.8468008155201332e-01
      6.1967878152376074e-02 -5.6023761425218743e-01
      -2.0990724996461133e-01 1.1781652009880417e-01
      -4.0531399798176765e-01 5.4296603901847063e-01
      -3.7135430100866962e-01 5.0494675048537371e-02
      -2.2017692696098082e-01 2.0302210789846037e-01
      -3.9217941772913767e-02 -6.7923771324224747e-01
      1.1467337284096456e-02 1.1976988401927989e-01
      2.1230228036754598e-01 2.6241031100623265e-02
      1.8309050824870371e-01 -3.7337565778623477e-01
      -4.6453250517814730e-02 -3.8291495644194296e-01
      -5.8809864502419174e-01 6.4006939930155882e-02
      7.8744730254932704e-01 2.6983408784391366e-01
      4.3246428513593660e-01 2.2083056228894074e-01
      4.2250451104482761e-01 -1.4598326380586732e-01
      -3.8389706032490117e-01 1.2517900932322451e-01
      3.0061065280998328e-01 -1.4711501985828113e-01
      -2.8376502461643727e-01 -3.5310448388913318e-01
      4.5277812692102720e-01 -7.7718568906274743e-01
      -2.3825491505332239e-01 6.4916407589318026e-01
      -2.5674740299768892e-02 3.4988781693744775e-01
      2.7791480452075396e-01 2.0018376256346879e-01
      3.1578109844878899e-01 7.2515602504891391e-02
      4.4037019172397072e-02 -2.7562188257243176e-02
      1.2803964496551845e-01 -3.1748066863091084e-01
      -5.3252942345937015e-01 3.2429507945396502e-01
      3.0305445011801024e-01 -1.4132351322274186e-01
      -3.8050976463600467e-01 5.0251405989514879e-02
      2.1146466855880222e-01 -2.1497005998207855e-01
      3.2420531231864369e-01 -4.3075391257103149e-02
      2.0716070119708527e-03 -4.7119736891743663e-01
      7.2319190341435552e-02 -5.3658081660622275e-02
      8.4490406912357496e-01 3.4227887384734235e-01
      2.9391365983683826e-01 -1.7888270637851278e-01
      5.4176788655096542e-01 -9.4102279346884046e-02
      1.8098946221019960e-01 -4.8972081002858475e-01
      -8.4483751685002439e-02 -6.5032099785442787e-01
      -7.5656557529053137e-01 -3.9035306720347340e-01
      -9.4941843373641199e-02 -1.2160290884259134e-01
      -2.3114540742450815e-01 -1.4566773385133533e-01
      -1.0401571250017558e-01 -1.1399883127717154e-01
      8.6795663998105343e-01 9.7873974618001111e-02
      -3.9764977485918968e-01 -1.9898468461457572e-01
      7.4030170176075785e-02 1.1258618708446460e+00
      1.2398746364005360e-01 -1.0644497754375044e+00
      -3.1038129751769061e-01 3.9762448408911338e-01
      -2.4773956335471869e-01 -4.8590504771447074e-01
      7.0399377823084933e-02 3.4346076618202513e-02
      9.4243195704558996e-02 6.2158238429204163e-02
      4.5582762636570762e-01 3.5944623451002677e-01
      -1.2430046526530224e-01 -6.1384881281416370e-01
      1.2004047363058239e-01 -1.2947196794246604e-01
      7.1103433989772966e-02 -4.2766225409866310e-01
      -1.5458699150214344e-01 -4.3689883461057094e-01
      1.3359664299897612e-02 4.0544132555848722e-01
      -8.2557126702679201e-02 3.5846965186909507e-01
      -3.0313043228169728e-01 -1.2646203715227301e-02
      5.4596961606760530e-02 1.5235778458770768e-01
      1.0805983762860119e-01 -3.1168811062570723e-01
      1.3425406147007740e-01 -3.6183540232812383e-01
      6.1911723757560676e-02 -4.1797080579763224e-01
      -1.3591870851355806e-01 -1.0999341748467358e-01
      -4.0954236291563662e-01 1.1014195490587023e-01
      -6.4987213134721666e-02 6.8791587555891473e-02
      2.5763229672546872e-01 -5.8195191196553440e-02
      9.2285036485777816e-01 -2.5454236761891152e-01
      -4.0046709614747322e-01 -1.3285817247684689e-01
      -1.4440262068890730e-01 1.6508746027401347e-01
      5.1083092975740729e-01 -9.5297908802116083e-02
      2.2566188898357648e-01 -4.0862564762466413e-02
      -3.3222055921985305e-01 -2.6279431585431451e-01
      -1.8123095633439062e-01 -4.8348375418372491e-01
      -2.7634139957322995e-01 1.3352376406550484e-01
      -2.5946694272283216e-01 -7.7238971105444559e-02
      -1.4374971702358208e-01 -2.0998912264198979e-01
      -4.4030920108195359e-01 1.7678278944908490e-01
      -4.9119691837906043e-01 3.3565626882045135e-01
      1.0165721422388241e-01 8.4517512044173390e-02
      -1.3879678883822114e-01 -3.2784352889731067e-01
      -2.1184321738231243e-01 -3.3231578933432460e-01
      4.8232990754414773e-01 2.2655147298828282e-02
      -3.4801625674908676e-01 -4.4651241638779549e-01
      -9.0591911408429412e-02 -3.0238327824357525e-01
      6.6956705028272590e-01 3.9812543716411762e-02
      2.0225654792147385e-01 4.7599524193677833e-01
      -3.7357518273152923e-02 4.1157875881803196e-01
      8.7579877204816053e-02 1.3990110463860075e-01
      -3.9554562772727325e-01 3.5742068047864145e-01
      -2.8117274474715703e-01 -6.3293001227297169e-02
      3.1677436020977806e-01 -2.5162922962597539e-01
      -4.0908264535716116e-01 -6.6749427719830445e-01
      9.6092696726729210e-02 -2.9782429239393560e-01
      -2.8352124590610084e-01 1.5141442350582568e-01
      -2.6377760578198382e-02 1.7561794224241342e-01
      2.7901662213903444e-01 3.1160621694764350e-02
      -3.5772563955251191e-01 2.0017844041601154e-01
      3.6289647959451693e-01 -3.8789481257616706e-02
      -3.1587837242064198e-01 -1.7735881440151283e-01
      -4.6779847324444762e-01 7.9671590097406042e-02
      -2.8011538993202056e-01 4.5627289788073505e-01
      1.9365256901363503e-01 -1.8540747362785637e-01
      -3.8776167682748397e-01 3.9551822393904335e-01
      -8.2048011399202336e-01 -2.1786937100571763e-01
      -1.1376931515370630e+00 -3.3674753763717469e-01
      2.1683028281604555e-01 -1.4767023476467150e-01
      -8.0236355449866723e-02 1.8487992773691956e-02
      7.1540587836752004e-02 1.7909120923285740e-01
      3.4125805749586607e-01 -6.7680605546741907e-02
      -4.5191890166416965e-01 3.5296786655158274e-01
      -1.1320064662717624e-01 -1.9018475370583815e-01
      5.7273014244864262e-01 1.1881616513317206e-01
      4.7654907701214183e-01 -8.2362452655303425e-02
      2.6516071688249049e-01 3.3791594718871093e-01
      1.0464274150812773e-01 8.8911024441143571e-02
      -4.3883730327461151e-01 4.8863858130999679e-02
      3.4712680038676801e-02 2.6112682306677970e-01
      3.3815925754281351e-01 3.0394674141901279e-01
      1.2252143351462798e-01 9.9343459554141228e-02
      -3.6399720564298771e-01 2.7232746408973924e-01
      -1.2748936758619864e-01 4.9613845893272260e-03
      -2.5014273609082253e-03 -2.7816329308660270e-01
      7.5070159662300046e-02 6.3196238171775831e-02
      2.3156340030809054e-02 -4.1251697320658115e-01
      3.2475430692592777e-01 -6.7688629263787581e-01
      9.3617176797256063e-02 -7.9100670669335638e-01
      7.9169747849820102e-02 7.4516617762592954e-02
      -2.9612177762801717e-01 -2.2790227248865910e-02
      5.4463892151391158e-01 -3.7648433416478672e-01
      6.7258542032833601e-02 2.9918047583456686e-01
      -3.9795959158768413e-01 -2.6107133528103028e-02
      4.4011967154330556e-01 1.3530850941150982e-01
      1.2032904263953671e-01 -3.4316104314387613e-01
      2.9777974390680295e-01 2.5146271259297213e-02
      3.6810892241975973e-01 -1.1210586658277286e-01
      1.8370007832030766e-01 1.2263850603632000e-01
      7.3640827107052376e-01 1.0342086748008766e-01
      1.0134821820939988e-01 -2.6362599404971754e-01
      -8.5727220704958640e-01 3.3658359853133024e-01
      2.0956497015996073e-01 2.8886681946251325e-01
      -7.1266635994997707e-01 -2.7720064608448380e-01
      1.2913322296844240e-01 -1.1168422079321849e+00
      -9.5247384159698883e-02 -6.9193042862602394e-01
      2.5697768657981662e-01 -1.1425813799689878e-02
      -4.1777361324108406e-02 -3.9096197112491300e-02
      -6.0346393195684989e-03 -6.5976257534393035e-01
      7.6034917825552772e-01 -3.3253559526202081e-01
      5.9563250587707395e-01 -2.7988833705796905e-02
      -4.0940288767058680e-01 -1.0921071846478844e-01
      3.3139240944501591e-01 -9.0352713259491801e-01
      -3.7430213948352810e-02 1.3665257841315476e-01
      1.2190800304825609e-01 4.7427565090512808e-01
      -1.4644560344296242e-01 -3.0154505807743487e-01
      1.7251979034247671e-02 1.7826916275188298e-01
      7.3242450752235133e-01 6.0194341627205092e-02
      2.9225303561263488e-01 -5.7040369875199668e-03
      -2.1724018653287627e-01 -5.2346911348000358e-01
      -4.7193757674629584e-02 1.0001063924016931e-01
      8.6116334541229300e-02 -2.0090606392839230e-02
      4.8146020099163706e-01 5.9239994289897624e-02
      -5.6500628349696158e-01 1.1913045426339376e-01
      2.6246082298971152e-01 -5.0491721479581164e-01
      -2.4554463953060362e-02 -3.4538862320202604e-02
      6.5108096295513418e-01 2.7271530127184651e-01
      -3.2388056627626044e-01 2.7976374214277122e-01
      -1.4301682977009397e-01 3.6250440606548767e-01
      -1.1603095286977608e-01 3.4149793034481246e-01
      -2.6110091121900342e-01 -2.5811584246876709e-02
      -3.6581132287950147e-01 8.4956975380152150e-02
      3.9117320428231200e-01 8.4574403282108634e-02
      3.1629936728441566e-01 2.4704620334927277e-01
      8.8299047154959107e-02 -3.0159553791792998e-01
      -1.1465999065430518e-01 1.8562573193519721e-01
      -3.8766912288560568e-01 -2.9006898734583492e-01
      -2.4409321499982048e-01 -1.7540933489845481e-01
      1.8083546946874118e-01 2.2136339581992942e-01
      3.3861016320944276e-01 5.1360969328035100e-01
      -1.3046268890586879e-01 7.7940590957826392e-02
      -3.7330762227718517e-01 2.1363476040945026e-01
      -1.8077963247734480e-01 -7.1814990584134347e-03
      -2.4208326158032595e-01 -1.8039610913230286e-01
      -8.0966204681139950e-02 -2.1836402471777960e-01
      -4.2267529440060608e-01 -3.1013544762462775e-01
      2.9351898500228790e-01 -3.0649455224874683e-01
      1.0288397465889430e-01 3.0837915050301205e-02
      -1.4205959741315866e-01 -9.2148738791367910e-02
      -2.3434790844068826e-02 -4.9840457149107686e-01
      2.1037930006506139e-01 -3.5785949099361597e-01
      -2.2596625095401388e-01 2.0292626226699656e-01
      -2.5319735949086886e-01 1.5466200727081067e-01
      -3.5967762710077490e-02 2.7565599085149717e-01
      -5.4197802046584209e-01 -7.2511672652058978e-01
      -1.2758088357504433e-02 3.4557844876252314e-01
      5.5256242377815201e-01 -5.0449515809127254e-01
      2.7848245511482356e-01 -1.7608349584534025e-01
      1.5144416470224437e-01 1.0558225920681215e+00
      7.6051540649474580e-01 -4.9797406734363492e-01
      -1.0064354301149230e-01 -5.3905785699464537e-01
      -1.1094043387668924e+00 1.6840490999570765e-01
      1.0965967058458900e-01 2.2822175186668420e-01
      -6.2806573316368597e-01 1.4904507915562440e-01
      -7.2411010911243767e-01 1.1379933541881282e-01
      -2.8651710054693652e-01 -7.5602794524198810e-02
      -8.1839593420882473e-01 -1.5059609749311162e-01
      3.9560128554844431e-01 9.9201525728449189e-02
      2.7615853332957413e-01 -3.3852588039802572e-01
      6.2009657233062461e-02 -2.1504260327532158e-02
      -2.1368893132873321e-01 -6.2584363274062560e-01
      4.3048073166403716e-01 -8.7557847329550201e-02
      1.1153857188954346e-01 2.8858458982328517e-02
      -2.4284003136371729e-01 2.4705527192100674e-02
      -4.1025473878057178e-01 2.5305202965478019e-01
      -1.3171168830797503e-01 -3.5297827434012430e-01
      3.5830034176912517e-01 5.8265030250410299e-01
      9.7484497264163916e-02 -2.8488085095005089e-01
      7.3504441495723410e-02 -1.0799663505357814e-01
      -1.9397226978919949e-01 -1.3682372516361180e-01
      -2.1278956876162197e-01 -2.6917635740085077e-01
      6.4406144246427618e-03 1.6849943871172421e-01
      9.2015989540886869e-02 6.7457125679080532e-01
      -1.9484970512596766e+00 -2.9184301730117268e-01
      -4.9178166672464479e-01 -3.9427008981551609e-01
      -2.0213545278599082e-01 9.4387720101594047e-02
      -3.5858156371134731e-01 -3.6676805558227238e-01
      -1.2675125188421685e-01 -3.0033547203219831e-02
      -5.7473170683166208e-01 -1.4133266094862892e-01
      -3.0326415403730039e-01 -4.6929750717161822e-01
      -1.0928601799970789e-01 3.0782885070881061e-01
      -5.7762820944240356e-01 3.5912172044381019e-01
      4.2647585447039582e-01 4.9328692207623759e-01
      1.5915221551959061e-01 -1.4087552445792345e-01
      9.0301483254417184e-02 7.1658739345522271e-01
      -7.0962608404506000e-01 -1.7444798933711822e-01
      -6.5954588857967025e-02 -2.2533462554085556e-02
      -2.3269223417560204e-02 3.4631965942208041e-02
      -4.4691575321956672e-01 2.9672422194682535e-01
      7.3156189537921712e-01 1.1944832099909188e-01
      4.3968559625206827e-01 -3.0432610679345107e-01
      -6.0105071850537284e-01 7.2221395226992890e-02
      -3.3534186401822363e-01 -2.2221092593966882e-01
      -2.6191572545833586e-01 -1.1725353912482610e+00
      -2.3727168914518379e-01 -2.4139617747333730e-01
      -1.4930281078756866e-01 2.2912507586123496e-01
      2.6457127173977246e-01 1.8578025841221335e-01
      -3.0519823029448584e-01 6.5917450521215493e-01
      -4.7371217342838806e-01 -2.2083550440457814e-01
      2.1022015802943841e-01 2.4367467383839853e-01
      -1.8027064400729861e-01 2.2359636455135129e-01
      5.9511390701156164e-01 4.4675393266424773e-01
      -2.1212138904872546e-01 2.7609728682323537e-01
      8.0240566874279738e-03 -1.2484840299654308e-01
      -7.1742510631793621e-01 6.2533156398721756e-02
      -8.0646073125306317e-01 -6.6804228412715749e-01
      1.6405526596207459e-01 2.6932593686427270e-01
      5.6481186072846168e-01 2.2322419584829828e-01
      6.3856345650586943e-01 -1.3795198928187780e-01
      3.8063659523157743e-03 7.2009198461347262e-02
      1.8155499175208464e-01 3.6028138395657877e-01
      2.2991547483116482e-02 5.7077905724407751e-01
      -1.2798127287456545e-01 2.0124005604240680e-01
      -1.0200680379544436e-02 1.9572986020907782e-01
      4.9049793209269638e-01 -1.8460385019101863e-01
      1.6301035569241110e-01 -1.7052389899111814e-01
      2.3704270124000643e-01 1.2773532548189762e-01
      -2.2990814497081655e-02 -3.7061483480618979e-01
      -2.0991470140651888e-01 2.8065577946092796e-01
      3.0196049856363177e-01 5.2321042619860569e-01
      1.9860165826711779e-01 3.5618060424659988e-02
      -3.1476080103925264e-01 1.9139930430569352e-01
      -1.3251744375163260e-01 -8.8484516833380780e-02
      -5.1546410449954261e-01 5.4353297331120265e-01
      -4.5940532306291171e-01 3.5886647227362761e-01
      5.0824734096308256e-02 1.9466534892784682e-01
      -3.4736988359243007e-02 5.7863124414126624e-02
      6.2652825116126598e-01 2.2611481575516421e-01
      1.5704275107123450e-01 -5.9367967642406183e-01
      -3.0492864797528413e-01 -4.2762081960730024e-02
      3.9811460724358999e-01 -1.7592292074648591e-01
      -8.1624127765900678e-01 3.9896536656139220e-01
      -3.2939062867384722e-01 -9.4862811255019188e-03
      -2.0495544197453403e-01 -1.7461374801152010e-01
      3.2982063656731103e-01 -8.5062642897108320e-01
      3.2079846700729309e-01 3.8566921976887680e-01
      -6.8887827416527736e-01 -4.0415235625511234e-02
      1.4351460343370950e-02 1.1842124382461160e-01
      -8.6654643926995373e-02 5.6813236661039945e-01
      -2.6018922734646915e-01 -3.9643200029398321e-02
      -2.1551077651496869e-01 -2.0573344253041154e-01
      -1.1178147582770280e-01 1.2184255419116398e-02
      6.1033564493682739e-02 -5.7666296526665058e-02
      -7.0576898278360778e-02 1.2709095188652364e+00
      3.8657321956284557e-01 -1.6145792207574491e-01
      1.5965284851593869e-01 3.9083221837785015e-01
      -6.7449665302286771e-02 4.2997800079633330e-01
      -3.8066237379778559e-02 -2.9691100410193572e-01
      -8.0841054854602176e-02 8.5615070518237468e-02
      -2.8987048328545911e-01 7.3882817430418912e-01
      -2.2693100996633894e-01 -8.4995087906932623e-02
      -4.8980022941671753e-01 9.3442732884147978e-02
      -5.4254913305617547e-01 3.8461451710887773e-01
      -1.9864003024192303e-01 -7.0415777368778285e-02
      8.5063739191752710e-02 -2.9672942252583517e-01
      2.7043163666542941e-01 1.6853745137192594e-01
      -4.7958226117821501e-01 6.8933457792917319e-02
      -1.8249206884255675e-01 -2.4867571454764092e-01
      -3.1869952850397558e-02 2.7124568096815549e-01
      8.8267344962363672e-02 -4.4971249211861164e-01
      1.3838621090494707e-01 5.9073617409874962e-02
      1.9147329850044301e-01 1.9723756507143485e-02
      4.4802752400016693e-01 -2.7022493830196415e-01
      1.7212537694489945e-02 9.8756859945968237e-02
      -4.2511851670228562e-01 3.2530762221508613e-01
      6.6588952096432363e-01 -1.1088945232989320e-01
      2.3150849138371421e-01 -3.0056881400172625e-01
      4.2442749340733249e-01 -3.8059570695306039e-01
      3.8200159860450202e-02 2.0007594682915025e-01
      1.8359123468646824e-01 2.4565916201384783e-01
      2.3251929062246598e-02 1.0003723067160658e-01
      -4.8207317855289117e-01 3.1977205039327555e-01
      -1.7312256569553414e-01 4.7597344106081846e-01
      4.0265940893626145e-01 2.3994882899705736e-01
      -9.0973563975888161e-01 -1.2324164558670471e-01
      -5.9797620391420303e-01 1.5313931322001470e-01
      4.6661026321366017e-01 -3.2691985318877759e-01
      -2.0115074427370502e-01 2.2581199700588026e-01
      8.6342391828483009e-02 8.7168435318562137e-02
      1.2310804365667445e-01 -4.7269017023474319e-01
      -1.5445464258402991e-01 -2.6324147147602500e-01
      -4.4808239715510160e-03 1.8320005155359587e-01
      -5.8917534275892802e-01 6.2718497561823544e-02
      6.0183049128698797e-02 -1.4014645237071097e-01
      -6.6991051474035068e-01 -2.7992502255221319e-01
      2.4657436855696838e-01 -2.0993515636437053e-02
      1.0265184435388716e-01 -2.5213997143972361e-01
      2.6402620143715073e-02 -4.6617484574617890e-01
      -7.7465973118440806e-02 1.6321573641324090e-02
      -4.7348884974675270e-01 -4.6239426098298919e-01
      9.3119454930599463e-02 6.0183417752615258e-02
      -9.1452725194979947e-02 -1.8946827586925712e-02
      -1.2307404599126505e-01 3.6038423609094355e-01
      -6.5006016618222828e-01 2.6365728433795116e-01
      3.3708376100534415e-01 2.8955557110928604e-01
      -2.1435657282789081e-02 2.8971828474616806e-01
      -7.0346564314248114e-02 1.9049460241265068e-01
      2.7934584062934947e-01 2.7160402142640716e-01
      3.2252990804676845e-01 9.7811997971358922e-01
      6.3676492237957560e-01 2.2670156764093414e-02
      -4.4188304315193982e-01 1.6357200155301374e-01
      -3.3857316826519029e-01 1.5230997717758948e-01
      -3.9269939362773992e-01 1.7614506721949846e-01
      -1.9249899025063841e-02 3.0463680013527611e-01
      1.7632791598105291e-01 -9.6170094196612502e-02
      2.9800940472780920e-02 -3.1348641659719523e-01
      5.6716123700503607e-01 2.9261469297086534e-01
      -3.5841718599246798e-03 -4.0066970979170602e-01
      1.6923827466253896e-02 -2.9650788978876336e-01
      -1.7786589102334266e-01 -6.7185085833931707e-02
      4.1731957950448967e-01 -3.7942877600668157e-01
      -3.3385272984821836e-02 8.1399401231671303e-02
      -1.9791644185952570e-01 -1.3153880714756969e-01
      1.1545504645218851e-01 -1.7934170339270719e-01
      8.3505325828144364e-02 7.0511634132984913e-01
      -8.3097888506818998e-02 -8.8565645918178365e-02
      -5.4655698251972429e-01 -3.2132926028798398e-03
      4.4917446276433709e-01 4.8632077137778734e-01
      -4.3785399294378885e-01 2.3286636952248452e-01
      -2.2102393098925913e-01 -1.0511085395135679e-01
      5.0042520590318808e-02 -6.0250082591692414e-02
      4.8116512643922116e-01 3.5346129570532664e-01
      3.7189532245764284e-01 4.6477144887024688e-02
      -6.9616372343340993e-01 7.7528100192960736e-01
      1.1341017450827542e-01 6.9843244337446519e-01
      -5.0864475474754001e-01 -7.4241730186108343e-02
      -2.4638771029016643e-01 -4.9915212499874198e-02
      -8.6351427209739803e-02 5.5143023573469019e-01
      5.8412583913598870e-01 3.6522660400777246e-01
      -2.1030005009834662e-01 2.0296523441776664e-02
      3.9827229016338661e-01 1.3522891576045543e-02
      -4.6645599887000810e-01 2.4003397522408551e-03
      3.1022108135216347e-01 2.3847493025406274e-01
      -3.0976396847233295e-01 1.2624882693159811e-01
      -1.3559469932157373e-01 5.2608021469225985e-01
      -1.2131585991427951e-01 -1.3981217344648314e-01
      -6.1811419243376742e-01 -3.1996627609260198e-02
      3.7871368016776297e-01 -4.7084345369519276e-02
      1.4837583453797373e-01 -4.0703372349428280e-01
      -3.9720965306602474e-01 2.8413545818982761e-01
      1.9076253469210130e-01 3.8367431886461073e-01
      -4.0127413804721790e-02 -6.0155447599728651e-01
      -2.0846727740069479e-01 -4.5269850573495624e-01
      -8.6799420204226735e-02 -7.9194258299265363e-01
      1.0785298476605039e-01 1.0575701993176548e-01
      -1.2336349877558782e-01 1.6347788473316509e-02
      8.8335356284545460e-02 5.5490728694197189e-02
      4.8782316244237917e-01 7.4674540618274943e-02
      -5.2963675595412107e-01 -7.1803230820394734e-02
      4.2256999823575440e-02 -1.1710859216634193e+00
      1.8530124330034167e-01 -3.6854660151061303e-01
      4.8658534608447587e-02 5.7567824608641571e-01
      -4.9858073074070980e-01 -4.9878297513183029e-01
      1.1080486625271233e-02 -2.3194198508080077e-01
      -8.8960891789991185e-04 -3.7687415845773459e-01
      6.3160340652194964e-03 1.3030744457655849e-01
      1.3339976704957265e-01 3.1516053170407282e-01
      -5.7483217659500874e-01 -2.4139144518930337e-02
      -3.7629507650361776e-01 7.6901322962944840e-01
      2.8015145872689801e-02 -4.4457787234641921e-01
      -2.2824447750883631e-01 1.3637840345718882e-01
      -2.2891757623629100e-01 -4.7583971073187231e-01
      1.4027173824952327e-01 1.3385426096512615e-01
      1.5282336147746869e-01 -9.5975776186011261e-02
      -4.7198928464738438e-01 -2.2575087148968387e-01
      -1.8726847366700031e-01 3.5965446581777409e-02
      6.0956928332694262e-02 5.3357873621181787e-02
      1.1932990521085700e-01 5.2627549816173971e-02
      -2.3044989578448311e-01 -4.1353228912399420e-01
      -5.6109650978046016e-02 1.3094031630056122e-01
      1.1165451425829576e-01 1.5900669707144974e-01
      -1.5771731876674797e-01 1.6990933764365945e-02
      -9.4520801515385189e-01 -7.5030666896589504e-01
      -1.2917499660237008e-01 6.8990083099868071e-01
      3.2127435472522381e-01 1.0230249544236833e-01
      2.2727875475695658e-01 6.6508619528026347e-01
      8.1432238752628325e-02 -3.5389331183384554e-02
      -5.5292188039796519e-01 1.8804256345483464e-01
      -8.7921224438308854e-02 -1.4153211195730903e-01
      -5.7888743386508679e-01 2.0305802152189265e-01
      3.5878335959434110e-01 2.9005098731989920e-01
      1.3937517895893878e-02 -1.0451515978778339e-01
      -1.3518307193792525e-01 -4.2136270006913085e-01
      1.1457965526202030e+00 -7.3795636993708016e-02
      -3.8349992303859415e-01 -5.3353569381437382e-01
      4.7116312359822103e-02 1.2149800120395510e-01
      1.6914712411710511e-01 5.3472886408548170e-01
      5.4623946220862152e-01 2.0595102417092126e-03
      1.6176585993570639e-01 -3.3737836983882508e-01
      -6.2965999271362164e-02 -3.3060193328195492e-01
      -3.9910884806837188e-01 5.7615158677517722e-02
      2.7991944783419115e-01 1.0929980137577747e-01
      -6.4629965274186463e-02 2.7593088016039552e-01
      -6.9715247181821441e-02 -4.4700374919842967e-02
      1.3984811145994386e-01 -2.3615481953529152e-01
      -4.0187944130122227e-01 1.8069603448092089e-01
      3.0716609351031982e-01 1.9130896221480617e-01
      -4.2811015606179066e-02 -5.7693424681634309e-01
      -4.6114398154694480e-02 8.9276602418781589e-02
      3.9215743861362257e-01 -1.3560831277700169e-01
      1.8479474275904217e-01 2.0432343564584586e-02
      -1.4150174649101599e-01 -1.0699253843056283e-01
      2.4572627458802113e-01 -4.9629926017141429e-01
      -2.8710011617520853e-01 -2.5430029941638699e-01
      5.3254723486093281e-01 -3.3950614164958148e-01
      -2.3805053649447766e-01 -2.3884570267269062e-01
      1.4215045384495534e-01 -1.2948356707945996e-01
      8.7352263779655340e-02 8.5412681764851017e-01
      3.7010839281236585e-01 1.0036842826735344e-01
      -1.9862062050089194e-01 1.9101340990307195e-01
      5.4125320787101916e-02 -6.4358706008567546e-01
      5.8178957767612928e-02 1.1240496903146650e-01
      -5.3084328900062128e-01 -1.9662612729494189e-01
      3.5715156108622892e-01 8.1520696346442922e-01
      -7.7422258733193050e-01 1.8550447255836966e-01
      4.6014251291307162e-01 -8.6356403585767016e-02
      2.2685291712637667e-01 -3.0088594465749841e-01
      5.4337446808124457e-01 3.4763486393628373e-01
      -4.6912656900766508e-01 -8.9643934759327915e-02
      1.4544380538303223e-01 -4.1638072405676080e-01
      -5.3768853631704958e-02 -1.1292940675225963e-01
      1.3386995156540138e-01 2.6293225797517283e-01
      8.9234131090461000e-01 -5.0557203125651806e-01
      1.4153050190369351e-01 8.4068509593775667e-02
      -3.7592205744967733e-01 4.4613784312267268e-01
      2.0869602905627360e-01 -1.4639293046123120e-01
      4.8304362259070616e-02 -5.1564007350903041e-01
      8.6430562275859629e-02 -3.2353602620312943e-01
      -4.7318458113772627e-01 -5.2797278440012640e-02
      -6.4859239681843733e-02 -2.9487872616728766e-01
      -1.0995297650473264e-01 -3.7296883002905251e-01
      -5.6352338578285355e-01 -1.1798791372403790e-02
      6.6751503720834243e-03 5.3179608225238262e-01
      -1.5500517119256071e-01 1.5383690394627736e-01
      2.5627901324551400e-01 -6.0800325373485120e-01
      1.1062408388232868e-01 -3.1899390460456867e-01
      2.5759920098043143e-01 -4.5343890784875052e-01
      -1.7858956924334204e-01 3.0581369454859408e-01
      7.4399731212620113e-02 -3.5969676637622511e-01
      -4.8684397757164899e-01 6.8749003682715204e-01
      4.5504480359087734e-01 4.0928384863116679e-01
      -2.6999585757611616e-01 1.2169683090057042e-01
      -3.5782417358150997e-01 -6.5817377014402989e-02
      6.8494745862067413e-02 3.6642978466537790e-01
      -1.3244083286930569e-01 6.6901369820926695e-03
      -2.7753276163049506e-01 3.6575208581297682e-02
      -2.6679326977176476e-01 2.1679246794813914e-01
      -2.4485497714887103e-01 1.4191820197146776e-01
      5.4304301136605515e-01 -3.8598533867809121e-01
      4.4151385183479702e-01 -5.3349245888379238e-01
      1.1798148992062116e-02 5.6819415417141014e-02
      -2.1551853166971421e-01 -9.8005095477213353e-02
      2.3980051552463566e-01 -2.1489782914463604e-01
      6.3606135321849544e-01 -6.5111679037359571e-01
      2.9967553205584968e-01 6.0692887941478502e-01
      -4.8922766188939637e-01 2.0986107425399961e-01
      4.6180788458476740e-01 5.3597741805384520e-02
      -8.1946938222323684e-02 -1.6947132682167970e-01
      2.5812251679010484e-01 -2.9323254036324625e-01
      -1.2544153520780932e-01 -1.2233739782768968e-01
      2.7605545772785356e-01 2.4175394491416446e-01
      3.6768827554116512e-01 3.3072623189073658e-01
      -5.8701640652523390e-01 -3.3436519297922229e-01
      2.4585841122110844e-01 5.0624371642968535e-01
      -4.2666392255219987e-01 4.2556883930961714e-01
      2.1475754878484934e-01 -1.0106485653643929e-01
      -3.3845321609087520e-01 2.2128610224177253e-02
      -4.5635678963766824e-01 -5.3721516739710817e-01
      -5.4452326667733031e-01 2.6074150630829601e-01
      6.2563597694629092e-01 1.5073982209683473e-01
      -7.0788834817558177e-01 5.7974191818961990e-02
      -1.0208728815639662e-02 -7.3900942297033992e-02
      4.5540078174737771e-02 3.3136887639889084e-01
      -1.3228703060812083e-01 2.1018690735565027e-01
      5.9980031873987150e-01 -2.6810999692110687e-01
      -2.3704411537612946e-01 -4.1516716981605051e-01
      5.5526988051837944e-01 -1.9397532213564794e-01
      -3.2777565334664155e-01 2.5512590257909745e-01
      -5.7373825980457545e-02 -5.1512482114158076e-01
      -1.4740592713283004e-01 -2.7472781112445704e-01
      -1.2920349973076525e-01 -5.9961755869398614e-01
      3.7348680080167562e-01 -2.0057166000076909e-01
      5.7073202220042263e-01 -8.3410578049469886e-02
      -3.0590084439156850e-01 -2.0305384932867276e-02
      -5.8666550976339771e-01 8.0486573632937056e-02
      -3.5003090341410198e-01 1.2735931358965999e-01
      1.4434071213470029e-01 2.2044035331827364e-02
      1.2637601946225842e-03 -3.6204233695484617e-02
      -8.1614412741061321e-03 -5.3569002143446190e-02
      -1.9198275629347419e-02 3.8990576628824647e-01
      -9.4258034083337536e-02 3.6921265172444212e-01
      -2.2652262574515941e-01 -4.9619564802984167e-01
      9.9668751189814686e-01 6.2531535433843932e-01
      5.2297063774268959e-01 1.3257798559495595e-01
      -8.8926907279697498e-01 2.3151953365647138e-01
      -2.1247583558953798e-01 7.3751390759939750e-02
      1.0019076590203331e-01 -7.9605289923832245e-01
      -1.6002855915943637e-01 -1.8743867186760227e-01
      -3.1189615756227296e-01 -5.6326322511386140e-01
      -1.7932757132292557e-01 -8.7872600526068753e-03
      5.5983492488572917e-01 -3.9811739401907444e-02
      -3.3896360379670015e-01 -2.4984599148429484e-02
      8.0438219008831968e-02 -7.6236880450430075e-02
      -1.3791871093250699e-01 -9.5958983674093182e-02
      -2.1734152139344626e-01 1.1646109046662569e-01
      1.6902001948484890e-01 3.9203683948163752e-02
      9.7496580669712257e-02 -1.3714696027339315e-02
      -5.7820373985847132e-05 -1.8273904617032467e-02
      -2.1411362781430621e-01 -8.1851591560529804e-02
      -5.4859043843002542e-01 -8.9799623583264404e-02
      -4.0216386088967210e-01 1.7918192831620558e-01
      3.1973013658342136e-01 1.6003181235721295e-01
      9.7389455960901661e-01 1.0149159044893388e-01
      2.0586878575147402e-01 2.2150773484723493e-02
      3.4362014066972524e-01 -3.7432793874949311e-01
      3.0825279659172167e-01 -2.0778657772707651e-01
      3.4152382974878770e-01 -1.1902677823129228e-01
      3.8800868764912000e-01 -3.6769959787341361e-01
      -4.4540394601811306e-01 6.9967916734923064e-01
      -1.2324240816258090e-01 -1.4499506834330506e-01
      -8.0979065427876310e-03 -7.7550695490644486e-02
      5.0130508752337477e-01 8.5461900944283603e-02
      -5.2957284167869843e-02 -9.5099973054811715e-02
      3.5458896978413806e-01 -2.6472520322622806e-01
      8.9345021625601040e-02 -1.3066067029107614e-01
      -5.0525653289046207e-02 -4.9143557048039888e-01
      -1.4851238691994062e-01 5.5074123549281395e-01
      9.6913392372104681e-02 -2.0876307496614768e-01
      -1.9540783937737113e-02 6.1429589259079043e-02
      -2.3438652441957708e-01 -1.3760767406230989e+00
      2.6805040071175662e-01 -4.1016657227902581e-01
      -1.0832624940842328e+00 7.9933988718450089e-01
      -1.8215194002298193e-01 7.3052577310597300e-01
      2.6331548043496345e-02 -6.4344958054916246e-01
      -1.1414533949492527e+00 -1.6174983079988119e+00
      1.3856655672677647e+00 -2.6124679658670807e-01
      1.1995085150665279e+00 1.8466739695091262e-02
      3.8945770347729475e-01 4.6961667592103401e-01
      -1.6938055809684510e-01 -3.5816935167040648e-01
      6.0576719230257481e-01 9.7159444902614145e-01
      2.0892720259915794e-02 6.5229104854805398e-01
      3.7004811244340791e-01 4.6191790800337534e-01
      4.1158748731571021e-01 -8.8066965367853622e-01
      2.0098817239055516e-01 1.9143575454248712e-01
      -1.4666191544150418e+00 -1.4098680259547033e-01
      3.6319250654114499e-01 -5.5079510854912514e-02
      -3.8685625249372241e-01 -6.7518661329397089e-01
      9.0881447461776432e-01 3.0322589261724808e-01
      4.8676912444746445e-01 -1.0970262116654963e+00
      -5.1221744710871708e-01 -6.1428870428090920e-01
      -5.7062901347878218e-02 1.2509497960081975e-01
      7.5852713488961399e-01 -4.3531924721388793e-01
      1.2702460442551550e-01 7.7071859508918894e-01
      2.6442990844313358e-01 -1.0532818039576328e+00
      -1.9667172992782660e+00 6.6446652948850404e-01
      -6.7479533216088694e-01 8.9654966321060614e-01
      -4.8089557621015383e-02 9.2084473328407523e-01
      3.1187767344660622e-01 7.6422977805166126e-01
      3.1678318596197319e-01 -1.1705473837609532e+00
      -2.8248642016460945e-01 5.9766624209838237e-01
      -1.2760074612281576e+00 8.3035068195643147e-01
      3.1570474744133357e+00 -4.0647359639219510e-01
      3.7596502923191316e-01 -1.6551852969102663e+00
      5.7201646946658480e-01 -1.9091309529674258e-01</_>
    <_>
      -1.7474575787844759e-01 -2.6004255331402176e-01
      -4.0460207303532320e-01 5.3333903835546953e-03
      3.5790364675319236e-02 1.9563810728487948e-02
      2.3577679952954966e-02 1.4970897517723039e-01
      -4.8108771987564031e-01 3.6696394457315873e-01
      -3.5025089828344691e-01 -1.8113725460839403e-01
      1.6507977362614953e-01 1.1597197388816592e-01
      8.4329118410511300e-02 4.2987171556767859e-02
      2.3845794003406445e-01 3.1221874867670024e-03
      1.9186473455233957e-01 1.4141431288778927e-02
      -3.4539527083213489e-01 -2.7196702915658810e-01
      -1.0951854358727110e-01 -8.1998706733657523e-01
      1.3341046948343124e-01 3.2260584392007413e-01
      2.1973723525854544e-01 -3.8714124148652294e-02
      1.2538748577725611e-02 -2.0021412187572149e-01
      -1.3759313519128338e-01 8.1771744463276952e-01
      -3.1816962006527716e-01 -4.7232004364401542e-01
      3.6013173837248019e-01 1.3128023629455313e-01
      2.6085291406947309e-01 7.6859137670945932e-01
      -3.1155194524237109e-02 -1.7979327513488075e-01
      -2.7801332917583932e-01 -2.0173925003847673e-01
      2.6864241964209901e-01 -1.6076387161626016e+00
      9.7437320653500276e-02 -1.1082007634043110e+00
      3.9621635914414538e-01 1.2164168123217654e-01
