<?xml version="1.0"?>
<opencv_storage>
<my_nn type_id="opencv-ml-ann-mlp">
  <layer_sizes type_id="opencv-matrix">
    <rows>1</rows>
    <cols>4</cols>
    <dt>i</dt>
    <data>
      50 200 100 5</data></layer_sizes>
  <activation_function>SIGMOID_SYM</activation_function>
  <f_param1>6.6666666666666663e-01</f_param1>
  <f_param2>1.7159000000000000e+00</f_param2>
  <min_val>-9.4999999999999996e-01</min_val>
  <max_val>9.4999999999999996e-01</max_val>
  <min_val1>-9.7999999999999998e-01</min_val1>
  <max_val1>9.7999999999999998e-01</max_val1>
  <training_params>
    <train_method>BACKPROP</train_method>
    <dw_scale>1.0000000000000000e-03</dw_scale>
    <moment_scale>9.0000000000000002e-01</moment_scale>
    <term_criteria><epsilon>1.1920928955078125e-07</epsilon>
      <iterations>300</iterations></term_criteria></training_params>
  <input_scale>
    2.8161286232030808e-04 -6.4610381364740149e-02
    3.7416682943079428e-04 2.3978863523842078e+00 5.0251401521393668e-04
    -3.9089571646078125e-01 6.5833679790331333e-04
    4.2845235735619069e-01 7.0613636487513369e-04 2.4068322723967430e+00
    8.1404642369680845e-04 2.0858680812783689e-01 8.5435550328204451e-04
    8.4434571492328458e-01 8.9653204955961402e-04 1.1792728876241963e-01
    9.2483954066869948e-04 -3.7516567218494901e-01
    9.6491021786629600e-04 4.0245275790465285e-01 1.0301109349238125e-03
    5.6427610297735731e-01 1.0700921157146947e-03
    -7.2445161926850798e-01 1.0888359563026898e-03
    2.0938529677482842e-01 1.1317591783788702e-03 1.6258679155770700e-01
    1.1528917260138305e-03 3.0345962795424658e-01 1.1957454091564273e-03
    -7.2591748816911106e-01 1.2476005194650629e-03
    -1.0458522812060989e+00 1.2752929952174936e-03
    3.1636210263102671e-01 1.3283734604696727e-03 3.3289527193005697e-01
    1.3766876566137674e-03 -3.4935858136229914e-01
    1.4250124401982919e-03 -1.4836481071373593e-03
    1.4716647734653934e-03 -6.6569256852837844e-01
    1.5051213729785546e-03 3.5043363224203922e-01 1.5494697793800489e-03
    -4.7271454206009186e-02 1.5526730008899139e-03
    -3.7123177767180632e-01 1.5800285222664584e-03
    1.2950971874252268e-01 1.6698612993458256e-03
    -2.6469523359044328e-01 1.6762108799895823e-03
    1.0942056142044303e+00 1.6984607514398012e-03
    -7.4973713653955587e-01 1.7263211742262032e-03
    1.8429027193303482e-01 1.7724523238342013e-03 3.1749408983003324e-01
    1.7983911915900840e-03 -7.4909850161475877e-01
    1.8472134367480812e-03 -2.1605804178495491e-01
    1.9272414415214905e-03 5.1200807621447375e-01 1.9401008913618983e-03
    7.0706246236390574e-02 1.9950961347320966e-03 1.3462273356123475e-01
    1.9709883046225875e-03 8.3141864863197712e-01 2.0207369294880338e-03
    -2.5396036261677640e-01 2.0661349453136263e-03
    -4.0891813138775363e-01 2.1550266310080895e-03
    1.1499632211013364e-01 2.1253893570804885e-03
    -8.9197842595027194e-02 2.1625385105299090e-03
    -9.1333392034087579e-02 2.1591865700182006e-03
    6.3755061983884265e-01 2.2370620339444711e-03
    -2.3726380993895849e-01 2.2361921983112278e-03
    -1.7954635833942101e-01 2.3082011692340193e-03
    -1.0241309757279461e-01 2.3048601121903912e-03
    3.9007005107735593e-01 2.4405703906134604e-03
    -1.4571122707559947e-01 2.4573876835976599e-03
    -5.4668605810412085e-01 2.4639445225870414e-03
    1.5742097855133996e-01</input_scale>
  <output_scale>
    5.2631578947368418e-01 4.9999999999999994e-01 5.2631578947368418e-01
    4.9999999999999994e-01 5.2631578947368418e-01 4.9999999999999994e-01
    5.2631578947368418e-01 4.9999999999999994e-01 5.2631578947368418e-01
    4.9999999999999994e-01</output_scale>
  <inv_output_scale>
    1.8999999999999999e+00 -9.4999999999999996e-01
    1.8999999999999999e+00 -9.4999999999999996e-01
    1.8999999999999999e+00 -9.4999999999999996e-01
    1.8999999999999999e+00 -9.4999999999999996e-01
    1.8999999999999999e+00 -9.4999999999999996e-01</inv_output_scale>
  <weights>
    <_>
      2.3474311762900976e-01 1.1301813664647745e-01
      -7.9648622193639121e-02 2.2541957450374511e-01
      1.1026787286970706e-01 2.8151360460756286e-01
      -7.2483408713560654e-02 2.8212903633860198e-01
      7.2103425202269686e-02 6.2255717031692956e-02
      -8.8727120186591957e-02 1.4482916363105910e-01
      -1.5856489961771164e-01 -2.0298428605064714e-01
      1.2642415351940289e-01 -2.8500699413887515e-01
      -5.6478625245868476e-02 -2.0055150289388193e-01
      -7.6614446333130165e-02 3.2593819827089904e-01
      3.1595308206923356e-01 -1.2013648277574460e-01
      1.1028211197131077e-01 -1.3352197755289488e-01
      5.8131858768991362e-01 3.0732073631447331e-02
      4.0260179253013055e-02 6.1610709492613741e-02
      -7.3075093234060071e-02 -9.3960968906803266e-01
      -1.2636504894553260e+00 1.3584165732511289e-01
      9.6736358914140494e-02 -1.1796712785064244e-02
      -1.0615224196756219e-01 3.1620140442007935e-02
      1.2695864295906342e-01 -2.3898363768397868e-01
      2.4877250535656015e-01 4.3593673511583324e-02
      -4.2349785858011474e-01 -2.0373725595316988e-01
      2.8070683472375912e-01 -3.3563693677574585e-01
      2.3091481634219552e-01 -9.0973469804359872e-02
      -6.4697816722253845e-02 -9.3503801205611070e-01
      -2.0083788581747586e-01 -1.0872363897015142e-02
      2.7951114015285043e-03 1.1527320887705257e-01
      8.0412469707748374e-02 4.5865653538085093e-03
      5.8425173096459559e-01 5.4876359865575076e-02
      -4.3620268631665304e-01 1.5784914118455767e-01
      1.0544711586411402e-01 5.0162515597642829e-02
      -7.3898572551798575e-02 2.7697572262913545e-01
      2.8050735155088652e-01 3.9713714406415601e-01
      1.3082084710268568e-01 2.6199062244207882e-01
      7.0256407776584040e-02 -8.3021660938540243e-02
      -4.2031148094285251e-02 1.7233057138495569e-01
      -1.4643698495888974e-01 4.4569616080510893e-01
      -9.7285162725781991e-03 9.5031206851292557e-02
      -2.5886971934309816e-01 -2.6232201927825843e-01
      1.0234620883953516e-01 -6.7149610546395636e-02
      1.4605937587793680e-01 7.1990057681590794e-02
      -3.3704296424098561e-03 -3.0427694387910681e-01
      -2.1620901316171984e-01 2.1764439564056129e-01
      -1.9828637612373456e-01 -2.1791570752451289e-01
      1.1004730118921320e-01 -1.5812652016304560e-01
      1.8318696541615304e-01 -6.2900078712238017e-02
      2.3350009399258412e-01 -1.7902613111297247e-01
      -2.6970488544681481e-01 1.1187983520422011e+00
      -5.8179464472163922e-01 -1.0378808496318939e-01
      -1.7635783090752297e-01 -5.5235303106885000e-02
      1.5800534406258746e-01 1.5836786083015372e-01
      2.2921730836774162e-02 -4.6259861243078966e-02
      1.0639798711478693e-01 -1.9511136979002239e-01
      1.8266999249060428e-01 -1.7586287485259441e-01
      -8.2778449499728887e-02 -3.6873905796404816e-02
      -3.8048787754438340e-01 -2.8767581671960460e-02
      -4.1830664957224267e-03 3.3088419077652936e-01
      -1.3189952468634389e-01 -1.1236006075121600e-01
      -1.1407382873830564e-01 -2.1196158759696659e-01
      -5.6624766721265714e-02 -3.1188228820348499e-02
      2.1535530790999646e-01 7.9197806601207631e-03
      2.5453697615639365e-01 9.4510750685728384e-01
      -6.0411383722763230e-02 -1.1646335336490370e-01
      5.8874411295171812e-02 2.4422964319734311e-01
      -2.9410437823116814e-01 6.9873245293249356e-02
      -5.5929478197454349e-02 3.2076233326857252e-02
      -8.5730813759838889e-02 7.0610150942731154e-02
      -1.7244667835180835e-01 -2.8981759092681714e-01
      -1.1525045070384684e-02 -6.9469048207526007e-01
      3.5063048036597266e-01 1.2329037442513406e-01
      8.5053787960170518e-02 1.1177462662112406e-01
      1.1016897020561704e-01 -1.0782065489708315e-01
      -4.1648729700075471e-01 2.5794949075857679e-02
      -2.1668930864752863e-02 2.6501100332635352e-01
      2.5227234790450642e-01 1.0675906702998912e-01
      -1.8128921733360057e-01 -1.1528708598097097e-01
      -2.4257325895951136e-02 -1.3815154818619549e-01
      8.9760217226899863e-02 -4.4126285632597302e-02
      -1.6475736906490021e-01 -4.0375119798058895e-01
      1.0347329787546367e-01 3.0385289086525002e-01
      3.2186841421630713e-01 5.3096965455383428e-02
      7.3041869456307973e-02 -4.9925157280889887e-01
      8.6110236967524255e-03 1.4200790930495826e+00
      2.3766887388858144e-02 -8.7477568219349044e-01
      -1.3877482159465557e-01 -9.8591853595889664e-02
      1.3868471646488900e-01 4.8582619043491537e-01
      2.0192230193730859e-01 1.2520260599771349e-01
      -8.9474012787888343e-02 7.1420025955098540e-02
      -1.4303415635589029e-01 3.0402664512633837e-01
      1.8638793433298769e-02 -9.4829213289948672e-02
      4.9123522731803493e-01 4.6928116681457244e-02
      9.2609179565868310e-02 -2.8884301265111123e-01
      -3.5431990632310555e-02 4.1631565263722470e-01
      -1.4738647251827205e-01 -1.1254760827603533e-02
      1.1042883409813531e+00 -2.2275873155980483e-01
      2.9693178423446187e-01 1.5098311675715481e-01
      -6.5890705697413676e-02 -7.4429440511375428e-02
      6.7686393371360148e-02 -9.0709592023676885e-02
      -1.6104334985175986e-01 1.4472433020805708e-03
      1.7674502650211663e-01 1.5229709395293120e-01
      2.1929425747563028e-01 -2.2328401768339579e-01
      1.3338293552414909e-01 3.8413675179476497e-02
      -1.5761299463000278e-01 6.8118780400150028e-02
      -1.4461130276238457e-01 5.6604228876763296e-01
      1.0390710948277595e-02 1.2449034170061149e-02
      8.7070149550574877e-02 -9.9757354802833070e-02
      6.6191797341911829e-02 1.1229224067238293e-02
      7.2241920000782181e-02 8.5755372472541294e-02
      1.1521357562911860e-01 -2.4031637651595997e-01
      8.5314568741679895e-03 -7.2473401420002179e-02
      -1.0795846864259206e-01 -6.2509635982075887e-02
      -1.6421364106362528e+00 4.8998445824926629e-02
      1.5352190582698386e-01 1.7181314212439011e-01
      2.2575066952650924e-01 -5.2358213238961934e-02
      -1.6784876178888514e-01 -7.0401793536009602e-02
      -1.7572968929794913e-01 3.4469569882290041e-01
      3.8877299470837498e-02 2.1966701558463638e-02
      -2.7208873867432034e-03 -2.6733520295479685e-01
      5.3631809115727146e-02 -1.9576916185246923e-01
      -4.3609837007993341e-02 -2.7312974781560813e-02
      -1.7986850224486789e-02 4.6289659960651897e-04
      -7.4674825220459623e-02 -1.0647934112651118e-01
      1.5181211519459070e-01 -1.9500822736499685e-02
      2.1034309152833763e-03 1.1652343141181734e-02
      -6.2795505536623761e-02 1.3222342114928749e+00
      -1.0637549720650576e-01 -1.2854829514620458e-01
      1.3656871474012525e-01 8.4357475853055197e-02
      1.8196662285615943e-02 1.2038269431829011e-01
      1.0387421386505824e-01 -9.6270085095075730e-02
      -3.6251035760904060e-01 2.4055469807619408e-02
      -2.4693331205888586e-01 1.4457114617817732e-01
      1.4722737274883677e-01 3.0084739990043959e-02
      6.9215995395179822e-02 4.9399643430942386e-02
      -7.2614946359131216e-01 1.5255321505768299e-01
      -5.1706025726021503e-02 -5.0967789288354930e-02
      9.0260822273414060e-02 -1.3729391511581490e-01
      -1.1885841317357880e-01 2.9479235025646711e-01
      -1.1258684426967365e-01 6.5906401091969241e-02
      -9.5498208553357142e-03 5.5204784790431838e-02
      1.4649200486232469e-01 2.4391584332896003e-02
      -1.1450760582688860e-01 2.5322061692620579e-01
      -3.7024987710951009e-02 -1.0903689740684180e-01
      -1.1754517146086202e-03 -1.3736432488620387e-01
      -1.1216032622975169e-01 1.4909249941119398e-01
      7.0272820256893034e-02 5.4757388036633199e-03
      1.8558919927666487e-01 2.6092337235935757e-02
      -7.1287499143394523e-02 1.2139455003042152e-01
      -1.0473223924821308e-01 -5.3077113873873226e-02
      -1.2600878544854663e-01 -9.7995393055781643e-02
      9.7416952273303548e-02 2.1649273251605303e-02
      2.6474803824162846e-03 1.7355167133075280e-01
      -3.5588786699410620e-03 -2.6431610157335354e-02
      5.3091219818778145e-02 2.1760746881080073e-01
      1.3929714735567586e-01 6.9386957286010173e-02
      3.8638048047831976e-02 1.6175708319571790e-02
      -2.0905510578990297e-01 -3.7600514605071671e-03
      -8.6037410234575354e-02 5.5148181710095036e-02
      1.2902582888953992e-01 -3.8353084279057544e-02
      -7.9248090360206788e-02 5.2505096338789298e-03
      -1.2861917509893128e-01 -1.5789766586162332e-01
      -6.8981097185200083e-02 -5.0239431709740408e-03
      1.9804315589089176e-02 -1.3319879604044954e-01
      3.9737746656652292e-02 -9.2929066660191240e-02
      -5.4948890285606514e-03 4.1164697912128928e-02
      3.0433458102286184e-03 2.5163461235069756e-01
      1.2463675954923081e-01 8.9902721327254298e-02
      -7.3673429400435164e-01 -5.2199033702506503e-02
      -9.8742805768753217e-02 7.1898803445958226e-02
      5.1922074375057893e-02 -1.8341322037755986e-01
      -5.4244175109195693e-02 1.5645251197079099e-01
      1.9736362094785154e-01 -3.2595571833584177e-04
      -2.7811483103796091e-02 -2.7397727318487674e-02
      -2.8132441941738556e-01 1.3182284130017571e-01
      -7.0468127553853593e-02 6.7776623394744245e-02
      1.6421625083801950e-01 7.9948574334707298e-02
      5.0002985340718557e-02 -1.6292821561123556e-02
      1.5025801328157468e-03 1.5101212139639986e-01
      1.5547256706680534e-01 4.7347392758412203e-02
      -1.8083719342256602e-01 -2.8838955650038211e-03
      5.4175189162200932e-02 1.2738059159305659e-01
      -1.8785156726554500e-01 2.4460062978601893e-01
      3.5223001136281623e-01 -1.4288713700010916e-01
      -3.1354743033153464e-02 -3.3527834797388456e-01
      5.5649833240012398e-03 -3.4143741975309031e-03
      -1.6731119775719064e-01 3.6582889941512503e-01
      -6.9822746642360170e-02 2.5347018887544537e-01
      4.3385961578677870e-02 1.0897966815644036e-01
      -1.7225971338932132e-02 -8.4656450771662090e-02
      5.1197020160656088e-02 2.7213729539257329e-02
      2.0248553057205253e-02 7.7992610261614373e-02
      1.4324488463019638e-01 6.0024831128574332e-02
      3.1220517495777086e-02 1.3251145535132595e-02
      1.5469496133972362e-02 1.3557389785658969e-01
      -2.1142761840867494e-01 1.7931162257458988e-01
      4.2821969903185186e+00 1.2478694582740113e-01
      1.9561879605388818e-01 -1.1983897792155394e-01
      -1.1354413621709053e-01 -1.2844127664881619e-01
      4.0851579542278485e-02 -5.9843233471773505e-02
      -2.9343195456651365e-02 4.1439237635466981e-02
      1.4520457586721813e+00 7.7966760258747644e-02
      2.6709404624832088e-02 -1.1719589293306240e-01
      1.5238163393866505e-01 -4.2554479460821915e-02
      -3.0542925705692902e-02 5.7584554741224106e-02
      1.1095656324486847e-01 4.0455467068549722e-01
      -4.1044327440133171e-02 3.9974700820523193e-02
      4.1931686401908946e-02 9.7167632662468941e-03
      2.2446317855548275e-02 -1.3821081833621535e-02
      -6.4862789512595900e-02 -7.1411435267158041e-02
      4.6475536639719442e-02 -4.0802256767716462e-02
      -8.9548060273636296e-03 -3.8037358976968069e-02
      2.0081976293003505e-02 1.3174175226459195e-01
      2.0657781067554311e+00 -6.2353253335304653e-03
      1.2905030864247153e-02 -5.6733222108744062e-02
      1.4925917685482770e-01 1.5619040820232612e-02
      5.8106458960837874e-02 -5.8423672992965192e-02
      -1.7122894469232021e-02 -3.6353681294802587e-01
      -9.4040124582091011e-01 2.6609124401310347e-02
      -1.5878366411073045e-02 -3.4389726357437228e-02
      -6.9829311329772117e-02 5.5715818869858519e-03
      4.4466255725144198e-02 -3.1360175609023953e-02
      1.1318022406752030e-01 -1.1459559857128665e-03
      -3.4925930254832449e-01 4.4661472023715405e-02
      9.5590531266977856e-03 -4.6739524989068922e-02
      2.1167354268854931e-02 9.9405459185086305e-03
      9.2611807565279747e-03 -4.2473611031298769e-01
      -2.0779404767999353e-02 -8.4001263700731674e-03
      1.2225036080218949e-02 -1.3576103449837241e-02
      1.7945388643510807e-02 5.2785180903470591e-02
      6.5228916576413859e-02 -1.0666966330018887e-01
      -3.8644056502313612e-01 -4.8737257853165607e-03
      5.3379735994975343e-02 -3.5915509046339153e-02
      -4.2061509913238704e-02 1.1572080180171496e-01
      2.3453659470302549e-02 1.7838930195356678e-01
      -3.8373896794787254e-02 -4.0573699421500159e-02
      1.2537146895626228e-02 3.3419350635945186e-02
      9.2515353556279989e-02 8.1236158353188176e-02
      -1.2393527992847141e-02 2.4048615667633977e-01
      -6.2247555442030027e-02 7.0446504234202192e-02
      1.0258204404265696e-03 -8.3705963588800739e-02
      2.9865408423603548e-02 4.7367154229578535e-03
      4.4716883397485335e-02 1.3152012518115290e-02
      -1.7149580430815842e-02 -6.6674262773277837e-03
      -1.1704274447959297e-01 8.8184940897402864e-02
      9.7395532728781608e-03 7.0568581853182460e-02
      3.4579877044090622e-02 -6.3574576477340147e-02
      4.5434270023959958e-02 -3.3214831958922580e-02
      4.9095126021981711e-02 -7.7571754847710020e-02
      1.9565621915087913e-02 -2.4026380865412322e-01
      -1.9099526004905171e-01 -1.8769282209733919e-02
      3.5799466725032467e-03 1.1697010763802746e-02
      5.5861423065673731e-02 -9.9508225162779334e-03
      2.1410540165216142e-03 2.3039256647194476e-02
      3.2960460188369657e-02 -7.2397933936512143e-02
      1.8281527185179659e-02 1.0989665031876756e-02
      8.6595239859382517e-03 1.4677129588431967e-02
      -1.9359359906175863e-01 -7.2991631744677279e-02
      4.7974195250654597e-03 1.1537301408642503e-01
      -1.8184171225277521e-02 2.3408550020322248e-02
      2.9533351187613975e-03 -9.3624584938647740e-02
      -5.3939403126601747e-02 -3.8937106186381631e-02
      2.8856986701843491e-02 1.4667070753274171e-03
      7.2447628461425440e-02 3.4130403227046441e-01
      -4.7047830390777486e-02 9.0514801434606971e-03
      2.6549035557496578e-03 3.3711389194122469e-02
      -9.3966126131048544e-02 -1.2039328195694827e-02
      -4.6476594700332455e-02 9.6539664541640050e-03
      5.5118905212620022e-02 -3.7584382189637458e-02
      -3.0578866066708052e-02 -1.7306547254345536e-01
      -7.6071639893971685e-02 3.8671629798215851e-01
      1.3389645195877542e-01 3.6857364683334774e-02
      -5.3111715201064259e-02 3.1687291535187033e-02
      -6.5148132621299310e-03 -3.0861544066561102e-02
      1.2663510564038080e-01 7.4471247754777550e-02
      -2.2848093904349755e-02 1.1526968902859808e-01
      2.5077737094616454e-01 3.2459475575377761e-02
      -3.1400130833957314e-03 -5.0740402941964691e-02
      -8.3770218527917037e-02 4.4726548740008309e-02
      -8.5948543433697327e-03 1.3637296966323108e-02
      -1.6106879997979121e-01 -1.2441356186663971e-01
      4.8618588149567717e-02 8.8734208030475242e-02
      1.8874213913574353e-01 8.0034604612519503e-02
      -5.0435406863450355e-03 -1.1995196587862786e-01
      -2.5971274262813867e-02 1.5370148519294786e+00
      3.6257090022803411e-02 -4.2867014851273699e-01
      -3.6424132577442411e-02 -1.0108420905162079e+00
      6.6386613245928275e-02 2.4028327894529358e-01
      4.0892076986761221e-02 8.0815554106589277e-02
      -7.2761220849356115e-02 6.8185587919358014e-03
      -3.8598675588645735e-02 2.8865765497264922e-02
      4.6763552263431228e-02 -1.7917438268394745e-02
      -6.3049934792560897e-03 4.2431011469652884e-02
      2.1209821357769353e-03 -1.1348719075149773e-01
      -3.4945240974101496e-02 -6.5381006765212316e-02
      -3.3263222380618532e-02 -4.5968285175607367e-02
      -7.7593906947006608e-01 -1.4233036525592599e-01
      7.1265322944654971e-02 6.2226577966105513e-02
      6.0871980510627784e-03 8.6123787526433446e-02
      2.6426429541615375e-02 5.0789779660403139e-03
      -3.9504107449933518e-02 -4.4915855982923013e-04
      1.2855341485300731e-01 -2.6328573658544019e-02
      -1.1534954850002903e-04 3.3720145107246510e-02
      -2.4366870360627274e-01 1.3077426618161056e-01
      8.3418610683690678e-02 1.0271834592093468e-01
      4.7600203654669111e-02 -4.7153043847354753e-01
      1.6946499694704131e-02 6.3910140161346413e-02
      3.5675407789865173e-03 -2.5044936807991709e-02
      1.4607059974429223e-01 3.3571932746726499e-02
      1.1668733229703816e-01 6.7845087077149493e-02
      5.0715615320786722e-02 -5.8770838640810480e-02
      -1.2533284345054863e-01 -9.5983607810962879e-02
      -8.8688398783265621e-02 6.1138002812582262e-02
      -2.8334667946932304e+00 1.4631680674929964e-01
      1.9940089736869063e-01 2.5769509493289142e-02
      5.5320853941299552e-03 5.7850324921554517e-03
      -1.0038559699011872e-01 3.4274219683092633e-02
      -2.7433025241270805e-02 -1.1413284834948818e-01
      -4.7532160929497674e-01 1.8861506473027850e-02
      4.2181259020545085e-02 -1.8905673250297134e-01
      3.5844120097996340e-02 -8.4142272603699872e-02
      1.6218507132779052e-02 9.5127319765800675e-02
      6.5590731438202529e-02 2.9049651032303996e-02
      -6.1900709933359233e-01 -4.1684664632412945e-02
      9.4484073349561257e-02 1.9176918467965275e-02
      -8.1834373931242183e-02 7.8063677727190760e-03
      -5.9713399919015787e-02 1.0354762089211218e+00
      6.2914812384249286e-02 -1.2170539809904221e-01
      1.6370380426706507e-01 1.3274488889923947e-01
      -9.3528608993733803e-02 2.4276329198027101e-02
      1.0349995355173219e-01 7.3860620909801611e-02
      -1.0041037113675655e+00 -6.5580428806090288e-02
      -2.0609983323900880e-01 2.4927760160925302e-01
      7.7934897541314926e-02 2.7863720860634471e-02
      -2.0566091801361018e-03 3.0790012659161412e-02
      -4.3947149703183980e-01 4.8317263371999389e-02
      7.0403285303373961e-02 5.3648634797465122e-02
      -1.5542544566960720e-02 8.1407039639697591e-03
      3.9456373699599034e-02 1.5234886605233697e-01
      -1.6740611220841048e-01 7.6461369697262329e-03
      8.6897793021736378e-02 -2.2578308499234725e-02
      -1.5405989511314503e-02 -2.9619329509655724e-02
      -8.1619168816102414e-02 4.1408453303858651e-02
      -6.7715058070709752e-02 -5.5056960454818699e-02
      8.7073288536563445e-02 -7.9052109743973573e-02
      -4.0497130087861870e-02 -6.8530402246503724e-03
      4.2114448822052890e-02 -7.6635314348172862e-02
      -2.8551651959791067e-02 -8.5828817683868699e-02
      -1.0790487396442372e-01 7.8128930431687726e-02
      -4.7889361951615146e-02 3.6572020490125295e-01
      -1.0526229314040167e-01 -2.4616586590121632e-03
      3.9878819941656443e-02 -2.8263153006635976e-03
      1.9078545402729928e-02 -5.6876120387588059e-03
      1.3190151353433700e-02 -1.6613844279048863e-02
      7.2054344489937597e-02 8.7210902739739096e-02
      8.0871063434801230e-02 -5.3640457562890098e-02
      2.5831229780786231e-02 -1.0620254096411393e-01
      -2.5801884365631600e-01 -2.5750690219706253e-02
      2.5436764041754097e-02 -9.8705160081173471e-02
      1.1149726617321798e-01 -7.7043649108065923e-02
      -1.5674534845592412e-02 1.1136605981901543e-01
      -6.4340503843916916e-02 -2.8130618530470308e-01
      -7.8099664684917705e-02 -2.1534871501996240e-02
      1.7501213581094105e-02 6.8121667939223640e-01
      6.4982733759491901e-02 -1.2834894581228184e-01
      -8.6181216148705123e-02 6.9281797849956852e-03
      -6.0052496512491532e-02 2.1868465697941916e-01
      1.7324886209869939e-01 1.2511895193187139e-01
      2.4371957345621723e-01 -5.5470386387767813e-03
      1.6588742169173224e-02 -7.6536171425973349e-04
      1.1877069113562287e-01 -4.5948595540827281e-02
      1.7493417529731153e-01 4.3417695551110073e-02
      1.6989217423006658e-01 4.3623471719796067e-02
      4.7983361815938305e-03 1.5365713736161654e-02
      -9.3631584028032913e-02 5.6170995023516274e-02
      -1.0307358561940651e-01 5.5510167149382207e-02
      -1.9464425152546306e-02 5.1086439216234118e-02
      2.0762862479087877e-02 -3.3153649410677478e-02
      1.6688108598782350e-01 -1.1437412688221035e-01
      1.9397890846644522e-01 -3.5210013519427330e-01
      -1.1484446138214727e-01 -4.9477233197130557e-02
      6.5497213494501135e-03 1.1343928122769135e-01
      -9.1213983911578478e-02 2.2162854468247969e-01
      1.3200528630582933e-01 4.4669406348784191e-02
      -3.6876922419486181e-02 4.4293898048723268e-01
      -1.7011055173368880e-01 3.7701535818807980e-01
      6.0610509324329126e-02 -4.4904953060651887e-01
      -6.7136379999894094e-02 9.6560363459259502e-02
      -4.2962345616903139e-02 -6.8746160893055968e-03
      1.6407758075552506e-01 -1.8905226646496012e-01
      4.1379453859046865e-02 3.8395376237817587e-02
      -1.2499242522955489e-01 7.5588860503748467e-02
      2.4341080620935482e-01 4.3598546986187918e-02
      5.3104481542920794e-02 1.2800632061693146e-02
      1.0441553111274800e-01 9.4433976980436818e-02
      -8.0754363976920152e-02 1.7478528744154739e-01
      2.9769017883613600e+00 7.1666977154152489e-02
      -6.5121542371176250e-03 -1.5346329737548392e-01
      -6.7047097375816309e-02 -9.1855427260705586e-02
      5.8771373028326530e-02 -1.2489681413361231e-02
      1.0841319873603568e-02 5.9218280841546504e-02
      7.5330944896889118e-01 1.2978335323110605e-02
      8.9973375490691732e-02 -6.2600570516164411e-02
      -7.5502891613730111e-02 1.9609098968778446e-01
      5.0288958092790388e-02 6.3258285520631605e-02
      1.5227190199484170e-01 2.1000709867115253e-01
      4.9021055372602027e-02 3.7174534640806389e-02
      -8.0924518598927131e-02 2.3550400085309505e-02
      5.2159795151680718e-02 3.5507121712331217e-02
      1.4941438154654686e-02 -2.1625030660799568e-01
      9.3464894979625093e-03 -1.2842302960177890e-01
      -3.2866222727921370e-02 -1.1007141030535235e-01
      3.3601118225430215e-02 -4.3578705719832890e-02
      -1.0042845037762271e+00 1.0760090824700977e-01
      1.6963480990042407e-01 2.9523655360824984e-02
      2.2789118476050935e-01 -6.9535960616651418e-02
      -3.7270994011944433e-02 3.0331536510013770e-02
      1.1283104878353500e-03 7.8166305162655093e-03
      -5.9393951369181541e-01 -5.2362595351523829e-05
      8.2136379180975480e-02 -1.5976401500005932e-01
      6.9237998353683411e-02 -8.9047293048275217e-02
      6.1962498030014593e-02 -8.7733838336696068e-02
      5.6837458548370745e-02 9.2933311679517155e-02
      -8.7582063867758603e-02 -1.8143476727411945e-01
      1.2884831603575385e-02 -2.0386821777076855e-01
      3.0904718879599644e-02 1.4408472928759833e-02
      -1.5547241982657570e-01 -8.5085554908066063e-01
      -1.2716489456708988e-01 -7.8041217478504329e-02
      2.8589330134826799e-02 2.4882979836776665e-02
      8.3579421844796775e-02 1.4139101444804061e-02
      2.8636484716055199e-01 5.1113581334641438e-02
      -3.2430570082425558e-01 4.4338096698073232e-02
      -1.2745287802139063e-01 1.1874960604723897e-01
      -7.7059648030584127e-02 -1.6765820065920720e-01
      1.7135936219625023e-01 9.7117513123743074e-02
      -5.9928796849295607e-01 1.4233492239136025e-01
      3.6969615038201509e-03 -2.4004728492579987e-02
      5.6708721961236018e-02 9.7261189036948220e-02
      -4.1037348318717151e-02 7.7691118265120360e-02
      -2.7904571043074061e-01 7.0073508297916462e-02
      -8.0633374727885149e-02 -5.9403431055300895e-02
      4.4795208660321918e-02 -9.7116656388692296e-02
      2.7257660601962150e-02 7.0684138908536920e-02
      9.8999116136558568e-02 -7.5156539379429538e-02
      1.1986660958963470e-01 1.0761178138856468e-02
      -2.0669710795156704e-01 -3.7748250111082265e-02
      2.1775598184144242e-02 -7.8896214731701303e-02
      -3.5508034144652527e-02 -1.7779023780535855e-01
      -5.8407137981956833e-02 -1.5179506464764758e-01
      -1.7036468738063060e-01 4.6672136281849974e-01
      -9.5038158033969672e-02 -1.0316787509156405e-01
      -3.0675789145385986e-02 -5.4272324581787768e-02
      -5.6418633909286926e-02 7.2186755869986893e-02
      9.0995383768318200e-03 -1.3316343266804448e-01
      1.0416654696187315e-01 9.3087054885514178e-02
      -1.2502132722517743e-02 -8.5974937060137660e-02
      -4.0838669088305975e-02 -4.6851710082608855e-02
      -1.3694389684147529e-01 7.5655005671269704e-02
      -4.9132218564717736e-02 -2.5522282411095670e-01
      -1.2732482008710641e-01 -8.5218057155453178e-03
      4.1700228207568711e-02 3.0695554047834781e-02
      -5.1974805074180098e-02 -8.4702950814847980e-02
      1.9613067508625164e-02 6.1488518726748272e-02
      7.2495339737350797e-02 -7.5509039899642827e-01
      8.6577524646806930e-02 -8.7636158151418106e-02
      2.7773344651517623e-02 -5.1249848150727112e-02
      -4.7076622768763121e-02 1.3459757430381022e-01
      4.3848932780380066e-02 -6.9094454407797809e-02
      2.8678623708133723e-03 3.1261087092886178e-02
      -1.3069299903563011e-01 -2.6567197934760513e-02
      7.0974399287969961e-02 -1.6269535242228275e-01
      5.6881618240354863e-02 8.9388082745066516e-02
      4.3247827772107422e-02 5.1038530227556778e-02
      1.1280360634995229e-01 -5.2703929600348288e-02
      -2.9160882771241509e-01 8.8948778282492286e-03
      6.8712858106101827e-03 -3.2699764353477871e-02
      -3.9636933806269349e-02 3.7740809915269118e-02
      -4.0710721752697078e-03 2.9693496056087568e-02
      1.6188415864187328e-01 1.5115151575488534e-02
      1.9630242782024790e-01 1.2158496853350409e-01
      -1.8441582699670278e-01 -4.4350630111678467e-02
      -1.3217070503315735e-02 1.2201582117903532e-01
      1.2649963637298897e-01 1.4088293863119628e-01
      1.3597933868950479e-01 6.4647729885353097e-02
      1.0846811106952456e-01 5.6776545096390729e-01
      -1.7275986762420883e-01 -3.0000856127984643e-01
      -7.6839024304260081e-02 -4.0044716523219565e-01
      -8.2850899919432078e-02 -5.3771429803094448e-02
      1.4329155984913383e-01 -1.3671140793500739e-02
      -1.9615024984268806e-01 -1.0404165975740416e-01
      1.6707408917018735e-02 1.4130675576211502e-01
      -9.6556661321545084e-02 6.2591006782686864e-02
      2.8106456891516512e-01 -9.8521991083949906e-02
      8.6481442314607346e-02 2.0856354373500756e-03
      1.7922360593499401e-02 -1.2066801442538261e-01
      8.8581122540496542e-03 3.7901529404681479e-02
      2.1225757356990131e+00 -6.0124724322823869e-02
      8.3031537777328704e-02 -6.9080121970377342e-02
      -7.9119929928901059e-02 -1.3506799609263048e-02
      8.1385039887129307e-02 -4.7181179873078218e-02
      -8.3309153270332836e-02 1.3504419353261318e-01
      2.0612404708956461e-01 3.2443482771046799e-02
      -1.6699325201241913e-02 -1.6496878080768260e-01
      5.8745556644097315e-02 -5.5312563034905095e-02
      -5.1462817428313039e-02 9.4397246925037731e-02
      5.8891586510110172e-02 2.2323248220744250e-02
      3.0000776895229533e-02 3.5546996552637829e-02
      3.2379107265932683e-02 -8.3961591908161659e-02
      4.7611151637764595e-02 -4.7499658197739977e-02
      3.1534396377615403e-02 -1.0791018291767424e-01
      3.7035337574061029e-02 1.0094022443149518e-01
      -3.5215631232922345e-02 -7.5674635784316852e-02
      3.2567059811390041e-02 1.9161481313264745e-02
      5.4954030271282306e-01 3.2195308929879284e-02
      9.7067121944405518e-02 3.1182598640710431e-02
      8.5770236888128473e-02 -2.6110251735646101e-02
      1.0918219590050885e-02 -8.9403567750412236e-02
      -2.4547809638046248e-02 -1.6683996415822144e-01
      -5.2585160421984323e-01 -4.2439712681712559e-02
      6.1965268968711740e-02 -1.7667399151704585e-01
      9.8871161749577181e-03 -5.6387908037233918e-02
      5.1104071270289507e-02 5.8557903903204561e-02
      -3.3885640702211411e-03 4.3871702165051173e-02
      3.8074399364326328e-02 -5.5662211556943279e-02
      -1.4006700422379914e-02 -4.0882409867195303e-02
      -2.7457762671868537e-02 4.6990884138090341e-02
      -7.2389875236674908e-02 9.2471822513927882e-01
      4.9703459967445837e-02 -6.6398611961524787e-02
      1.1340322363476549e-01 -4.5311476045695437e-02
      1.1497308789991705e-01 9.0079211639709236e-02
      3.1651085770145644e-02 -1.4418856636691807e-01
      3.5700906205705857e-01 3.9188516446807500e-02
      -6.1877584919290220e-02 7.7133842283101120e-02
      6.0868916007637566e-02 4.2140707966875496e-02
      3.1973960303789781e-02 1.9312842095480312e-01
      -1.2623619036311845e-01 -2.3112454307583567e-02
      3.0877185976668636e-02 2.4864096137881337e-02
      2.5580018385573655e-01 1.5268399597753866e-02
      8.4302760266439635e-03 1.7397209663991431e-01
      -2.5995278030683450e-01 6.0146944008870211e-02
      -1.9405051185778851e-03 -1.0363968463256082e-01
      2.4494320896350473e-02 8.8041370460174709e-04
      1.9827071444472644e-02 5.1648827493349182e-02
      -3.4231223167009994e-02 -2.9122797074848390e-02
      -6.0028907003016829e-02 2.1248312574145920e-02
      5.7120715895939700e-02 9.9349335805831829e-02
      8.9991847455854826e-02 -2.4832599808992849e-02
      4.1586031186780580e-02 -3.6780662422598968e-02
      5.8327897858467259e-02 -2.8092180883278941e-02
      -8.2078917993811257e-02 4.6410177281231202e-02
      -2.0538852260152554e-01 -1.4745472966970369e-02
      8.8705522806839139e-03 2.9257715631576118e-02
      7.4388090433601575e-02 -4.7385099627311758e-02
      3.4769174911482181e-02 6.3008519699365023e-03
      4.2958788553180229e-02 1.1045347355325939e-02
      2.0885659315944480e-02 3.5181889798145329e-02
      5.1728505988556522e-02 6.8975816255476455e-02
      -1.0082220911924367e-01 -5.2744343611027471e-02
      -3.4119297593390455e-02 3.2195417915439298e-02
      4.6882039056034171e-02 4.3134499613086956e-02
      -5.9747788567428503e-02 2.7447888332517278e-02
      -1.4498302557038945e-01 -1.6254876251032246e-01
      1.0563855202873307e-02 -6.9901509519814796e-04
      5.4792334273159771e-02 3.1345149811355438e-01
      4.3278351030698159e-02 -2.5824531547190065e-02
      3.0076094488455905e-03 -7.7957859339988139e-02
      -4.3202179272744078e-02 9.0296045765069069e-02
      3.1179332603379139e-02 -2.0908857758612814e-02
      1.9029165392136482e-01 -4.7283399328996757e-02
      -1.0246849669891286e-01 -4.4416509468417950e-02
      4.5700140112136557e-02 -1.6286109553435041e-02
      -7.2231811290164094e-02 5.3211184485924844e-02
      2.7367886935173041e-02 8.4695212041007134e-02
      -2.6184187042291196e-02 -7.6222242166541932e-03
      1.6882647952078328e-01 8.0758682846886767e-02
      -1.0043371766095923e-04 4.6988141698706173e-02
      1.6692627000791524e-01 6.2569767281000152e-02
      6.6424525197663634e-02 1.2553251113405330e-02
      -6.0710835593167575e-02 5.2718514544781818e-02
      2.4687844503599714e-03 -4.7739893701146778e-02
      -1.1103563286131034e-01 -7.9727256877953526e-02
      6.9344732754315047e-02 6.0921810024960568e-02
      2.2369382068256047e-02 1.8681692384809659e-01
      2.7163713466163288e-02 -2.5725742720064681e-02
      -1.5567046846587232e-02 7.3937347564663047e-01
      -3.0895587259431052e-02 -1.1232644708765695e-02
      -8.2024519815376493e-03 -2.8727656280015351e-01
      -3.3480116422885578e-02 6.0295211451281749e-02
      -7.5171916298938770e-03 5.1327177391974316e-02
      -4.9542344065843118e-02 -8.7674781812903585e-02
      -3.4607742861388818e-02 4.6383003589034105e-02
      3.1215021926517102e-02 -3.6167292882573099e-03
      -5.6054797743629044e-02 -2.4074407773671237e-02
      -1.7431897402209830e-02 2.3977571432747299e-02
      7.7808392835851975e-02 -3.8042700959694548e-01
      -3.8817107610248751e-02 -3.3541936889831703e-02
      -7.8425709753588840e-03 2.7269870025428460e-02
      6.6485716987718602e-02 1.5860005196534164e-02
      -1.0144234641257528e-01 7.7947463660745939e-02
      7.4373731447874708e-02 -6.2465480972147269e-02
      -4.7867266165558087e-02 8.0567954054359320e-02
      4.8975681883272387e-01 -9.2262428211558455e-03
      -9.0726681609931206e-02 2.3186379212367474e-02
      -1.7286898444244403e-01 1.1831476630454335e-01
      1.6252662757959410e-01 -2.5246154973465211e-02
      7.0185576555553270e-02 -7.0187014951156590e-01
      -3.6720177107474085e-02 -6.5976012970643885e-02
      -5.2469724364446288e-02 7.5241923792829304e-02
      9.1675485301018420e-02 -8.4990234287354555e-02
      1.5122107583684369e-01 2.0789630189732407e-02
      1.1479107789251449e-02 1.6203530345825823e-01
      -9.0108249457518230e-03 1.1169334452122924e-02
      1.2414710604933829e-02 -7.9969746941238373e-02
      -6.3973405043441578e-01 2.0710607809005185e-01
      9.2825152600630192e-02 2.6553978820465254e-02
      -4.0417801007560605e-01 3.7291742348784858e-02
      9.8333281927498201e-03 3.2960348500709606e-02
      9.5270297108969018e-02 4.8804004357285719e-01
      6.1462799949812952e-01 -3.9417018925512956e-02
      2.6375925767219716e-02 -4.3869198761872293e-02
      5.9375985239247295e-02 4.7307282780337537e-02
      4.7839156686871116e-02 1.6646261161796924e-01
      3.6269778439595245e-02 1.1590793958233411e-02
      2.5914566759140306e-02 -1.3991328589953236e-01
      -1.2772947342885435e-01 9.1322344035782779e-02
      -9.4032837655455156e-02 4.0089873714002834e-02
      3.1457661669368100e-02 4.0362440838731672e-01
      1.4900507316194456e-01 -4.9122656749809993e-02
      1.2310406467301621e-01 -3.6687069726202545e-02
      -2.1259316512285877e-02 -3.2834799710340049e-02
      -2.3004888346776936e-01 -2.5480272550432930e-02
      5.0999445850012627e-02 -7.7407340852461037e-02
      -9.9435032682865132e-02 1.3163422117726961e-01
      -5.7075518437346789e-02 -1.6846586341517969e-01
      -1.0238699320311961e-01 -1.9313902958917967e-01
      -7.2384667376238776e-02 -1.4411978270778786e-01
      9.0958184856876761e-02 6.8187477859788376e-02
      2.1465139055611392e-02 4.5336495393335570e-02
      1.8874164590004458e-01 -1.4871361464292426e-01
      -2.3981978866189904e-01 1.4812907951173604e-01
      1.2684693437760416e-01 6.9786187254235757e-02
      -1.6757583600857273e-01 -9.0669819460680673e-02
      8.6351329604215047e-03 -1.7070623770560631e-01
      2.1970225695195304e-02 8.6186589018596785e-02
      1.8184633006199982e-01 -4.6679230807153596e-02
      4.6541021233973336e-02 1.8082915810714439e-01
      -2.6242784520022214e-02 -2.8855676795647083e-02
      -1.5781516110536525e-01 -3.3495004986420648e-02
      -1.5173819282435713e-01 6.3009254835403497e-02
      -8.9582410519343299e-04 -6.9356413007281026e-01
      2.2942753146665770e-01 5.0805533965583793e-02
      6.7368173818875790e-02 -1.2791215104195838e-03
      -4.8705315903558401e-02 -9.7268483890317517e-02
      -5.8928968162194471e-02 1.8691721872769753e-04
      4.0845772710123719e-02 2.7864842338268601e-02
      -5.6302918495698323e-02 1.1439788401212266e-02
      4.6230238318777379e-02 -4.2592817322625029e-02
      1.8577865015404157e-01 -3.1975690225122984e-02
      7.9982929439773767e-02 -1.2220568232701330e-01
      -4.3315195317749459e-03 1.7114426761650099e-02
      5.1820703355534944e-02 2.3028737309884548e-01
      -1.3028066806984101e-01 -1.1908254937530201e-01
      -1.2942268684993277e-01 1.7512165756007968e-02
      -1.5033446507387913e-01 9.5391437505150278e-02
      9.3322915090969447e-02 4.2234095932523915e-04
      -3.1749580221360742e-02 -1.4010441279779379e-01
      1.1440599292171023e-01 5.8418805417214961e-02
      6.1817981239901836e-02 3.3319778301393814e-02
      1.5993836028829247e-01 -9.8046806484019700e-02
      2.4762925844884348e-02 3.5102074850412487e-02
      1.6447317557046212e-01 7.3347033179800694e-02
      -9.5000310167888902e-02 5.0985815068213862e-02
      8.1016973405867429e-02 3.9098127295685847e-02
      3.6151675710648937e-02 7.3109989682933516e-02
      4.0600645348561969e-02 5.5151908788061449e-02
      -3.8517178636255082e-02 -1.1433103077949029e-01
      -2.8713564660696536e-02 7.9667550296068698e-03
      5.4283998656458547e-02 1.3996642133761875e-02
      1.9626001966448650e-01 -1.9772651573739908e-01
      1.0209326647313997e-01 -1.1838012980743436e-01
      3.7132615081500171e-03 1.8263223262465675e-01
      5.0297745887088553e-02 -2.6452230719697239e-02
      4.5554167029270107e-02 1.4817434686717054e-02
      -1.2987865152173159e-02 3.3607547773148078e-01
      8.2115238029079940e-02 -3.8593013821798583e-01
      -1.9276178134023142e-01 -5.3739203970173222e-01
      2.2108727071793657e-01 -6.0358176477852998e-01
      -2.6977807874918772e-02 -2.8398126863715195e-01
      -2.5228710143516915e-02 -6.6888430376765015e-03
      -7.1961458301902134e-02 -1.0626287659594766e-01
      9.5197579533544299e-04 -8.9498612752253043e-02
      -1.7350656884472435e-01 6.0695120609451182e-02
      8.1119363937464398e-02 -4.6486280137862261e-02
      -6.1765369772629107e-02 1.7606294057777444e-02
      1.2844340814409369e-01 -2.2382829208943750e-01
      -7.2967692584198782e-03 7.4380956271816692e-02
      1.0477142132355042e+00 -2.1975838347194507e-02
      -1.9148864425357667e-01 -3.5521112067952984e-02
      1.0459558002134673e-02 4.5184926700121981e-02
      4.9939182526240050e-02 2.7312645509321646e-03
      6.6255911608680371e-02 8.0307463110124808e-02
      -2.3090694606209014e-01 -1.1249265905016638e-01
      -1.1194072423375363e-01 7.8970991996843334e-02
      1.7036222826210350e-02 -4.3238478585351417e-02
      -5.7318564254322787e-02 1.0319876790910280e-01
      -1.1516826862256054e-01 6.0641696719509430e-01
      1.1881830412355315e-01 6.3337859905240851e-02
      7.3290380030581456e-02 -5.9616724381459417e-03
      -6.3165162724016538e-02 6.9761643482504715e-02
      -5.8144374584503319e-02 -7.3328502072272775e-02
      3.3837260307157731e-02 -1.2447444277932752e-01
      -5.8039401369693586e-02 -8.3932003423115284e-02
      -9.3202508570477016e-02 -1.0537057344945489e-01
      4.8593359885002541e-01 -3.8194082568397084e-02
      1.6258252019445793e-02 3.2710325417300727e-02
      2.7646559616564620e-01 -4.2782764221854445e-02
      -4.6881053046250155e-02 -7.7046820208528710e-02
      -5.3802558222628832e-02 3.9609957017526717e-02
      5.2437065500523317e-01 5.0211246500319615e-03
      2.2343919401236069e-02 6.5530286303733892e-02
      -7.6866618006092388e-02 1.6105765883708757e-02
      1.4135175277820048e-02 -1.1276456909127919e-01
      -1.3828210993760673e-01 3.1906642990945512e-02
      2.3027970200051084e-01 1.8056846739972440e-01
      1.1183408588892142e-01 -7.0734557755581684e-02
      1.9102611322262854e-02 -5.7686906517830344e-02
      -1.0213091382589152e-02 9.9170188614238097e-01
      -6.0122446404036911e-02 -2.9810404669202553e-02
      -2.5558387532174653e-02 9.4061367475789373e-02
      4.5596941188058786e-02 3.9466971752178802e-02
      2.8756983304370355e-02 1.9073443669801890e-02
      5.1094503669652999e-02 5.6636175536506891e-02
      6.5604903053435498e-02 7.0407389356917677e-02
      2.4203426753243062e-02 1.4831454649705206e-01
      1.6849575621351018e-01 2.0823572709710156e-01
      -1.9597944008832335e-01 1.2392979420222873e-01
      3.3199193347256080e-02 -1.0264912210993574e-01
      1.4729320321077105e-02 -7.6699199368818416e-02
      -1.1039920327822621e-01 3.5925177575192663e-01
      2.2213551387744582e-01 -8.0174783949724757e-02
      -9.4143706116760456e-02 -1.2238746308411433e-01
      8.0889750705253519e-02 5.3787544250868055e-02
      5.5479791701833529e-02 6.5115753994785225e-02
      -1.2002150724968005e-02 -1.4114533635955789e-01
      -1.0891055480006043e-01 2.5641184289199304e-02
      1.4458842648829302e-02 -1.1442443935151966e-01
      5.9241639200490963e-02 -4.2690352677800115e-02
      9.5530798124424735e-02 -6.8169229382152474e-02
      6.9878211095044634e-02 -7.6014987813141408e-02
      -3.6639207244359318e-02 -2.0783192458515876e-01
      -8.7838977831669315e-02 -3.4727913443941563e-02
      -1.1570399763550911e-01 -2.4354938299326213e-02
      5.0339999708588386e-02 8.4085656612561746e-02
      3.3753700588641272e-02 3.8820097742209722e-02
      1.4531410138911840e-02 -6.7656622853837278e-02
      1.0501022186392374e-01 -6.0717750241741475e-02
      -1.3845452340448440e-02 -3.1155906514517134e-02
      -1.8880310819075155e-01 -1.9982300047615382e-02
      -2.5424829363162940e-02 2.8629432159481123e-02
      -4.8311603227787561e-02 -1.2860566039321070e-01
      -7.6837201511204406e-02 -4.8265487913665799e-02
      5.1057357115778718e-02 -7.8576857222092830e-02
      5.4488333951622364e-02 -2.5512766419280668e-02
      1.1904916871463422e-01 -3.2258334734893324e-01
      -6.7541171630868493e-02 -5.6060889199407229e-02
      8.1728441207248495e-02 5.8787631217682768e-02
      -2.5382150127648086e-02 -7.1900059594048405e-03
      2.0526425522331190e-02 6.6245799462700539e-02
      1.2312922320095682e-01 8.5263244815565797e-02
      -3.2196786217154764e-02 6.5146675545429333e-03
      -4.6254873728742443e-02 -1.4046494423099201e-01
      8.4259159162722433e-02 -1.5575149578179948e-02
      4.8031743565048898e-02 4.3128487842882167e-02
      4.5752007909894664e-02 -2.4162855074619061e-02
      -3.7228390202328959e-02 -1.4435318489206318e-03
      -5.4519517244527888e-02 1.3913050961014981e-01
      3.5062848143810282e-01 1.0611818835819964e-03
      -6.7915657133542126e-02 1.5103313594608108e-02
      -1.1654303223652951e-01 -1.3427348724638790e-02
      -1.0793715418291612e-01 -2.0163186865532274e-02
      2.8787658070215685e-02 -1.4304015247610605e-01
      1.5649526794776405e-02 1.1603266597531130e-01
      8.1866138373089148e-02 -4.4409011940851194e-02
      5.8213808554397312e-02 -1.3031149983306325e-01
      -3.4738580946519874e-02 -5.3556154433816439e-01
      1.2576511092506629e-01 2.4240048449625226e-01
      -1.8021514633263225e-01 2.0105077516195233e-01
      2.7012611268683387e-02 4.2002519181423453e-01
      9.9710350088341698e-02 2.9652317940702215e-02
      8.0811470381593503e-02 1.0287630179324531e-01
      -2.7660120837353478e-02 1.3939005585401529e-01
      1.6565870102292785e-02 2.3212344321949529e-02
      -1.2170955568229061e-01 3.4776556570194204e-02
      5.8640407127245969e-02 5.9331727365154699e-02
      -5.1452664238250220e-02 6.4633133586189745e-02
      -1.2538310119111854e-02 -1.4337388265530363e-02
      4.2550399049170973e-01 8.7563177522203217e-02
      1.3273934716766539e-01 2.2457576074084028e-03
      -2.8079168881854136e-02 -7.3461047367929633e-02
      1.6199807338903190e-02 -2.4130001350205914e-02
      -6.2531042795928679e-02 -1.8793498386613049e-02
      9.4371093008151719e-01 7.3696188700792448e-02
      7.0725117768635867e-02 -1.4748816699506287e-01
      -6.8574093381286311e-02 -5.6652220069235183e-03
      4.6395459640064023e-02 -2.7293424233364547e-02
      -6.1142263063220702e-02 9.7340470174026014e-02
      9.6478048873169589e-03 -6.7183312446811666e-02
      4.9387643857893682e-02 6.3946892130988600e-02
      -3.6391667007581362e-02 1.0958179003196178e-02
      1.1732623408850925e-02 2.5638406159271619e-02
      6.5183186400023614e-03 -9.5205994053874615e-02
      -5.6484161096523523e-02 -1.9192272187937665e-02
      -7.3874824278141363e-02 -2.0217615763432792e-01
      6.0114488173188074e-01 6.7041203046315417e-02
      1.6962102372101641e-02 7.1438381221734723e-03
      -7.3343401498214986e-02 3.9946120631438257e-02
      -1.0883077764828671e-02 -3.8144772070421280e-02
      2.4583483263877430e-02 -2.9932248407720080e-01
      -2.4647981909964070e-01 4.3432834521397193e-02
      -6.0863051286702649e-02 1.0583110303787448e-01
      -7.7337150946977476e-02 5.6385108300455795e-02
      2.5173397650285617e-02 1.4279898634842147e-02
      -1.1040808788550689e-01 1.1190623989744995e-02
      -5.3757537780004042e-03 1.4517340113400276e-01
      1.4548771824585379e-02 8.8357233343173108e-02
      -1.0447876886758289e-01 -2.4067886000881868e-02
      6.6526740344871063e-02 6.4624462300575418e-03
      5.9127385427883476e-02 -6.2281221672563974e-02
      1.2002802992309877e-02 4.8821325330117890e-02
      -6.3305037343792739e-02 -2.4108247779793080e-02
      -1.4372932123149873e-01 6.3748750900720727e-02
      4.8275831414719156e-01 -4.4141706473821075e-02
      5.5721357109241157e-02 1.1448240950122970e-01
      -5.2484406949232058e-02 2.6012184041130970e-04
      4.0566376829505341e-02 3.2296469553789897e-02
      1.2608217754960360e-01 6.8481147467232533e-03
      6.2065421177010093e-03 -3.5621314893149215e-02
      -6.4752272880536421e-02 -1.2278183789486856e-01
      1.7451636232701705e-02 1.2760090341422892e-01
      3.9641578098992152e-02 4.9591679869536347e-03
      2.9569983445302008e-02 4.6688230406238519e-02
      -2.4912703177196058e-02 4.4074909733809821e-02
      3.9341933741600166e-02 4.1520101104670602e-02
      3.7453433105206810e-02 2.6083916294604294e-03
      -8.4360211970995226e-03 5.8491593642444840e-03
      3.3183378760377920e-02 2.8652770947281407e-02
      -2.5874260251241860e-02 -6.3601841018492644e-02
      -1.5745651629680512e-02 -8.6035925349357376e-02
      -5.7348787868175551e-02 1.4685226671816669e-02
      8.3670451413365293e-02 3.1062414587007172e-02
      1.5765553471523239e-01 3.6261036985086245e-02
      3.2764775554841995e-02 -2.4312466610973561e-02
      -8.0747641933240095e-03 2.7805096873830690e-02
      -3.5601054415311244e-02 8.1940030535137057e-02
      1.9950219327193538e-02 -4.3251044195240534e-02
      5.9629265379870171e-02 4.3810667726640910e-03
      7.3907539679895504e-03 -1.0011734820777869e-01
      1.4235746979842831e-01 -4.0543024951745527e-02
      6.3128410661739950e-02 3.9106807286787434e-02
      2.3478345040636041e-02 -8.3024169212469953e-02
      -2.8916189037472909e-02 -4.1486391459574959e-02
      2.5390450603856810e-02 -1.1845680949722645e-01
      -6.2059384471030592e-02 7.5347265031986878e-03
      -4.4510954573016848e-02 8.5494917170378815e-01
      -5.3824603665281849e-02 2.8250588310657188e-02
      4.1473272640520760e-02 5.8690093972488123e-02
      4.2762455624731063e-02 -6.8228742092747721e-02
      -1.3355892303565323e-02 1.8035360936086345e-01
      -4.6251435869039757e-02 1.4922230341069435e-02
      7.6639664414628786e-02 3.5526416050181170e-02
      -6.0693611840360970e-02 3.2952585995382527e-01
      -5.8754493133719034e-02 -3.3884572770858434e-02
      2.9744450546082546e-02 -3.1551706691125447e-02
      1.6554104941700037e-02 4.0604885146757830e-03
      9.6257033638875694e-02 4.8273186346616738e-02
      -1.6723862275808560e-01 1.1931177139529126e-01
      6.7603560415352440e-02 -1.9829119975726724e-02
      -5.3304920575380438e-03 -8.9093206208349755e-03
      5.0451379877904153e-03 -6.0968491093071640e-02
      -7.4881365996702323e-02 -1.1864191494294603e-01
      2.2153594926126122e-02 1.6757850400066939e-02
      -4.8305042026492995e-02 3.7154039653598543e-02
      -1.8437245520181580e-01 -8.0601125907951057e-02
      4.8841914007556768e-02 -2.8220548805999942e-02
      3.1748641193716801e-02 1.4495110775452222e-01
      5.7524347563207665e-02 6.6415615535902722e-02
      -3.8745438445550125e-02 -4.7681859603429955e-03
      4.3588468143004759e-02 -2.1468206059122715e-03
      6.4302034143957729e-02 1.5961227140709012e-02
      3.4623367078690889e-02 1.1239964047596822e-01
      3.5143187523272841e-02 2.7743470421184743e-02
      -3.8557230090230064e-02 9.4162770065540150e-02
      -6.6551536338180436e-02 5.4066441721163608e-02
      1.5821043111917191e-02 3.0898477684278766e-02
      -5.5349546453579757e-02 -4.0565206386943548e-01
      2.5241049382093762e-03 7.1882842256390370e-02
      -9.8137821004583747e-01 7.9347616630273288e-02
      -2.4473208003681250e-02 -1.6595032932309621e-02
      9.3039386652186418e-02 8.2635853577827257e-03
      -3.7236519107202055e-02 1.0248637711525577e-01
      6.4829341330740753e-02 9.1426986066378748e-03
      -8.0684654526097277e-01 -5.2604130150705204e-02
      5.6253907901333604e-02 -5.7821084950335694e-02
      5.3603557302525959e-06 -1.0094116993366588e-01
      -8.2679329705549531e-02 6.6755814535947311e-02
      -1.7754868870059112e-01 5.2362566052308734e-01
      1.8319776163487383e-02 1.5806285386664093e-02
      9.1436522435272352e-02 3.7389516251448159e-02
      -1.1233626784168971e-01 -7.6945149831390475e-02
      -4.3936907315619451e-02 1.2824528903960841e-01
      4.7633901560743659e-02 -5.8714710385537770e-03
      4.6742188034160671e-02 3.5493011344416160e-02
      -1.1702003663099396e-02 2.3683187849784335e-02
      1.4265403620030213e+00 -6.5701600739530838e-02
      -5.2213570429496765e-02 7.1285165751614823e-02
      2.3845596787107551e-01 -5.0307256883330806e-02
      -5.6701312139663070e-02 -7.7836074911341049e-02
      -5.7496919560805881e-02 -5.2440583142507435e-01
      3.1286689259390661e-02 -7.8015112650533389e-02
      9.3143488587513999e-03 9.9287999464243631e-02
      -2.6333675319165650e-02 2.8604003542820147e-03
      3.3670195636421422e-02 1.2983773110745219e-02
      -8.3544262269239396e-03 -4.8225293810943995e-02
      4.9355368308719638e-01 2.8223647800480232e-02
      4.5644497562555640e-02 3.2389728251780131e-02
      -2.5682433820654268e-02 1.0826810986546461e-03
      9.0029981323455952e-02 1.1449449267837626e+00
      -3.2491311038430531e-02 -7.7427305492965112e-04
      1.7764221127326910e-02 -6.2537216329009255e-03
      1.2474670538415825e-01 7.9276845171344035e-02
      -1.4349898815191581e-02 -1.3958504064261104e-01
      -3.8064428697133468e-01 6.9746657311314297e-02
      5.6976665107101948e-02 -8.2795179790216888e-02
      5.7398078801226909e-02 7.3522142091807213e-02
      -1.1812254220540316e-03 -1.9470281459096554e-03
      -1.7957555192103175e-01 4.1916749750397782e-02
      1.8585264241536812e-02 -7.6524449686409965e-02
      -1.6252019196562776e-02 -5.9391043375633196e-02
      -8.9061340708308609e-02 1.6824681588567347e-01
      2.2450538467622110e-02 -2.9893873561261903e-02
      -5.4022487311670843e-02 -3.8564864135054470e-03
      -7.0292170368693530e-03 6.3166083523217398e-02
      -1.4198139060731238e-02 -7.2696145511572260e-02
      -2.7308449978694312e-02 -1.3017475484895880e-01
      -8.0971339096335720e-02 -4.7556112073587280e-02
      9.4719921495012141e-02 1.2700558818899069e-01
      2.7158436123946975e-02 6.3056224007062553e-02
      1.1074082809584597e-01 1.2009486749877200e-01
      1.4391262171719962e-01 6.3897345715274070e-02
      -5.1925079873810280e-02 -1.0105584411891371e+00
      -1.5691069621755097e-01 -8.6534296096995242e-03
      -2.0530188376631637e-02 1.1598251107625648e-02
      -1.7460014819263832e-03 5.4254564047335134e-02
      -2.7017731065576520e-02 4.5584771619400111e-02
      -4.3493178304741725e-02 -8.4633267735200607e-02
      5.3993967362143118e-02 2.5623441256133937e-02
      5.2686878083235134e-02 9.6947057780553958e-02
      3.1643565743224647e-02 -7.5999702117640441e-02
      -3.3033352635915322e-02 2.4570697499723246e-01
      9.4276172611773882e-04 -6.9152721205580896e-03
      -6.5438102234325585e-02 3.6303783520178476e-02
      -2.2037399438361794e-02 1.1724934862971668e-01
      -2.2347351642946774e-02 -3.5924736772717028e-02
      1.1877286910240546e-04 1.1695518521520620e+00
      -1.1455919560996205e-02 -2.4062567746921727e-03
      3.8343881840814137e-02 -4.1547452388926417e-02
      6.4534960728012361e-02 -5.7875355903219258e-03
      -3.3335183541095034e-02 1.8819791959023016e-02
      -3.3261336027927494e-04 -4.6218798638460519e-02
      -1.9269722397798370e-02 3.3467546498737552e-02
      6.3319586917643111e-02 3.7254831063973382e-01
      1.7785208241521747e-02 3.7469437742596097e-02
      2.4992502016196530e-02 -1.0518248994796172e-02
      -1.9906172474542117e-02 -1.6454156062473170e-02
      1.2588479726606380e-01 4.7451518874642292e-03
      3.3706874908610789e-02 3.8481376827761500e-03
      2.3602586161319480e-01 2.0124299058808040e-02
      -2.0048291396251326e-02 1.3748204745601620e-02
      -1.4817428620611178e-01 -1.0682846076497093e-02
      -7.3314778361112984e-02 9.3464244698919480e-02
      1.3926178624139926e-01 -4.2640272234385178e-02
      5.2670648396196791e-02 -3.3702880720986636e-02
      3.4561116452244661e-02 -7.5651598628148908e-02
      2.0942771043448834e-02 -1.1756306931680782e-01
      -4.4081592553320517e-02 1.0374528498725934e-01
      9.4863140567730764e-02 -2.4084123986441741e-01
      -2.6554523241319815e-02 -1.0101339905564008e-01
      1.2865165313374425e-02 3.3321184762813749e-01
      4.9120754567426438e-03 3.6190669136196549e-02
      -1.0424325232269033e-01 5.0902811106558546e-02
      -4.1796521141782131e-02 -1.9051139655599045e-03
      2.5712949638898041e-02 -5.2646926750506202e-02
      -3.8537506137245957e-02 6.4111136551514127e-03
      -1.1618726341608893e-01 -6.4688041054705867e-02
      -1.0945462241371133e-02 1.1555694441060459e-03
      -3.8563631258855390e-02 4.9072926249839567e-03
      1.0148682738768466e+00 3.0855133293916225e-02
      1.1498614280192629e-01 4.0582709684681396e-02
      1.1762403817931300e-02 -3.4555176084235327e-02
      -2.3589923251717777e-02 -2.2959231810834022e-02
      6.3937858592515847e-03 -6.6295723660080588e-02
      7.1061775103465818e-01 7.5404633432278545e-02
      -1.6828726767567217e-02 6.4323791622241744e-03
      8.8105613228199472e-02 5.3776892962499614e-02
      2.5020122729647435e-02 4.2473946824658694e-02
      5.2869431736251429e-02 1.0241708602848595e-01
      -1.9773979147254307e-02 9.9784430327562873e-02
      -3.0968046637902692e-03 6.9515437254769913e-02
      -4.6107650650320887e-02 4.8202366755009635e-02
      -2.2930773400018714e-02 -1.0129733590471454e-01
      3.1866966861701131e-02 -1.0624416876659515e-01
      -4.3276748135917593e-02 -6.3921081219195236e-02
      -2.0366909764653565e-02 1.0374540552548858e-01
      -6.3747396595978401e-01 -2.8720082417664255e-02
      2.9663384275316541e-02 -5.4810115797913644e-02
      2.0916833207479234e-02 3.1875108405992843e-02
      4.5221030057543800e-03 2.2241837476755334e-02
      -2.6862595714504767e-02 -5.4605280069217121e-01
      -4.7319432007317491e-01 5.9531572277765607e-02
      3.1086285074413359e-02 6.9658957752646911e-02
      -2.9474416064651027e-02 3.7746626315767716e-02
      1.5085262602165202e-02 -7.1353139485126199e-02
      7.1473400500700515e-02 3.0691899737138900e-02
      -6.1791354923442093e-02 -5.7574996294765972e-02
      1.0096460527179685e-01 -1.5657902821927089e-01
      9.7029517213221159e-02 -2.0341849447754367e-02
      1.6844202286055179e-02 -7.7627464475919616e-01
      -1.3819788597746342e-02 -3.7578146877695578e-03
      -2.4321142170075295e-03 7.7405223510287446e-02
      -3.0472872071158879e-02 -1.3679436329358379e-02
      2.5726715669530176e-01 3.5300015699972813e-02
      -3.3240788710063923e-01 5.4157876034905163e-02
      3.9882726983059759e-02 5.8918300105850779e-02
      -5.9860811283361876e-02 7.0871249422139321e-02
      7.4902954040199948e-02 1.1451399949726369e-01
      -5.1968001196605045e-02 6.9812043079476693e-02
      4.1981342696005307e-02 -3.5032561631538672e-02
      -7.3086943395686221e-02 1.0538814520313353e-01
      -2.0249266637900356e-02 4.7968286527005952e-02
      7.6207488100292903e-02 -2.2639808112761596e-03
      -3.4682004929995201e-02 -9.1646713424412621e-02
      8.5698768327896798e-03 -5.5057560139137741e-02
      4.1538472697771660e-02 -9.2924911183995332e-02
      -1.2411835465671974e-02 -1.0198456010729626e-01
      2.5258490051208687e-03 8.8119602668497665e-02
      -6.8725173311979026e-02 -1.0106880645005485e-01
      3.0498366526285656e-02 -9.7211302875924915e-02
      3.3720847351804539e-03 -5.9472565431949738e-02
      6.1073561464689667e-02 -1.2247710484299434e-01
      -7.0992430491406314e-02 3.3851567648161063e-01
      -1.7673325632770839e-01 -2.2569039320181523e-02
      -8.3366562825778964e-02 -4.8133837087902399e-02
      3.8302777390951816e-02 1.4398202599805917e-02
      1.9135142311069664e-02 -1.4173748348482521e-02
      5.0805212182535142e-02 -9.1798476527967007e-02
      1.2845694141568307e-03 -6.0784680513654051e-02
      -9.7457641107219425e-03 -4.8267514202968889e-02
      -1.0250192257177065e-01 -8.2181536278356140e-03
      5.5383556923523196e-02 1.4564974058151967e-02
      -1.0558638078180355e-01 -5.9282244416269017e-02
      -6.8469900264375664e-03 -4.1096407631159411e-02
      -1.8140704164156897e-02 -5.3835568066150231e-02
      4.2372569751655424e-02 1.2134767382879890e-02
      6.6306589499704666e-02 -2.7970735435648958e-01
      -6.8642606436063666e-02 -3.2565786665231973e-02
      1.3951291658803116e-02 9.1821256709294113e-02
      -1.3127344194289170e-01 -8.3886905799775528e-03
      -1.6110662416776448e-02 -2.8742307680943765e-02
      -1.0628119083179073e-02 1.8149823651256197e-02
      -2.3450299312719088e-02 -9.2881241429022390e-02
      -2.8017407546934462e-03 -2.7706158899558425e-01
      1.9878589948147979e-01 2.3995035026847873e-02
      2.0220680513750412e-02 3.7598469013875965e-02
      5.3855568381815072e-02 -5.2103766587424140e-02
      -4.0326087396808474e-01 -1.9382914218428044e-02
      6.0449912539821240e-03 1.0239276695726787e-01
      3.1242618715949660e-02 3.4184225912221016e-03
      -9.5551110635026026e-02 -3.0060497597983755e-02
      2.3708850776402644e-02 -6.0129646239950485e-02
      1.5405768911680251e-02 3.0108349511819194e-02
      2.7388646412497549e-02 -1.5908352861862873e-01
      2.3200483577734139e-02 9.6518190924212960e-02
      2.4436655048602546e-01 -6.7458542099748976e-03
      -3.8252474173968223e-02 -1.5590898394449546e-01
      -1.7522909922396596e-02 1.2644691193773860e-01
      1.8959686177445288e-02 -5.8530083706036817e-01
      4.3123717224553583e-03 -3.2507195430319547e-01
      5.8359434444456619e-02 8.6651462726044677e-05
      8.2422531324250370e-02 3.1299767981097459e-02
      -9.7404198615546222e-02 4.5482590416981647e-02
      -2.9375072259273324e-02 1.2676788868085548e-01
      -4.1695197680635052e-02 1.3597260242778355e-02
      1.9065914616431903e-01 3.8137044468816349e-02
      1.1609213382265062e-02 -9.7086626931613171e-02
      -2.8105005167436817e-02 -1.7485221660767106e-01
      -1.6036227822804054e-02 -3.3585583356375036e-02
      -2.4403112332847451e-01 -1.1655318125887289e-01
      3.3847001748408746e-02 -1.8677966188643966e-02
      1.0573721358115995e-02 -2.8253769569370271e-02
      7.0785074521469505e-03 -6.3923210578844689e-02
      -4.5401619949861902e-02 -3.9560922325734556e-02
      -9.1912925020087322e-01 4.2809041000140033e-02
      6.6160138772408880e-02 -1.0755349611643768e-01
      -8.9486697024386622e-02 -7.0587884031127729e-02
      5.8820604622297316e-02 -6.2228903598877928e-02
      1.7874734724461774e-01 5.9576166990118584e-01
      7.9476832098488118e-02 -5.6221600480145330e-02
      1.0805048890525049e-02 4.9013230428153129e-02
      1.7224530872637325e-02 1.0570544720953437e-01
      -1.6453261093552363e-01 5.6351260285636799e-03
      -3.9704093031494775e-02 -1.3014086187466192e-01
      -5.1879005004704749e-02 1.8823990484762777e-02
      -2.3088203515723701e-02 8.5567674603283017e-02
      2.6037577504296883e-01 -1.5567779563973892e-02
      -5.1793030872301263e-02 -1.5707899072794679e-01
      -2.2117037935673947e-02 1.1708053717556855e-02
      1.5038339885409657e-01 3.4406067777710700e-02
      7.1381201533630173e-02 -5.8894898461933276e-01
      -1.3437696014608569e+00 8.9909706419937313e-02
      -5.8594743289199919e-02 1.0356408536801091e-01
      -2.0996534665770536e-01 1.3851822028965102e-01
      5.2645400325285710e-02 -6.8810425111267587e-02
      1.8882282560975950e-02 -4.6641290708318251e-03
      -3.1749899985362967e-01 3.4627736686149224e-01
      -4.9609031021179487e-04 1.5401975499104034e-01
      1.6701650375582001e-02 -8.6427696650408878e-02
      4.5879630523052439e-03 -1.0374640735768790e+00
      7.7098320130120522e-03 4.8746143334404392e-02
      -1.0748213822467650e-01 5.8202713215756020e-02
      -5.6865541471155585e-02 -1.0487265913942100e-01
      -1.8567576059054880e-01 1.5823612700576639e-01
      2.4552341781684850e-01 -8.3882103201589425e-02
      1.7726014478098182e-01 -3.9433454445027404e-02
      -7.5873763569266908e-02 1.6978342694279763e-01
      3.1815483199988059e-02 9.1014669112251569e-03
      3.2259786894470011e-01 -4.8129797047159140e-02
      5.3537825586460662e-02 -2.0442948203953180e-02
      -7.4645745908954342e-02 -1.4899802894046700e-02
      -2.7775295701014699e-03 -1.1878897291468032e-01
      2.1792242691753522e-01 -4.4748689827904468e-02
      -1.3208073420403976e-02 -2.6111010576782629e-02
      -3.8902558290843034e-02 7.4006363002450823e-02
      9.6377664591105819e-02 -4.1025659254190321e-03
      -1.7438547425092969e-03 7.9762887890800771e-02
      -2.2108243836199507e-01 1.3556833320556411e-01
      8.2801336069916270e-02 -1.6642062940430258e-01
      -2.9360928130763818e-02 -6.9782193089563418e-02
      -4.1187074998527626e-02 -5.6471341763702859e-02
      -2.8536243858556978e-02 -1.6734364499467455e-02
      2.1927081158095774e-01 4.0922593903875043e-01
      1.4980078889933143e-01 5.3608761800555238e-02
      -3.6275484449147868e-02 5.3323192978957791e-04
      8.9148248740409178e-02 -5.8312975228193661e-02
      1.7392783894709753e-02 1.2361896290056765e-01
      -5.6827450576421384e-02 -1.1554779547394149e-01
      7.5585484492922142e-02 -3.7462234236390501e-02
      -6.4231303125874370e-02 -9.5467562434498679e-02
      8.6824487280200882e-02 1.6708107721850204e-02
      7.9409940467127391e-02 1.7041216791643735e-01
      6.4981472224879350e-02 -6.7814772557987221e-02
      -1.4820087287784087e-02 -1.5982194607117847e-01
      1.8476773349340872e-01 3.4675873774322644e-02
      6.6507969081986515e-02 -1.3755366378495754e-02
      5.8590598387525075e-02 -5.2933579444877077e-01
      -1.0410519134030542e-01 9.0398128224939714e-02
      3.7899272007508061e-02 1.2885981468003704e-01
      4.6800161160650687e-02 -2.3744054422307320e-01
      -1.0294894845206401e-01 1.9153257473174268e-01
      -5.0995563908445452e-01 1.1719055522264642e-01
      1.6189545434259378e-01 -1.4610905930183521e-01
      -2.0873745481988956e-01 -1.6808109101131072e-01
      1.3592023255082045e-01 -1.3364611649662211e-01
      -1.6824638819703291e-01 -1.3845526613078748e-02
      -2.9799225599836652e-03 4.1756692596012453e-02
      -7.0946038179801940e-02 -5.4772734508355451e-02
      -1.0346469125615897e-01 1.0511657482756614e-01
      1.0661975993875317e-01 -6.0643138318743781e-02
      -6.6770353128145749e-02 -5.9320840803035485e-02
      -1.1138262502327262e-01 -1.8690967530495115e-01
      -6.7468510151374700e-02 -2.1181572521844419e-01
      3.3554980577511474e-02 5.3033707378297053e-02
      -7.7600755324909704e-02 -2.0881733282639585e-02
      -9.6167744490632187e-02 -1.6979634630031204e-01
      -1.2695900145066455e-01 -1.5501960105876847e-01
      -1.3336930987327550e-03 2.5835277353169683e-01
      7.7330361362885763e-02 2.1138931963439375e-01
      -1.1231482537150415e-01 2.6764761167499712e-01
      1.3168549001101437e-01 9.1194157047327154e-02
      -1.7379216751206111e-02 -9.0928548280890614e-02
      1.5711320669607104e-01 1.6677346275476876e-01
      -5.9179751542009383e-03 -2.5425518354042238e-02
      6.0187693323707605e-04 1.1317159224081816e-02
      -1.1765740855348922e-01 1.1621473535417259e-02
      9.3086281982843341e-02 -2.0687698326715166e-02
      -8.8050772951568962e-02 4.8407213756844647e-01
      9.2534918553516129e-02 8.5618244709281515e-03
      -1.3937020786513781e+00 -1.2041161746286254e-01
      -4.1500492429630706e-02 1.0524631636608979e-01
      1.4105142516427771e-01 5.3457525652046561e-02
      -3.4161214033958907e-02 1.9567333088622624e-01
      7.3204129606103188e-02 -3.6971766574353242e-02
      2.7742723967791455e-01 -9.7666476537993582e-02
      2.0496716963438300e-01 -8.2809785749182255e-03
      -4.6211879786000866e-02 4.9695280793169913e-03
      8.2953886129479279e-02 -8.6009367402238843e-02
      -2.5905414995194800e-02 -2.8282195059320286e-01
      5.8093041018425190e-02 -2.9763169637872081e-02
      -8.5981802956544229e-02 2.5669969055810253e-02
      -4.1584455061726693e-02 1.2457730837778231e-02
      1.3230702234041844e-02 -2.7922326869021144e-02
      -7.7031775458228674e-02 1.2374968141008531e-01
      -8.5262997828121825e-03 2.6921245698548334e-02
      1.5596470962648620e-02 -3.0196161516691307e-02
      -1.2299857408274613e+00 2.8684173948394544e-03
      -4.2536183888381811e-02 -3.5203932217217668e-02
      -1.9999063317403065e-01 -2.4505864922485361e-02
      4.7477339365052738e-02 6.0626857568049267e-02
      5.9933440413202768e-02 2.5289655612079875e-01
      -1.9793288336214898e-01 -3.1858328386476654e-02
      1.6871034749397608e-03 9.8653181504238102e-02
      1.0731694378863314e-02 4.8483660177489868e-02
      2.1510821793460432e-02 8.5289297453808571e-03
      -3.8069225297376628e-02 2.7138689113107097e-02
      3.2241640650826792e-01 7.4301378362127662e-02
      -9.5663545861777902e-02 5.2728509071516078e-02
      -3.6933598518072317e-03 -1.8905404231674260e-03
      1.3702444974862223e-02 -1.9251825882233051e-01
      3.8776483911689724e-02 2.5837911842097303e-02
      -5.7596053301085949e-02 -2.4459364350238419e-02
      1.2258445406559997e-04 -4.0259667934013234e-02
      -1.2410548643980136e-01 8.6599994493207502e-02
      1.2956687396274463e-01 -2.8423478476816713e-02
      8.4059608586382673e-02 -3.2541096307623973e-02
      -1.9644070923654292e-03 -8.0892757106622123e-02
      -1.0616098449893013e-02 -3.4106682439386908e-02
      7.6596338156808219e-02 -4.0987494032190125e-02
      2.5000249451386916e-02 3.7101380895067449e-03
      -4.1521622223910287e-02 4.1200927097896106e-02
      -2.0777390310549237e-03 -1.8457270557001934e-01
      4.7905904071427148e-02 -4.6016176652360581e-02
      2.9596856280796599e-02 -4.0137967024930658e-02
      -4.5333780505292839e-02 -5.4268118529018309e-03
      5.0817226279386514e-02 -2.9205949445331521e-03
      3.9039263447701228e-02 5.0653784624593454e-02
      8.1461242416975541e-02 -3.9889437400531429e-03
      2.7925427414320150e-02 -7.0516284872710416e-02
      -2.0958528419521824e-02 2.4958879744666266e-02
      -1.0464779128288755e-01 -3.7869314454828794e-02
      1.5867461582337202e-02 -1.7766694726642249e-02
      3.4051706139891738e-02 1.6719112288292817e-01
      -4.0890587688227231e-02 1.4166838368810952e-02
      -4.6361480404099806e-02 6.9928733781549433e-03
      -2.4763864406482511e-02 -6.6958218428170027e-02
      -3.4570197912545384e-03 -4.1354025572511175e-03
      -3.5637421274065210e-02 -9.9396226407504826e-02
      -8.4707704071045983e-02 -2.4986981396985547e-02
      1.8033494120862053e-05 5.8301173258734325e-04
      8.7115838012024896e-02 4.9557479659178449e-02
      1.8347474541164810e-02 -2.3198146112614274e-01
      -4.7018358894578755e-02 2.0032079217972051e-02
      4.7509825444143637e-02 4.5101852058345021e-02
      7.3396349059576732e-02 5.5356995090840293e-02
      6.6521194885827478e-03 1.7523868892617433e-02
      -1.6980467964142008e-02 -3.3084755939003108e-01
      1.2467960656931178e-02 8.2247776772822988e-03
      8.8322649882672903e-04 -6.1421373474641119e-02
      5.7501188565134920e-02 -6.6428075605303893e-02
      -4.0932619006620069e-02 -9.9118337903075254e-02
      1.0817205103338878e-01 5.8166168616025450e-02
      4.6877253678327582e-02 4.8083646278543274e-03
      -9.4251736342798684e-03 -2.4466032466978604e-01
      -1.8422027121662805e-02 -6.5243171874296721e-02
      -8.4397069637318772e-02 5.8582640010671101e-04
      3.7221240975431877e-02 -3.9999088797681879e-03
      -7.3249391134351347e-02 -7.3701345088880307e-02
      4.2355746608330233e-02 -8.7101526172995852e-02
      -1.2800217654772336e-01 -1.9787809330672618e-02
      -3.8607091965364694e-02 6.0112588886652475e-02
      1.8838922326055361e-02 -9.7888060968298524e-02
      -4.2623934666870034e-02 2.5615817526192908e-02
      1.1359440502948121e-02 5.6722415322236326e-02
      -5.1984942992805691e-02 -5.3551878334862246e-02
      6.6840810253622068e-02 -8.6740020100117679e-02
      -9.3767627744417353e-02 1.9698055101905262e-01
      3.0170709422313324e-02 -2.3981172749192614e-01
      -2.0702275835280982e-02 8.7567852040868824e-02
      3.5541313719733097e-02 1.5289712193783866e-01
      -3.6471087003327261e-02 -1.5758849810809153e-01
      -8.9176114059523158e-03 -7.9116819695216112e-02
      7.1093895320698791e-02 1.6210734890463877e-02
      -4.2258997909487266e-03 -1.3713544785218675e-03
      -5.1318724927332283e-02 -1.8392467501669393e-02
      -6.9273133874226608e-02 -5.4232154303019073e-02
      2.9478369440580240e-02 -3.2518676037626704e-03
      -8.6575646362515562e-03 -5.4018707459481907e-01
      1.0408903062980737e-01 -1.1796342788710371e-01
      -5.9670147108651442e-03 4.2077817758610934e-02
      -1.0458233364202962e-01 6.3962189702227443e-04
      8.0359041036727405e-03 3.5420668316902770e-02
      -3.5612477322097361e-04 1.9463354554979758e-04
      1.8526776923433710e-02 -1.5389305015441118e-02
      -7.6635348542159420e-01 -2.2945736560427647e-02
      -7.0206204823267268e-02 3.1184896638880702e-02
      2.0437309518103255e-02 2.7722134329613336e-02
      -4.5823666783132183e-02 2.9485246644582585e-02
      -4.0320605126726160e-02 -6.0749937296662747e-02
      6.2641133847893438e-02 -1.3245985072600474e-02
      2.6038071084020051e-02 -8.9624842369152427e-02
      6.6052725848956120e-02 2.6354959646881795e-02
      1.2102227990670440e-02 -1.0113745993845751e-01
      3.6606179468139446e-02 -1.1249678866255238e-02
      -6.8763587997466971e-02 -8.5871607046378334e-02
      -2.4455239283804858e-02 -1.1221528508800362e-01
      -6.1043415462023809e-01 5.7608427008517323e-02
      7.9405628606359024e-02 4.3851026944221827e-02
      4.5886334911432188e-02 -5.7324536145142442e-02
      -2.7594811430747514e-02 -7.5148084434304097e-02
      -4.8219967592001249e-02 4.2297159981276344e-01
      1.5107394565930404e-01 1.6227891471217875e-02
      -2.6740655275302706e-02 -1.0445389759804244e-01
      -2.8234730532238797e-03 -5.4492663096765467e-02
      -3.2587680044732024e-02 -2.8820012235079327e-02
      -8.8498777889319147e-02 5.5689659077815146e-02
      -1.1677261013561651e-02 6.9999778719687877e-02
      -6.3828027628112334e-03 2.5601524120455015e-03
      -6.5016570876161306e-02 -9.0860170777497459e-03
      -6.2863610127212824e-02 1.2875430364601759e+00
      3.2833343058063326e-02 -7.0379880968668290e-02
      3.3254272601361920e-02 4.5609583710845610e-03
      7.7747037001210714e-03 6.1049962953646730e-02
      6.2550918271799025e-02 -1.8998427971609652e-03
      -1.6901263022619276e-01 -8.2550754161722570e-03
      -7.7200972968326259e-02 8.9701423294992977e-02
      1.8057343028104338e-02 2.5232399589720539e-02
      7.2647756638523922e-02 1.5723750953429919e-01
      -2.5880038896703977e-01 3.3505380495042918e-02
      -3.0876860045838363e-02 -1.1975251695398981e-02
      1.0767168474617292e-01 -8.2144932765966225e-02
      -3.7393358877212325e-02 2.2148969935299481e-01
      -5.2500721545523814e-02 3.4584974087008356e-02
      2.5240541024037857e-02 -3.6178504559446267e-02
      7.7697641799776201e-02 2.4807450635574317e-02
      -3.7563541448249617e-02 5.9573507222368982e-02
      1.1201792429216156e-03 -1.1306707964547935e-02
      -5.7420832551719043e-02 -9.9611753235522224e-03
      1.4063001850074043e-02 5.1574532852002725e-02
      3.5549321041523863e-02 -7.0807852981351393e-02
      3.9042816259997781e-02 -9.8864742823487881e-02
      -5.0086119243152628e-02 -2.6863459550425170e-02
      4.2892362225487431e-02 8.1164518579280948e-02
      -6.5982724814475868e-02 -5.9863378311277374e-02
      3.4461709827329955e-02 1.3175819657814064e-03
      4.4612339089984174e-02 6.7201644199081798e-02
      1.2295550396111582e-02 3.6141657858972838e-03
      5.4697293908420909e-02 9.3766971319458811e-02
      5.9780207739992750e-02 4.0286143019432043e-02
      5.4229016282152827e-03 -7.2230950999290612e-03
      -1.4761655498926290e-01 -5.0411302895117908e-03
      -2.6021959430795365e-02 -7.4899205614455594e-02
      5.2703248869580908e-02 -3.6456949596176465e-02
      -1.0225036427121616e-02 1.2405624931787590e-02
      -3.4062829745459260e-02 -1.2364038956624726e-01
      -3.8400277765660594e-02 -3.8165629997710632e-03
      9.0854240752477167e-02 8.4723972081993712e-02
      -6.1198623081436063e-03 -3.2913372742809782e-02
      2.6551732649206558e-02 -1.2431768200654624e-02
      -8.2370279892460638e-02 3.4078463324434913e-02
      6.8345910052274181e-02 2.9369905712918167e-02
      5.3071371680480861e-01 3.0587753418601779e-03
      -4.5131168275458315e-02 -3.9689324803267980e-03
      -7.0021108259911299e-02 5.6690760652202377e-01
      7.9167100088409811e-02 2.1110416263267703e-02
      4.9132889581235878e-02 1.9841820290556488e-02
      -1.2738014742285191e-03 1.1565373233435169e-02
      3.0221591464770320e-01 8.8661435839797881e-02
      -6.6824113830370194e-02 1.3592838792428136e-01
      1.7033863562163154e-01 3.8967275823196430e-02
      4.9296808289755065e-02 1.8333209618349607e-02
      -3.9512921719404917e-02 9.6628466763623161e-02
      1.5138006377001345e-03 3.7002917129512959e-02
      -1.4579857774318261e-01 -8.1953647734489488e-02
      -1.1382356483119678e-02 1.4608323472576068e-01
      -1.1861943968732531e-01 1.0096325547819007e-01
      1.1855770310100744e-01 5.1466193045652371e-02
      -5.4776739068634400e-03 5.5636333420187833e-01
      2.2896183417812202e-02 -2.2841400963094149e-01
      -1.1189484325034917e-01 -3.6871275176377463e-02
      -1.9083744128144526e-02 1.2265104388080719e-01
      8.1851840421050207e-03 3.5497502989584470e-02
      5.0500634756563384e-02 -2.4124116295836686e-02
      1.0527478404408182e-02 4.0484206629295576e-02
      3.8395999171450534e-02 6.9451375783022282e-02
      -4.8514844007470803e-02 7.3284653284155939e-04
      7.5167011099783645e-02 8.7222640997194942e-02
      3.0496231585440306e-02 -1.1537149776066222e-01
      -3.9444562287168673e-02 2.0169601599572439e-02
      8.9553768203182460e-01 7.4765995424757675e-02
      5.1549131108296703e-02 -3.0295672547303257e-02
      -5.6657137496442335e-02 4.2382520328634279e-02
      4.1282785833414763e-02 1.8017319768525122e-02
      -4.0896829083121228e-02 7.2435460946213878e-02
      -6.8625905761251327e-02 -1.9058050891048676e-02
      -6.2276242817672937e-03 -5.0822493068256057e-02
      2.9305874097073036e-02 -8.6645004445362342e-02
      -7.5189513234609248e-02 1.8580245025002346e-02
      -1.5073657767692580e-01 5.7647082329465504e-01
      6.2780176017778092e-02 6.4014740386153096e-02
      6.6568760544292685e-02 -3.2090644248260629e-02
      -1.3322399253437070e-01 -4.6279089268658050e-02
      4.4391225666276693e-02 1.9653286947801191e-02
      4.8647390835898077e-03 3.6613323986545827e-02
      1.0460397900001622e-03 9.5746592686927912e-03
      -4.5661297857551270e-02 -8.6767349096014273e-02
      4.6530602710976982e-01 -8.1915568670500039e-02
      -9.0561383310073185e-02 7.7931552009664729e-02
      6.5535881507408272e-02 -9.2505371062780450e-03
      -6.9218218841367390e-02 -7.3251122124964568e-02
      -3.8745965300169397e-02 4.1403494296615018e-01
      -7.6272009655051565e-01 -8.4387593147842083e-02
      4.1267623232939921e-02 9.3343214577382316e-02
      5.3503225769634843e-02 -1.7508179530931818e-02
      -9.5746253482160260e-02 3.9347947879792164e-02
      -9.2025854040578309e-02 -2.1020200005986263e-02
      4.3733961132075444e-01 6.7683905642851275e-02
      2.2326820615751045e-02 -6.4363606556154251e-03
      -3.0504870790465918e-02 -1.0233669681030736e-03
      1.1220688597014451e-01 -2.4590729194776045e-01
      5.4876191021622688e-02 2.2573438837284500e-02
      -5.7037926028087535e-02 -3.3691930820988710e-03
      8.5136999178813899e-02 9.4656678099532029e-02
      5.7582661522498045e-02 -6.7824312647947541e-02
      -2.3883927008037048e-01 6.5652510523733790e-02
      3.7418426889711365e-02 -2.7354406150229368e-02
      6.7977262197330995e-02 4.8183686386878505e-02
      -1.3275923267145009e-02 8.5680918789968932e-02
      9.9002095650046307e-02 3.8718473105494151e-02
      -1.6869354994248357e-02 -8.2266159292680288e-02
      -3.2439982550873422e-02 -9.6154325815611570e-03
      -5.7058254441829666e-02 1.2375579752068240e-01
      1.8736512563456659e-01 -8.5193542988127549e-02
      1.5571437896382883e-02 -5.5819723132853070e-02
      2.7478714811623894e-02 3.0711091719206902e-02
      -2.3379365903875290e-02 -1.6521358860761753e-02
      -2.1264301047467460e-02 -1.0361247974721984e-01
      -2.2392105192058278e-02 -9.9521850000457213e-02
      1.2613460985240729e-01 1.1973721139652857e-02
      -6.3003199598879144e-03 5.1486918505276077e-02
      5.9206305601861214e-02 8.0479693697600843e-02
      1.1339016460778754e-01 2.1001665983293595e-02
      -6.2997464837090816e-02 -4.1665798819781485e-01
      -1.7369888879150849e-01 -7.2957658088816995e-03
      -4.7201528736239798e-02 -8.5742657715507931e-03
      -3.1015944588108760e-02 2.7090568516386363e-02
      1.3261356650593220e-02 7.3530580166315130e-03
      -3.7358990626207199e-02 -5.1355480089079711e-02
      -7.2752969440091544e-03 8.7061627555946235e-04
      4.2328978117963934e-02 8.0334267559977870e-02
      -9.0922133234598843e-02 -3.5104515727913052e-02
      -4.0286324703917561e-02 1.2705564717206949e-01
      -5.2566328499835703e-02 -3.7614274334092514e-02
      -4.6680805462338867e-02 4.4481729526539299e-03
      2.2617740433404372e-02 8.4785860675626670e-02
      -4.5931101554225993e-02 -3.1137822186474786e-02
      -4.6132884621604038e-03 2.3430016345903798e-01
      -4.7496256430440649e-02 -4.1457743760401428e-02
      4.4818417722653527e-02 -5.3668118708935994e-02
      -2.2099474045271312e-02 -6.2939121678788276e-04
      4.7832054555498979e-02 -4.7764603769719097e-02
      3.9948938082404839e-01 -5.3633163166579264e-03
      -3.3050094539474545e-03 9.0021027287233768e-02
      2.2546153735892173e-02 3.6911614678433308e-01
      -8.6111379533024515e-02 -3.3708066876648339e-02
      6.5906791956183972e-02 -1.1559777784010085e-03
      -2.6426508034626118e-03 -2.0139650739041230e-02
      6.5203642297816208e-02 -5.1329098743891619e-02
      5.9361249331455999e-02 2.5284570143929670e-02
      1.5455366503799067e-01 -3.3336493313355101e-02
      -1.2902384306720254e-03 8.0849293518560433e-02
      -1.3916116628989819e-01 5.9077838125820445e-02
      -1.5771877875215495e-01 1.3850785993317566e-01
      1.7752293359897611e-01 -1.0140119700360728e-01
      4.9595559117697620e-02 -1.7224206996257430e-02
      -1.6577627082687327e-02 -4.8557092902283445e-02
      1.4316845804016889e-03 -1.2356120660966416e-01
      -5.2714820828245239e-02 4.1551321397841673e-01
      1.2837079590053074e-01 1.6261406602480835e-01
      -6.7233710742255107e-02 3.0032032576445572e-01
      -3.8682787080246278e-02 1.4933311727833312e-01
      -1.8256402140443662e-02 7.9804630483833686e-03
      1.4575919175869635e-03 6.8119014343128420e-02
      -3.2367894714888899e-02 7.5521053454133957e-02
      3.0396969475410280e-02 -1.8357868898510866e-02
      -4.7594532040510451e-02 9.7658722596056010e-03
      -6.3827013359319659e-02 3.2241859260925300e-02
      -3.3192697715016206e-02 1.4827423640354936e-01
      1.6924591661901415e-02 -9.1911025236002433e-02
      9.3172954000770791e-01 1.3228537689426062e-01
      5.7413382319565276e-02 -3.9202179864515650e-02
      -2.3216407770863517e-02 -7.7854069778271098e-02
      -1.7690113210342810e-02 -6.5733183828462091e-02
      -2.5975363336915656e-02 -9.6941461578917781e-02
      4.5586611748197464e-01 1.0668508457259368e-01
      -6.7458284321838993e-02 -2.1156456883396461e-02
      2.5865655569956547e-01 2.5840071166988873e-02
      -6.9929367147419902e-02 -2.9782405401415912e-02
      3.1173945632049845e-02 -1.4163654543545440e-01
      -1.9281472334512304e-02 -5.7476271893412714e-02
      3.2205703200082619e-02 -4.3312737684444644e-02
      7.4133907977777400e-02 8.0127752490285392e-02
      -3.0213586588555164e-02 4.0046970572165309e-02
      2.6680754271719818e-02 -1.2556467987519174e-01
      -1.0942713641206607e-02 -3.9855004872051292e-02
      -6.4795365851204892e-02 -6.4388401736461681e-02
      2.0946123250960239e-01 4.6210547130829630e-02
      1.0641269214356000e-01 8.1996152368985300e-05
      5.2195516317738045e-03 -2.0257680082394246e-03
      7.7815815761426814e-03 -1.3284893066073659e-02
      -4.0729672182981250e-02 1.7770965514743384e-01
      6.0276957912264661e-01 8.1120417233652237e-02
      -4.0942713071464638e-02 -1.6694047032561693e-01
      -3.8157750973316348e-02 -5.1751786912670829e-02
      3.9639547939509127e-02 -8.4080354489691700e-02
      3.9247683622979819e-03 1.0891888019718812e-02
      -5.7714131844409500e-01 -4.3530990074058477e-03
      3.8333846751996539e-02 7.8392124614960187e-02
      -2.6510930447988378e-02 -5.3394918714604715e-03
      -6.9655191191276000e-02 9.0446369883946220e-01
      -4.2241970505228599e-02 -8.0781953003627713e-02
      7.9004961168742005e-02 3.3064793812026885e-02
      -6.9159656776327724e-02 -2.8601113873038587e-02
      -7.5432564312170630e-02 5.3160844843108176e-03
      -4.0375095446181714e-01 8.2484020687038744e-03
      -5.0391152332386807e-02 9.1557656938635990e-02
      2.0635126831156675e-02 3.1156048911573555e-02
      6.4582079601558956e-02 2.7250234732252836e-02
      1.6167802248282317e-01 4.8820274276791385e-02
      -6.0291396760120491e-02 -4.8676332573224460e-03
      8.8678368659410228e-02 -1.3285544504739472e-01
      -7.7371319628332061e-02 5.5451602797635668e-02
      -2.6869556894392693e-01 5.7049343960284327e-02
      -4.1331548040836934e-02 7.5531468245807906e-02
      7.5522801198360870e-02 7.2920883354177624e-02
      3.5131776583020351e-02 1.9337648514066080e-01
      1.2879804771641556e-02 2.8690158979326207e-02
      -6.0318093156968747e-02 4.6125668128575520e-02
      -7.1421308215672233e-02 6.1947341716681467e-02
      2.1045240367405314e-02 -2.2139578853805783e-02
      8.3986743092060029e-02 -6.6607505282810162e-02
      -1.4749945374232390e-02 4.2952639166309182e-02
      1.4408488734773420e-02 5.0824780304339079e-01
      2.0045895774770719e-01 -2.7930538470633804e-02
      5.2248407635044389e-02 1.7669337044969268e-02
      2.2131272196129152e-02 5.8318846887340674e-02
      1.0318741811396834e-02 2.3766793938868686e-02
      3.6610238004294068e-02 8.3190185880835071e-02
      7.4441413490860156e-02 4.2376182970661265e-02
      -1.0201447746099642e-03 -4.9350990583204260e-02
      4.8638954460209001e-02 2.0031006617775566e-03
      6.2152380851447728e-03 -5.2938509281168734e-03
      1.0253294735484009e-01 -1.5673609908825329e-02
      -4.7462957425271284e-02 -1.4879016040452792e-01
      -5.9459271129361002e-02 -2.1658797566235224e-01
      -2.0210208158681691e-03 4.8534864034796905e-02
      1.8283809447302200e-02 6.8197317242140498e-01
      8.1229201093805624e-03 1.6943240354532374e-02
      3.0233548447470306e-02 1.0073526585078700e-01
      4.7684895619400994e-02 4.3403705751580292e-02
      -3.4630544445021283e-02 1.6224823705928573e-01
      -4.5185516650331115e-01 5.6337565238483165e-03
      -9.9397947057046042e-03 -3.5144801945454635e-02
      -1.0443381976344043e-01 -1.9086467181733027e-01
      -1.4014522024270420e-01 5.8943365062655816e-02
      1.6183461832119852e-02 -4.9082736526730265e-02
      -5.2659859687003889e-03 -3.1533468612964709e-02
      -5.0796919495052002e-02 1.2892676766357072e-01
      -1.7416531441855757e-01 8.4126735904328745e-02
      -3.1824537891070245e-02 6.3503451949079914e-02
      -1.8222065737038540e-03 -3.8921918330101779e-02
      -5.0634626299917822e-02 1.1210525384083478e-01
      1.0904161178506870e-01 -2.0089975833245743e-01
      -2.0311524621672467e-01 7.1590034058485283e-02
      -5.4205763032759348e-02 6.9968077206853857e-02
      -1.2796277206656698e-01 2.0215832813166434e-01
      1.6317842351760958e-01 -9.1361790980371602e-02
      2.7482631753872337e-02 4.1067214344747294e-01
      1.9197195783513303e-02 4.9937336408043065e-01
      -1.4687904541173366e-01 3.6557453049693212e-01
      3.9044901753713113e-02 8.5828968823214280e-02
      7.2542408910019507e-02 6.6449285755375648e-02
      7.2747506680465937e-02 5.9865877429712035e-03
      4.6021621771456155e-02 5.2916827490932968e-03
      5.5678083549770212e-02 6.4309757850598115e-02
      1.1189123142423178e-02 4.4270315879898381e-02
      6.8097286990778536e-02 1.1392280434830740e-02
      -5.5650563173852294e-02 1.8095475488991203e-01
      -8.8442524278161405e-02 1.1937362807115257e-01
      5.3010804901638742e-01 6.2192722648288425e-03
      8.5649008700930312e-02 5.1648148612244444e-03
      1.5804351753294567e-02 -3.3503988847107440e-03
      1.1861040265272682e-02 3.5797536701754958e-02
      7.3332856621099842e-03 6.5064314830397443e-02
      2.4816819494101375e-01 -2.2877691743585515e-02
      9.0097176858188910e-02 -5.9714077800625112e-02
      -3.0316330318405652e-02 4.5838691044245367e-03
      6.0166128384358773e-02 6.3860869012450317e-03
      1.1632278598613864e-01 -2.4701790512321475e-01
      -4.0716655551045845e-02 -1.4637228846411970e-02
      -2.7527128866180538e-02 -1.6720904807789681e-02
      1.6926924069280541e-01 5.9451257974533302e-02
      -3.1990905050084832e-02 4.2724953893625101e-02
      -5.2773224432404202e-03 6.8719101630770732e-02
      -3.4152002087010379e-02 2.0156709448600964e-02
      4.9674327973722125e-04 8.2467812095050941e-02
      -5.4957441067195656e-01 3.2574840156623985e-02
      5.1999884521508333e-02 -7.4596721441119340e-02
      -3.0064868035125858e-01 5.0043098454943612e-02
      7.1976337454137784e-02 7.8012489124507992e-02
      3.6558531136114826e-02 2.8217306511196716e-01
      -5.1765946781278038e-01 9.1994480940001608e-02
      -3.4821690616018197e-02 -1.6186260210659270e-01
      -9.8818323833496854e-02 -3.1674036812592045e-02
      -4.5658224579495934e-04 3.2062231685229113e-02
      7.5814546763690649e-02 -4.5771197061796384e-03
      -2.2539690801226753e-01 6.3784262611615312e-03
      2.0884925370007915e-02 1.4494256200108027e-01
      2.4432685744430381e-02 -4.5370488315269887e-02
      -5.4488434211842303e-02 8.5614284634064308e-01
      4.3276077662320785e-02 -1.8916651232490779e-03
      4.7256526582003015e-02 6.6278455345481352e-02
      -1.2087577613132296e-01 -5.1994733928646938e-02
      -1.6261310764699891e-01 3.6556081534794414e-02
      3.9807819430965723e-02 -1.1544134879811029e-01
      -8.9996426205230406e-02 1.4971932244977348e-02
      3.7059293348455460e-03 1.2342525741593081e-01
      -1.0076200993657415e-01 -1.8284343120462049e-03
      2.0528583865668093e-01 -9.4226480960673528e-02
      4.1220492323949316e-02 7.9896162714531857e-02
      6.9317633525872543e-02 -6.6385928604158449e-03
      8.7723979376463534e-02 -1.7050901267510860e-01
      -4.5447054774886864e-02 4.8506395940189274e-02
      6.9815634021921216e-02 2.4161850245971998e-02
      -5.2906070849265657e-02 1.4361660794883369e-02
      -1.3264305981760502e-02 -2.5164808089134568e-02
      -7.7373482767177190e-02 1.2583559074873982e-01
      -9.7378029300902641e-02 2.5118521276125200e-02
      5.0041490846639447e-02 -3.2867003583652861e-02
      3.3741736790154533e-02 -4.3924157519264088e-02
      -6.6461068813008700e-02 -8.6967971719966862e-04
      -1.2162441848902474e-01 6.6785227497304506e-02
      8.8344378114655467e-02 -1.6695083365198074e-01
      -2.0732837337564335e-02 6.5259570915673346e-02
      6.3186353262317585e-02 4.9545664744406769e-02
      1.0507210366476323e-01 -8.9957739379731505e-02
      4.1600920146162831e-02 4.1028961453904896e-02
      1.2355682431025042e-02 6.6090246554628168e-02
      5.2451697175801018e-02 9.6151795637761054e-03
      -2.4613830328268646e-03 -8.6959173938388840e-02
      -7.8548260792565924e-02 2.7824291237534177e-02
      2.6156919078744564e-02 7.8616279728463703e-02
      1.6747337168390794e-01 -1.7241861367019466e-03
      1.9360859374078835e-02 1.1920272576760130e-02
      -1.0523899689693632e-02 -8.2017490664010720e-02
      -1.9350381384321174e-03 -4.9403208425819849e-03
      5.3797506424952141e-03 -9.4883020574868648e-01
      6.6965494442861127e-03 2.7695934820761658e-02
      -8.5427539966371799e-02 6.8600103414506106e-02
      -3.0264057238538214e-02 8.2934225491598339e-03
      3.4522199676505889e-02 9.3373395492911029e-02
      6.6659257103857894e-02 2.7286642068749652e-02
      6.0600248688925051e-02 -8.0320582582363756e-02
      -4.2375829927213879e-02 -6.8624457922861049e-01
      1.4478741076727622e-02 -2.3151164397472456e-02
      -4.1022724890320814e-02 3.1175485873777419e-03
      -7.2451133109780269e-02 5.8146580422003505e-02
      2.6749614016616238e-02 6.8576429753913074e-03
      -6.4261555234062490e-02 8.6554862133347107e-02
      -5.2621920380396647e-02 2.8199195104095642e-02
      -2.4643583620482896e-03 -9.4825419286080376e-02
      4.5911508569262946e-02 -6.8798177536169347e-02
      8.5022077002682897e-02 -2.2862850915293589e-01
      -1.5832473906462807e-01 -1.2762681402529485e-03
      -2.6858660677231655e-03 1.6902874802951585e-02
      -2.2951030155951080e-01 6.2938705607821277e-02
      -6.4682938719252153e-02 7.5365638892117323e-02
      -4.7002991292191217e-02 -3.8228458933634440e-01
      -4.6646439690480421e-02 8.5524134466786439e-01
      8.2869623802021564e-02 3.0432144006118839e-01
      6.4952820021002125e-02 -2.0254052192154776e-01
      -1.1775621612573628e-01 -8.6037245264121570e-03
      1.7462090406316241e-01 -5.7764747656956550e-02
      9.0932047947722208e-03 -1.2900464169264403e-01
      1.4901356651290503e-02 -2.9431875012066521e-02
      -3.8179759501741566e-02 5.7374168840254335e-02
      8.4711030987273436e-02 1.6992047136839251e-02
      1.1893755058066096e-02 3.4348683889687909e-01
      -2.7659875570829013e-02 5.8631264094670808e-02
      2.4053055728776890e-01 -2.4079280509603340e-02
      -6.4627047217655068e-02 -2.9987748657619756e-03
      9.2428061789883147e-03 3.5262478337388228e-02
      5.3478843748493515e-02 4.8617984811159802e-02
      3.9414896316301934e-02 1.4935878569018549e-02
      7.8941820287271858e-01 -8.9110071895919199e-02
      6.4465732099267717e-02 8.3210512057689950e-02
      4.2194891797471760e-02 3.8535168682669763e-02
      7.2047297729939319e-03 3.7256648328621411e-02
      8.3256688421321806e-02 3.4592171894045537e-02
      -1.4768999056200056e-02 7.9574681526483892e-02
      -1.7746926929428142e-02 -1.1460923238323857e-02
      -4.3708442899364569e-02 1.8599307747051999e-02
      9.4858624478101825e-03 -1.6860819472094771e-01
      -6.1389021633102073e-03 1.7998258774758283e-01
      8.7818886867720733e-04 -4.2350156216245938e-02
      5.0849162517734976e-02 5.0613500543822493e-02
      -2.9581741133816764e-01 -1.0951745076546097e-01
      -5.7340744273740009e-02 -7.2179995646761655e-02
      4.7081221236527818e-02 2.4516247086919869e-02
      4.7875969568718826e-02 4.1157544852310844e-02
      2.3055232955346557e-02 -2.5789222185686583e-01
      -1.1583357922054971e-01 -1.1924973580744933e-02
      6.2553576988671464e-02 -1.6624711987058992e-04
      3.8068599126028314e-02 3.5215806131676450e-02
      -8.5093187841323546e-03 -4.3092473624856450e-02
      4.1861586256093576e-02 3.4424152025623551e-02
      3.2911222706573079e-01 -1.0981266574959821e-01
      -7.2721987817527360e-03 -1.0750871465587861e-01
      9.2843032812604420e-02 5.5586898968260062e-03
      -5.0473454234431898e-02 -7.8190113476295175e-01
      -4.4889905130062269e-03 6.4954950597004346e-02
      -1.0488559047330420e-01 -4.4327191932462109e-02
      7.2417240020301629e-02 -1.4434938892764320e-02
      9.8716984864766238e-02 -2.2041860952139157e-03
      2.1726290271909654e-01 6.2181195259229209e-02
      3.2738909516953296e-02 -1.3106344204427267e-01
      -6.7483212563994185e-02 2.6678397259295168e-02
      2.2247830040805452e-02 1.2592661264286409e-01
      1.1579580042134593e-02 4.5276110101480846e-02
      -1.3536579076657011e-02 -1.7289804625900809e-02
      -2.9485553808237662e-02 1.2916010383621626e-01
      -2.3207078978341070e-03 9.3482877544963566e-02
      1.8395862320358702e-01 7.9264738397323321e-03
      -5.1111593011535159e-02 -1.1367325255422553e-01
      1.3778879899121908e-02 -6.7302593199689897e-02
      4.2615408431034701e-02 -7.0657477582220768e-02
      1.9794495370030196e-02 -5.6526715864051988e-02
      3.2025428812476109e-02 7.9811247303830379e-02
      -3.3472020695430107e-02 -1.2296471017044217e-01
      -1.6785983512756320e-03 -2.2815990883811393e-02
      -1.0955036750609080e-02 1.6555955701721879e-02
      8.4764839330110989e-02 -1.0949608181169306e-01
      -6.7388428373717918e-02 3.8683812356150049e-01
      -1.4681779946541632e-01 -4.5179630798662870e-02
      -9.5787667076592031e-02 -3.3965193916617877e-02
      3.6224099372696696e-02 -1.0396840919260760e-02
      3.4708589084843304e-02 -5.8597975401773417e-02
      1.4025217584279246e-02 -5.3301736060661686e-02
      -6.2923305099983465e-02 -6.1646313304243534e-02
      -4.4566928087596998e-02 3.9076810412479665e-02
      -1.4046422220269816e-01 5.4124667230324574e-04
      -3.5298896724171793e-03 -1.4949123580303333e-01
      -1.2783272055415926e-01 1.4821665965681191e-02
      -4.7826869598987416e-03 3.0808839949919033e-02
      -9.5379393849497601e-03 1.6445448124559686e-01
      5.8596654509114915e-02 7.7801429245271730e-03
      7.8637720706362435e-02 5.7448251560089758e-01
      -3.2036972811795655e-02 -1.5015641934669470e-02
      2.0667019257313984e-02 2.6234030492445623e-03
      -9.2032217221677579e-02 -5.0038457610371906e-03
      -1.6451652324390317e-02 -1.3969711761430934e-01
      1.6543536478891466e-01 3.5317400992441593e-02
      -6.3943267530450473e-02 -4.8433163185283540e-02
      -9.1002059853449533e-03 -3.3246102520315665e-02
      1.3412996245443426e-01 -3.0540402843943141e-03
      -2.7417210569180825e-02 4.0677688404884886e-02
      3.4829492207484353e-02 -3.4774408600969600e-02
      -1.5766075831566848e-01 -8.8030964363104827e-02
      9.3996354942891963e-02 2.1820674827193420e-02
      1.2078631631014095e-01 -2.0432188492160899e-02
      -1.4285452270622737e-02 1.0903610557021862e-02
      1.9594517256479531e-02 -1.3257981622055152e-02
      5.2061457227245093e-03 2.2058374671558142e-01
      4.8154468790599446e-02 -7.8016815227740136e-02
      2.2398755061378429e-02 2.9947199116320142e-02
      2.0705589682937042e-01 -5.6593233321778208e-02
      -1.2780918511020156e-01 1.9111467036255703e-02
      1.1365524037872717e-02 3.2938591800384226e-01
      2.0794092342363690e-02 -2.9499373204203677e-01
      7.7221451270750247e-03 -3.3155960621327968e-01
      -2.8970041184987927e-03 1.5490643274710450e-01
      1.0896825048006504e-02 4.0745353742916192e-03
      -6.4663301409518162e-02 3.4792296268171596e-02
      -6.0898232550819796e-02 4.4820996391078873e-02
      2.5229948246464150e-02 -6.0950521499672894e-02
      9.1789042234693363e-02 -5.0645157302871273e-02
      2.4807124092007013e-02 -4.1607883593397378e-02
      -9.2828001611327225e-03 -8.9171064203331596e-02
      2.9555889685205856e-02 -1.1557547288964912e-01
      4.9964819069299854e-01 -7.9830210668849239e-02
      2.6812147196086031e-02 4.6864944894380416e-02
      -2.6369361721517787e-02 3.4373519926386847e-02
      4.7128276555855331e-03 -5.1797783056709845e-02
      -6.3993133017707537e-02 -1.0395200534116238e-02
      -7.2903855668101203e-01 3.5687473573233451e-02
      -7.0186917721059644e-02 -2.9655768006211360e-02
      1.8950027725681931e-01 5.9643502199865889e-02
      -7.5688656586312950e-02 2.1607058277682077e-02
      -2.1729792464357037e-02 -1.9881102607633573e-02
      -3.5227943521611182e-02 -8.3347321160578327e-03
      3.6987987950443196e-02 -1.5494564803728725e-02
      -2.0362952097416183e-02 2.1475668650648903e-02
      -3.0414633539401815e-04 -5.5671764000622667e-02
      3.6481604915281435e-02 -1.2684156207018851e-01
      1.1864566869471339e-02 -6.2491721336727903e-02
      2.4127126302238278e-02 -4.2515072306245898e-02
      -1.8781767077722764e-02 8.6725053960162654e-03
      5.0737892630745220e-02 3.6258087826432764e-02
      9.1581826750748122e-02 -2.1354978773197263e-02
